tree
version=v4
num_class=1
num_tree_per_iteration=1
label_index=0
max_feature_idx=5
objective=quantile
feature_names=price_millions is_home strength_diff squad_top_n_avg_price opp_squad_top_n_avg_price form_lag
feature_infos=[4:15.1] [0:1] [-6.0181818181818185:6.0181818181818185] [4.3909090909090907:11.863636363636363] [4.3909090909090907:11.863636363636363] [-0.66666666666666663:19]
tree_sizes=1252 1226 1226 1245 1299 1293 1297 1293 1377 1320 1325 1318 1288 1375 1399 1409 1424 1428 1428 1440 1420 1422 1448 1451 1440 1428 1466 1477 1466 1484 1470 1470 1479 1470 1452 1485 1462 1470 1475 1472 1474 1471 1475 1478 1469 1493 1484 1483 1467 1487 1487 1487 1474 1475 1482 1465 1467 1456 1472 1482 1481 1463 1465 1463 1467 1468 1494 1482 1488 1475 1486 1490 1463 1484 1473 1473 1487 1465 1475 1467 1497 1472 1484 1468 1474 1490 1497 1484 1475 1472 1469 1490 1490 1468 1475 1494 1480 1483 1476 1485 1491 1491 1482 1483 1498 1471 1472 1477 1482 1490 1491 1498 1487 1490 1487 1486 1493 1483 1484 1486 1494 1473 1494 1487 1495 1488 1481 1469 1479 1479 1492 1487 1480 1483 1491 1483 1493 1504 1489 1484 1483 1492 1490 1475 1496 1467 1478 1479 1492 1483 1480 1471 1496 1508 1477 1479 1488 1512 1478 1489 1500 1473 1479 1487 1489 1494 1466 1502 1494 1506 1501 1489 1478 1488 1466 1484 1483 1484 1479 1494 1487 1472 1503 1476 1471 1494 1492 1481 1464 1486 1485 1468 1494 1477 1508 1486 1489 1477 1486 1510

Tree=0
num_leaves=15
num_cat=0
split_feature=5 0 5 3 2 0 0 3 2 0 2 2 0 2
split_gain=64.1187 14.9981 8.55905 7.45863 5.43615 3.79489 3.71764 2.53044 4.9323 2.94638 1.95681 1.78141 1.39052 1.43092
threshold=1.0000000180025095e-35 5.3500000000000005 1.1666666666666667 6.3136363636363653 -2.2272727272727266 4.4500000000000011 4.1500000000000012 7.9227272727272737 1.0545454545454553 6.1500000000000012 0.39090909090909115 -0.96363636363636329 6.5500000000000007 0.38636363636363674
decision_type=10 2 10 2 2 2 2 2 2 2 2 2 2 2
left_child=1 3 5 4 -1 -2 -6 8 9 11 -8 -3 13 -7
right_child=2 7 -4 -5 6 12 10 -9 -10 -11 -12 -13 -14 -15
leaf_value=0 0 0.050000000000000003 0.050000000000000003 0 0 0 0 0.050000000000000003 0 0.050000000000000003 0 0 0.050000000000000003 0
leaf_weight=46 113 52 2808 64 46 681 287 49 84 79 68 109 207 291
leaf_count=46 113 52 2808 64 46 681 287 49 84 79 68 109 207 291
internal_value=-0.000999197 -0.0132127 0.00163415 -0.0187769 -0.0210626 -0.00173375 -0.0229302 -0.00558981 -0.00719136 -0.00354167 -0.0211972 -0.00742236 -0.000894826 -0.00168724
internal_weight=4984 884 4100 511 447 1292 401 373 324 240 355 161 1179 972
internal_count=4984 884 4100 511 447 1292 401 373 324 240 355 161 1179 972
is_linear=0
shrinkage=0.05


Tree=1
num_leaves=15
num_cat=0
split_feature=5 0 5 4 0 4 4 0 4 5 5 0 2 4
split_gain=64.1187 14.9981 8.55905 7.7198 5.32301 4.90238 4.15323 3.40322 1.7254 2.772 1.37925 1.3716 1.40458 1.27248
threshold=1.0000000180025095e-35 5.3500000000000005 1.1666666666666667 7.9318181818181825 4.0500000000000007 5.1863636363636374 6.1409090909090915 4.4500000000000011 5.6136363636363642 -1.0000000180025095e-35 0.58333333333333337 6.0500000000000007 0.95000000000000029 7.9045454545454552
decision_type=10 2 10 2 2 2 2 2 2 10 10 2 2 2
left_child=1 3 5 4 -1 -2 11 10 9 -6 -7 12 -3 -9
right_child=2 6 -4 -5 8 7 -8 13 -10 -11 -12 -13 -14 -15
leaf_value=0 0 0 0.047500000000000001 0.050000000000000003 0 0 0.047500000000000001 0 0 0 0 0 0 0.047500000000000001
leaf_weight=55 33 73 2808 32 55 35 163 953 299 70 74 100 37 197
leaf_count=55 33 73 2808 32 55 35 163 953 299 70 74 100 37 197
internal_value=-0.000999197 -0.0132127 0.00163415 -0.0187769 -0.0203653 -0.00173375 -0.00558981 -0.00123511 -0.018467 -0.0234 -0.0096789 -0.0102381 -0.0140909 -0.000434782
internal_weight=4984 884 4100 511 479 1292 373 1259 424 125 109 210 110 1150
internal_count=4984 884 4100 511 479 1292 373 1259 424 125 109 210 110 1150
is_linear=0
shrinkage=0.05


Tree=2
num_leaves=15
num_cat=0
split_feature=5 0 5 4 0 4 4 0 4 5 5 0 2 4
split_gain=64.1187 14.9981 8.55905 7.7198 5.32301 4.90238 4.15323 3.40322 1.7254 2.772 1.37925 1.3716 1.40458 1.27248
threshold=1.0000000180025095e-35 5.3500000000000005 1.1666666666666667 7.9318181818181825 4.0500000000000007 5.1863636363636374 6.1409090909090915 4.4500000000000011 5.6136363636363642 -1.0000000180025095e-35 0.58333333333333337 6.0500000000000007 0.95000000000000029 7.9045454545454552
decision_type=10 2 10 2 2 2 2 2 2 10 10 2 2 2
left_child=1 3 5 4 -1 -2 11 10 9 -6 -7 12 -3 -9
right_child=2 6 -4 -5 8 7 -8 13 -10 -11 -12 -13 -14 -15
leaf_value=0 0 0 0.045124999999999998 0.047500000000000001 0 0 0.045124999999999998 0 0 0 0 0 0 0.045124999999999998
leaf_weight=55 33 73 2808 32 55 35 163 953 299 70 74 100 37 197
leaf_count=55 33 73 2808 32 55 35 163 953 299 70 74 100 37 197
internal_value=-0.000999197 -0.0132127 0.00163415 -0.0187769 -0.0203653 -0.00173375 -0.00558981 -0.00123511 -0.018467 -0.0234 -0.0096789 -0.0102381 -0.0140909 -0.000434782
internal_weight=4984 884 4100 511 479 1292 373 1259 424 125 109 210 110 1150
internal_count=4984 884 4100 511 479 1292 373 1259 424 125 109 210 110 1150
is_linear=0
shrinkage=0.05


Tree=3
num_leaves=15
num_cat=0
split_feature=0 4 0 0 4 3 3 3 3 0 2 0 4 3
split_gain=32.0669 10.7019 7.90877 7.82718 4.53289 4.70909 3.12862 4.35458 3.07126 3.04905 2.83887 2.39223 2.51246 1.73291
threshold=4.4500000000000011 5.0863636363636369 4.0500000000000007 5.3500000000000005 7.9045454545454552 6.3363636363636369 5.9409090909090922 5.9590909090909099 6.0681818181818192 5.4500000000000011 -1.7272727272727277 6.5500000000000007 6.1590909090909101 5.4227272727272737
decision_type=2 2 2 2 2 2 2 2 2 2 2 2 2 2
left_child=2 9 -1 4 5 6 -3 -8 10 -2 -4 12 -5 -12
right_child=1 3 8 11 -6 -7 7 -9 -10 -11 13 -13 -14 -15
leaf_value=0 0 0 0 0 0.042868750000000004 0.042868750000000004 0 0 0.02572125293845311 0 0 0.042868750000000004 0.042868750000000004 0
leaf_weight=75 49 612 40 739 212 287 49 234 47 62 75 1420 990 93
leaf_count=75 49 612 40 739 212 287 49 234 47 62 75 1420 990 93
internal_value=-0.000999197 6.87582e-05 -0.0160606 0.00044354 -0.00267575 -0.00388325 -0.00567039 -0.0100177 -0.0118627 -0.0152703 -0.0144712 0.00182439 0.000575477 -0.0173214
internal_weight=4984 4654 330 4543 1394 1182 895 283 255 111 208 3149 1729 168
internal_count=4984 4654 330 4543 1394 1182 895 283 255 111 208 3149 1729 168
is_linear=0
shrinkage=0.05


Tree=4
num_leaves=15
num_cat=0
split_feature=5 4 3 5 4 5 3 3 3 3 4 4 5 5
split_gain=64.1187 11.8312 8.94045 8.55905 4.90238 4.80063 4.47574 3.97702 2.86481 2.74232 2.6855 1.63344 1.41323 3.88753
threshold=1.0000000180025095e-35 7.9227272727272737 7.9227272727272737 1.1666666666666667 5.1863636363636374 -1.0000000180025095e-35 6.3227272727272732 7.1818181818181825 6.0500000000000007 5.1545454545454552 5.6136363636363642 7.9045454545454552 0.58333333333333337 0.41666666666666669
decision_type=10 2 2 10 2 10 2 2 2 2 2 2 10 10
left_child=1 2 5 4 -2 -1 8 -8 10 -6 -7 12 13 -11
right_child=3 -3 -4 -5 9 6 7 -9 -10 11 -12 -13 -14 -15
leaf_value=0 0 0.040725312499999999 0.040725312499999999 0.040725312499999999 0 0 -0.00042868731474969541 -0.0021434375000000004 0 0 0 0.040725312499999999 0 -0.001028850017886225
leaf_weight=345 33 81 52 2808 47 71 59 39 64 275 173 205 679 53
leaf_count=345 33 81 52 2808 47 71 59 39 64 275 173 205 679 53
internal_value=-0.000999197 -0.0132127 -0.0150498 0.00163415 -0.00173375 -0.0164381 -0.0201232 -0.0108163 -0.0230844 -0.00123511 -0.0206148 -0.000775577 -0.00160377 -0.00429878
internal_weight=4984 884 803 4100 1292 751 406 98 308 1259 244 1212 1007 328
internal_count=4984 884 803 4100 1292 751 406 98 308 1259 244 1212 1007 328
is_linear=0
shrinkage=0.05


Tree=5
num_leaves=15
num_cat=0
split_feature=5 0 3 2 5 4 3 0 4 0 4 0 3 3
split_gain=59.5667 21.8356 10.1742 7.2088 7.07399 4.83371 3.74909 3.03955 2.02666 1.38312 1.35279 1.42263 1.57176 1.63213
threshold=1.0000000180025095e-35 5.3500000000000005 6.3136363636363653 -2.2272727272727266 1.1666666666666667 5.0863636363636369 5.1545454545454552 4.1500000000000012 6.2181818181818196 7.6500000000000012 7.9045454545454552 4.9500000000000011 6.3227272727272732 5.9409090909090922
decision_type=10 2 2 2 10 2 2 2 2 2 2 2 2 2
left_child=1 2 3 -1 5 -2 -7 -5 9 -3 11 12 13 -8
right_child=4 8 -4 7 -6 6 10 -9 -10 -11 -12 -13 -14 -15
leaf_value=0 0 0 2.1434384901309388e-05 0 0.038689046875000001 0 0 0 0.038689046875000001 0.043320296874999997 0.038689046875000001 5.1442500894311258e-05 0.047856562500000005 0
leaf_weight=47 31 177 63 46 2812 49 135 351 159 30 212 751 64 68
leaf_count=47 31 177 63 46 2812 49 135 351 159 30 212 751 64 68
internal_value=-0.000775776 -0.0126403 -0.019359 -0.022027 0.00173702 -0.00129771 -0.000824863 -0.0242191 -0.00333333 -0.0065942 -0.000284553 -0.00104126 -0.00417603 -0.00633005
internal_weight=4995 873 507 444 4122 1310 1279 397 366 207 1230 1018 267 203
internal_count=4995 873 507 444 4122 1310 1279 397 366 207 1230 1018 267 203
is_linear=0
shrinkage=0.05


Tree=6
num_leaves=15
num_cat=0
split_feature=5 3 4 5 4 5 3 4 2 3 3 4 4 2
split_gain=59.5667 16.4069 9.49166 7.07399 4.83371 4.42923 3.74909 3.18345 1.9128 3.24778 1.59434 1.42223 1.35279 1.05248
threshold=1.0000000180025095e-35 6.3136363636363653 7.9318181818181825 1.1666666666666667 5.0863636363636369 -1.0000000180025095e-35 5.1545454545454552 6.6318181818181836 0.95000000000000029 7.9318181818181825 7.1409090909090915 7.5681818181818192 7.9045454545454552 -0.34545454545454518
decision_type=10 2 2 10 2 10 2 2 2 2 2 2 2 2
left_child=1 2 5 4 -2 -1 -6 13 -3 10 -10 -9 -8 -7
right_child=3 8 -4 -5 6 7 12 11 9 -11 -12 -13 -14 -15
leaf_value=0 0 0.036754594531249997 0.036754594531249997 0.036754594531249997 0 0 0 0 0 0.036754594531249997 -0.0021442948753130093 -0.00077163752299658217 0.036754594531249997 0
leaf_weight=262 31 105 45 2812 49 80 1018 47 53 49 53 35 212 144
leaf_count=262 31 105 45 2812 49 80 1018 47 53 49 53 35 212 144
internal_value=-0.000775776 -0.0126403 -0.0171044 0.00173702 -0.00129771 -0.0188556 -0.000824863 -0.0229412 -0.00211538 -0.00564516 -0.010566 -0.0145122 -0.000284553 -0.0260268
internal_weight=4995 873 613 4122 1310 568 1279 306 260 155 106 82 1230 224
internal_count=4995 873 613 4122 1310 568 1279 306 260 155 106 82 1230 224
is_linear=0
shrinkage=0.05


Tree=7
num_leaves=15
num_cat=0
split_feature=5 0 2 3 5 3 0 0 3 2 2 2 1 2
split_gain=50.8909 19.3675 11.0629 11.005 7.07399 3.48895 2.88333 1.68961 1.74571 2.55886 1.69327 1.72728 1.75994 1.6278
threshold=1.0000000180025095e-35 5.3500000000000005 -1.759090909090909 6.3136363636363653 1.1666666666666667 5.1545454545454552 4.1500000000000012 4.9500000000000011 6.3227272727272732 -1.9545454545454544 0.39090909090909115 -0.15909090909090914 1.0000000180025095e-35 -0.70454545454545492
decision_type=10 2 2 2 10 2 2 2 2 2 2 2 2 2
left_child=1 2 -1 6 5 -2 -4 8 9 -7 11 12 -11 -8
right_child=4 -3 3 -5 -6 7 13 -9 -10 10 -12 -13 -14 -15
leaf_value=3.8581876149829109e-05 0 0 0 -0.0017514788563238683 0.034916864804687496 0.037416864804687498 0 0.0035357187106096646 0.037965727870682114 0 0 0.048713937353077351 0 0
leaf_weight=66 49 366 44 60 2812 44 106 942 72 66 37 42 58 231
leaf_count=66 49 366 44 60 2812 44 106 942 72 66 37 42 58 231
internal_value=-0.000585585 -0.0115521 -0.0178797 -0.020737 0.00173702 -0.00129771 -0.0238714 -0.000789056 -0.00393417 -0.00593117 -0.00830049 -0.00614458 -0.0091129 -0.0222997
internal_weight=4995 873 507 441 4122 1310 381 1261 319 247 203 166 124 337
internal_count=4995 873 507 441 4122 1310 381 1261 319 247 203 166 124 337
is_linear=0
shrinkage=0.05


Tree=8
num_leaves=15
num_cat=0
split_feature=5 0 4 0 3 5 2 5 0 4 3 2 3 3
split_gain=50.4387 16.4534 8.55236 7.7425 6.04193 5.97559 3.71956 3.48964 2.58164 2.28267 2.07175 1.69376 2.21885 1.60605
threshold=0.58333333333333337 4.4500000000000011 6.3227272727272732 5.3500000000000005 6.0681818181818192 1.0000000180025095e-35 -1.4681818181818171 1.1666666666666667 4.9500000000000011 7.9045454545454552 6.2681818181818194 -0.22272727272727308 5.9409090909090922 7.9045454545454552
decision_type=10 2 2 2 2 10 2 10 2 2 2 2 2 2
left_child=1 4 3 5 6 10 -1 8 -2 11 -3 12 -4 -5
right_child=7 2 9 13 -6 -7 -8 -9 -10 -11 -12 -13 -14 -15
leaf_value=-1.7361843376305227e-06 0 0 0 -0.000137689614606142 -0.0012359062079470417 -0.00017678593553048324 0 0.033171021564453125 0.03724007886915702 0.034916864804687496 -0.0018425486576632219 0.034916864804687496 -0.002322795560575199 0.037837411372570913
leaf_weight=32 223 187 117 279 30 108 139 2812 681 131 35 80 96 45
leaf_count=32 223 187 117 279 30 108 139 2812 681 131 35 80 96 45
internal_value=-0.000665665 -0.00922987 -0.00678108 -0.010367 -0.0223632 -0.0157576 -0.0259942 0.00228202 -0.000420354 -0.00125 -0.0204504 -0.00370307 -0.00603286 -0.00487654
internal_weight=4995 1279 1078 654 201 330 171 3716 904 424 222 293 213 324
internal_count=4995 1279 1078 654 201 330 171 3716 904 424 222 293 213 324
is_linear=0
shrinkage=0.05


Tree=9
num_leaves=15
num_cat=0
split_feature=5 0 4 5 2 4 0 4 5 4 2 2 4 2
split_gain=31.5605 24.24 16.6421 6.1362 3.82269 3.49482 2.86698 2.2663 2.15537 1.86505 2.77885 1.60728 1.33754 1.27666
threshold=1.0000000180025095e-35 5.3500000000000005 6.3227272727272732 1.1666666666666667 0.75454545454545541 5.0863636363636369 4.4500000000000011 7.2227272727272736 -1.0000000180025095e-35 5.6136363636363642 -0.34545454545454518 -0.95000000000000007 5.2272727272727275 1.0000000180025095e-35
decision_type=10 2 2 10 2 2 2 2 10 2 2 2 2 2
left_child=1 2 4 5 8 -2 13 11 -1 -10 -11 -4 -6 -7
right_child=3 -3 7 -5 12 6 -8 -9 9 10 -12 -13 -14 -15
leaf_value=0 -0.002038789795442511 6.8844807303071004e-06 0 0.031512470486230473 0 0 8.8392967765241622e-06 3.6739591559219187e-05 0 0 0 0.00011613977802875996 -0.0017504212247800609 2.6478065739965475e-09
leaf_weight=113 31 366 58 2812 32 73 1165 75 58 52 52 34 33 41
leaf_count=113 31 366 58 2812 32 73 1165 75 58 52 52 34 33 41
internal_value=5.00519e-06 -0.00863116 -0.0157101 0.00183406 -0.0220588 -0.000992366 -0.000590305 -0.00278443 -0.0246364 -0.0283333 -0.0243269 -0.00804348 -0.0111538 -0.00815789
internal_weight=4995 873 507 4122 340 1310 1279 167 275 162 104 92 65 114
internal_count=4995 873 507 4122 340 1310 1279 167 275 162 104 92 65 114
is_linear=0
shrinkage=0.05


Tree=10
num_leaves=15
num_cat=0
split_feature=5 0 2 3 0 5 2 0 3 2 0 2 2 5
split_gain=29.5685 19.7544 10.5285 9.77914 6.16863 5.16815 2.78314 2.40871 2.06146 2.99756 2.00605 1.60074 1.23459 1.12603
threshold=1.0000000180025095e-35 5.3500000000000005 -1.4090909090909085 6.2681818181818194 4.4500000000000011 1.1666666666666667 0.39090909090909115 4.4500000000000011 5.6500000000000012 -0.16363636363636355 4.1500000000000012 1.0000000180025095e-35 -0.6863636363636364 -1.0000000180025095e-35
decision_type=10 2 2 2 2 10 2 2 2 2 2 2 2 10
left_child=1 2 -1 4 10 7 8 11 -6 -10 -4 -2 -12 -3
right_child=5 13 3 -5 6 -7 -8 -9 9 -11 12 -13 -14 -15
leaf_value=3.4723700205615048e-08 0 6.5402566937917456e-06 0 -0.00074796977406660619 0 0.029936846961918947 0 6.4425158914808918e-06 0.00011033278912732196 0 0 0.00010193948977212555 0 -0.0019225106245405585
leaf_weight=105 78 200 39 66 100 2818 50 1173 46 36 32 43 47 172
leaf_count=105 78 200 39 66 100 2818 50 1173 46 36 32 43 47 172
internal_value=0.000144855 -0.0081019 -0.0143858 -0.0179567 -0.0212857 0.0019358 -0.0165517 -0.000680062 -0.0136813 -0.00780488 -0.0305932 -0.00739669 -0.0260127 0.000698925
internal_weight=5005 893 521 416 350 4112 232 1294 182 82 118 121 79 372
internal_count=5005 893 521 416 350 4112 232 1294 182 82 118 121 79 372
is_linear=0
shrinkage=0.05


Tree=11
num_leaves=15
num_cat=0
split_feature=5 0 4 5 2 5 0 0 0 2 4 4 4 4
split_gain=29.5685 19.7544 17.0832 5.16815 3.63002 2.42459 2.40871 2.21712 1.94246 1.60074 1.4902 1.41672 1.29055 1.12868
threshold=1.0000000180025095e-35 5.3500000000000005 6.3227272727272732 1.1666666666666667 0.75454545454545541 -1.0000000180025095e-35 4.4500000000000011 4.4500000000000011 4.4500000000000011 1.0000000180025095e-35 5.8590909090909102 6.0590909090909095 5.2272727272727275 6.3954545454545464
decision_type=10 2 2 10 2 10 2 2 2 2 2 2 2 2
left_child=1 2 4 6 5 -1 9 -7 -4 13 -9 -8 -6 -2
right_child=3 -3 8 -5 12 7 11 10 -10 -11 -12 -13 -14 -15
leaf_value=0 0 6.2132438591021581e-06 -1.8440207756202101e-06 0.028440004613823001 0 0 -0.00016633405195202048 0 6.2814912750595021e-05 9.6842515283519282e-05 0 0.032877310835065766 -0.0016255016748377279 0
leaf_weight=117 43 372 46 2818 31 59 462 57 125 43 51 711 35 35
leaf_count=117 43 372 46 2818 31 59 462 57 125 43 51 711 35 35
internal_value=0.000144855 -0.0081019 -0.0143858 0.0019358 -0.0207143 -0.023169 -0.000680062 -0.0270359 -0.00143275 -0.00739669 -0.0227778 1.27879e-05 -0.0101515 -0.0116667
internal_weight=5005 893 521 4112 350 284 1294 167 171 121 108 1173 66 78
internal_count=5005 893 521 4112 350 284 1294 167 171 121 108 1173 66 78
is_linear=0
shrinkage=0.05


Tree=12
num_leaves=15
num_cat=0
split_feature=0 0 4 3 4 4 0 3 2 2 2 0 0 2
split_gain=22.8227 7.4809 7.13902 6.12585 5.56313 5.3932 2.70848 2.63558 2.83455 1.37788 1.6839 1.15871 1.12482 1.12015
threshold=4.4500000000000011 5.3500000000000005 6.3363636363636369 6.4681818181818187 6.3227272727272732 6.2954545454545459 4.0500000000000007 6.2681818181818194 -0.018181818181818073 0.045454545454545421 0.39090909090909115 7.5500000000000007 4.3500000000000005 0.51363636363636378
decision_type=2 2 2 2 2 2 2 2 2 2 2 2 2 2
left_child=2 4 3 6 5 7 -1 8 -2 -10 -11 -3 -8 -12
right_child=1 11 -4 -5 -6 -7 12 -9 9 10 13 -13 -14 -15
leaf_value=0 0 0.027018004383131844 0 0.00056887878641835035 0.00011079252803500696 -0.0016384421240240579 0 0.00032474064186224799 0 0 -8.9218913772436093e-05 0.027018004383131844 0 0
leaf_weight=49 278 2499 110 31 690 48 91 183 31 95 43 711 60 86
leaf_count=49 278 2499 110 31 690 48 91 183 31 95 43 711 60 86
internal_value=0.000184815 0.00109777 -0.0123021 -0.0172944 -0.00187758 -0.00481675 -0.0205 -0.00372905 -0.00550657 -0.00931373 -0.00794643 0.00244548 -0.0171854 -0.0116667
internal_weight=5005 4664 341 231 1454 764 200 716 533 255 224 3210 151 129
internal_count=5005 4664 341 231 1454 764 200 716 533 255 224 3210 151 129
is_linear=0
shrinkage=0.05


Tree=13
num_leaves=15
num_cat=0
split_feature=5 4 0 3 3 5 0 4 5 0 5 5 2 4
split_gain=34.2387 16.0279 8.29042 3.03902 4.37059 2.86282 2.6613 2.70576 2.21141 2.07343 2.48526 2.34909 1.5452 1.59952
threshold=0.58333333333333337 6.0590909090909095 4.4500000000000011 7.9045454545454552 7.1409090909090915 1.0000000180025095e-35 4.4500000000000011 6.6954545454545462 2.1666666666666674 6.1500000000000012 1.0000000180025095e-35 0.41666666666666669 0.027272727272726897 5.577272727272728
decision_type=10 2 2 2 2 8 2 2 10 2 10 10 2 2
left_child=1 2 5 4 9 -1 7 -3 -2 10 12 -12 -4 -14
right_child=8 6 3 -5 -6 -7 -8 -9 -10 -11 11 -13 13 -15
leaf_value=0 0.025667104163975253 0 0 0.036583164720521998 -0.0035774592636664371 0 2.0906976972416289e-05 -7.0072777465659779e-07 0.025667104163975253 0.0074766598475793367 -3.7415486179837363e-05 -0.001464378686142972 -0.0012485450934287276 -0.0013449976374904453
leaf_weight=63 1791 30 95 33 60 61 549 47 1920 63 88 34 116 55
leaf_count=63 1791 30 95 33 60 61 549 47 1920 63 88 34 116 55
internal_value=2.49752e-05 -0.00697836 -0.0123653 -0.00970588 -0.0106556 -0.0240323 -0.00123003 -0.00993506 0.00246699 -0.00896896 -0.0103351 -0.00442623 -0.0130451 -0.0102047
internal_weight=5005 1294 668 544 511 124 626 77 3711 451 388 122 266 171
internal_count=5005 1294 668 544 511 124 626 77 3711 451 388 122 266 171
is_linear=0
shrinkage=0.05


Tree=14
num_leaves=15
num_cat=0
split_feature=5 0 4 4 5 0 5 3 3 2 5 5 3 0
split_gain=24.8525 14.6179 8.19048 5.71074 3.23997 3.15708 2.56434 2.50479 5.85316 3.23411 2.59409 1.65779 1.54033 1.53748
threshold=0.58333333333333337 4.4500000000000011 6.6045454545454554 6.2181818181818196 1.1666666666666667 4.9500000000000011 1.0000000180025095e-35 6.8681818181818182 7.9045454545454552 0.027272727272726897 1.0000000180025095e-35 0.41666666666666669 7.1409090909090915 4.9500000000000011
decision_type=10 2 2 2 10 2 8 2 2 2 8 8 2 2
left_child=1 2 6 7 5 -2 -1 9 12 10 -3 -12 -9 -11
right_child=4 3 -4 -5 -6 -7 -8 8 -10 13 11 -13 -14 -15
leaf_value=0 -0.0012833552081987628 0 -1.7167833481063699e-06 7.536011789621598e-05 0.024383748955776493 0.031099189865957125 0 -0.001770077685315227 0.034330448677072939 6.2427254671436382e-05 0.016885965862566667 -0.0012877702163752848 -0.005286912487247648 -0.0012825703828190089
leaf_weight=74 218 59 54 486 2818 675 73 38 40 89 45 78 65 193
leaf_count=74 218 59 54 486 2818 675 73 38 40 89 45 78 65 193
internal_value=0.000224775 -0.00574189 -0.0181343 -0.00346295 0.00230531 -0.000319149 -0.0242517 -0.00669687 -0.0124825 -0.00491379 -0.0101099 -0.00597561 -0.0187864 -0.00156028
internal_weight=5005 1294 201 1093 3711 893 147 607 143 464 182 123 103 282
internal_count=5005 1294 201 1093 3711 893 147 607 143 464 182 123 103 282
is_linear=0
shrinkage=0.05


Tree=15
num_leaves=15
num_cat=0
split_feature=5 4 5 2 5 4 3 5 4 3 3 2 4 2
split_gain=21.2884 7.39199 7.28736 6.32255 3.50079 1.69289 1.64052 1.49572 1.49309 1.40233 1.13083 0.954644 0.850958 0.698469
threshold=0.58333333333333337 6.2181818181818196 1.0000000180025095e-35 -1.0000000180025095e-35 1.1666666666666667 7.9045454545454552 5.4681818181818196 0.41666666666666669 5.3136363636363644 5.6500000000000012 7.6045454545454563 0.57727272727272816 5.7954545454545459 -0.52727272727272678
decision_type=10 2 8 2 10 2 2 8 2 2 2 2 2 2
left_child=1 2 3 6 8 10 -1 -4 -2 13 -3 -5 -9 -10
right_child=4 5 7 11 -6 -7 -8 12 9 -11 -12 -13 -14 -15
leaf_value=0 -0.001211634832049514 -0.0010486246496394084 -3.6047500005578047e-05 0 0.023164561507987669 0.031814326091488945 0 -0.0012155482859476971 -0.0012191874477888245 0.029544230372659266 0.031901133389624296 -0.0015465287295125265 -0.0011892438437990844 -0.0030456554712956583
leaf_weight=53 31 364 158 72 2805 134 42 197 140 661 60 127 111 56
leaf_count=53 31 364 158 72 2805 134 42 197 140 661 60 127 111 56
internal_value=0.000440032 -0.00501517 -0.00822368 -0.0143878 0.00238695 -0.000645161 -0.025 -0.00433476 -0.000349099 4.08403e-05 -0.0021934 -0.00932161 -0.00636364 -0.00367347
internal_weight=5011 1318 760 294 3693 558 95 466 888 857 424 199 308 196
internal_count=5011 1318 760 294 3693 558 95 466 888 857 424 199 308 196
is_linear=0
shrinkage=0.05


Tree=16
num_leaves=15
num_cat=0
split_feature=5 4 5 2 3 4 4 2 4 5 4 2 3 5
split_gain=13.0606 7.14618 8.12111 10.4623 2.07783 1.55413 1.6904 1.30233 1.22247 1.03947 0.78665 0.644571 1.43111 1.29348
threshold=1.1666666666666667 6.0590909090909095 1.0000000180025095e-35 0.027272727272726897 7.1409090909090915 5.0863636363636369 5.9409090909090922 -0.34545454545454518 7.9045454545454552 2.1666666666666674 6.8681818181818182 -0.30454545454545462 5.9409090909090922 0.58333333333333337
decision_type=8 2 10 2 2 2 2 2 2 10 2 2 2 10
left_child=1 2 3 7 -5 -4 -7 -1 10 -2 -3 12 -12 -14
right_child=9 8 5 4 -6 6 -8 -9 -10 -11 11 -13 13 -15
leaf_value=0 0.00012008330623524942 5.2431232481970422e-05 -0.0015621271919223989 -0.0010446628831407147 -0.0026570509506417474 -9.5164430214932756e-05 -0.0049626624045801806 0 0.028067018854026307 0.022006333432588288 -0.00056240340037328634 0.030315721966069444 -0.011539943358370304 -0.0056780368620899446
leaf_weight=43 1299 482 30 137 47 411 95 44 258 1908 116 44 50 47
leaf_count=43 1299 482 30 137 47 411 95 44 258 1908 116 44 50 47
internal_value=0.00105867 -0.00234479 -0.00584263 -0.0128967 -0.0061413 -0.00227612 -0.00162055 -0.0271839 0.00048646 0.00297318 -0.000548038 -0.0027821 -0.00392019 -0.00840206
internal_weight=5011 1804 807 271 184 536 506 87 997 3207 739 257 213 97
internal_count=5011 1804 807 271 184 536 506 87 997 3207 739 257 213 97
is_linear=0
shrinkage=0.05


Tree=17
num_leaves=15
num_cat=0
split_feature=5 4 2 5 5 2 3 4 4 2 5 2 4 4
split_gain=12.2565 6.33136 7.47721 7.05306 2.35898 3.92595 3.05498 1.79024 1.22247 1.07084 1.03947 0.967742 0.78665 0.745805
threshold=1.1666666666666667 6.0590909090909095 -0.39545454545454589 1.0000000180025095e-35 1.0000000180025095e-35 0.027272727272726897 6.8681818181818182 5.0863636363636369 7.9045454545454552 -0.52727272727272678 2.1666666666666674 2.1045454545454558 6.8681818181818182 5.9409090909090922
decision_type=8 2 2 10 10 2 2 2 2 2 10 2 2 2
left_child=1 2 3 -1 5 -4 -7 -6 12 -5 -2 -8 -3 -9
right_child=10 8 4 9 7 6 11 13 -10 -11 -12 -13 -14 -15
leaf_value=0 0.00011407914092348695 4.9809670857871902e-05 0 -0.00080704797949252547 -0.001484020832326279 5.2233144157035734e-05 -0.0026244102950109208 3.3128653173664243e-05 0.026663667911324986 -0.0044717080470147597 0.020906016760958875 -0.0025241984031096603 -0.0028736904522230402 -0.0051204824541950236
leaf_weight=43 1299 482 44 37 30 122 30 372 258 31 1908 32 257 66
leaf_count=43 1299 482 44 37 30 122 30 372 258 31 1908 32 257 66
internal_value=0.00111854 -0.00217849 -0.00547088 -0.0175225 -0.00354885 -0.0077193 -0.00451087 -0.00151709 0.00048646 -0.0075 0.00297318 -0.0135484 -0.000548038 -0.000707762
internal_weight=5011 1804 807 111 696 228 184 468 997 68 3207 62 739 438
internal_count=5011 1804 807 111 696 228 184 468 997 68 3207 62 739 438
is_linear=0
shrinkage=0.05


Tree=18
num_leaves=15
num_cat=0
split_feature=5 4 2 5 5 2 3 4 4 2 5 2 4 4
split_gain=12.2565 6.33136 7.47721 7.05306 2.35898 3.92595 3.05498 1.79024 1.22247 1.07084 1.03947 0.967742 0.78665 0.745805
threshold=1.1666666666666667 6.0590909090909095 -0.39545454545454589 1.0000000180025095e-35 1.0000000180025095e-35 0.027272727272726897 6.8681818181818182 5.0863636363636369 7.9045454545454552 -0.52727272727272678 2.1666666666666674 2.1045454545454558 6.8681818181818182 5.9409090909090922
decision_type=8 2 2 10 10 2 2 2 2 2 10 2 2 2
left_child=1 2 3 -1 5 -4 -7 -6 12 -5 -2 -8 -3 -9
right_child=10 8 4 9 7 6 11 13 -10 -11 -12 -13 -14 -15
leaf_value=0 0.00010837518387731261 4.7319187314978306e-05 0 -0.00076669558051789912 -0.001409819790709965 4.9621486949183949e-05 -0.0024931897802603752 3.1472220514981024e-05 0.025330484515758742 -0.0042481226446640218 0.019860715922910933 -0.0023979884829541769 -0.0027300059296118881 -0.0048644583314852718
leaf_weight=43 1299 482 44 37 30 122 30 372 258 31 1908 32 257 66
leaf_count=43 1299 482 44 37 30 122 30 372 258 31 1908 32 257 66
internal_value=0.00111854 -0.00217849 -0.00547088 -0.0175225 -0.00354885 -0.0077193 -0.00451087 -0.00151709 0.00048646 -0.0075 0.00297318 -0.0135484 -0.000548038 -0.000707762
internal_weight=5011 1804 807 111 696 228 184 468 997 68 3207 62 739 438
internal_count=5011 1804 807 111 696 228 184 468 997 68 3207 62 739 438
is_linear=0
shrinkage=0.05


Tree=19
num_leaves=15
num_cat=0
split_feature=5 4 5 3 4 0 4 4 4 5 4 3 0 0
split_gain=12.2565 6.33136 6.51637 7.90231 4.23362 4.54099 1.55413 1.6904 1.22247 1.03947 0.78665 0.638714 0.625445 2.00684
threshold=1.1666666666666667 6.0590909090909095 1.0000000180025095e-35 5.4681818181818196 5.9500000000000011 5.4500000000000011 5.0863636363636369 5.9409090909090922 7.9045454545454552 2.1666666666666674 6.8681818181818182 6.0045454545454549 6.0500000000000007 5.5500000000000007
decision_type=8 2 10 2 2 2 2 2 2 10 2 2 2 2
left_child=1 2 3 -1 5 -5 -4 -8 10 -2 -3 -9 13 -12
right_child=9 8 6 4 -6 -7 7 11 -10 -11 12 -13 -14 -15
leaf_value=0 0.00010295642468344697 4.4953227949229392e-05 -0.0013393288011744667 4.7140412601724751e-05 -0.00065118604787197114 -0.002278089058806468 -9.3636252388618383e-05 -0.0042747291214970465 0.024063960289970807 0.018867680126765388 -0.00082925537127442244 -0.00105196773446118 0.034768543145082362 -0.011231050036757076
leaf_weight=57 1299 482 30 109 41 64 411 44 258 1908 166 51 52 39
leaf_count=57 1299 482 30 109 41 64 411 44 258 1908 166 51 52 39
internal_value=0.00111854 -0.00217849 -0.00547088 -0.0117897 -0.00738318 -0.00395954 -0.00227612 -0.00162055 0.00048646 0.00297318 -0.000548038 -0.00763158 -0.0027821 -0.00402439
internal_weight=5011 1804 807 271 214 173 536 506 997 3207 739 95 257 205
internal_count=5011 1804 807 271 214 173 536 506 997 3207 739 95 257 205
is_linear=0
shrinkage=0.05


Tree=20
num_leaves=15
num_cat=0
split_feature=5 4 5 2 0 4 4 4 2 0 0 5 2 0
split_gain=9.85992 5.67005 3.25019 5.64912 4.64227 2.26717 1.51717 0.987667 0.94481 0.847039 2.98722 1.12644 0.811688 0.793531
threshold=1.1666666666666667 6.0590909090909095 1.0000000180025095e-35 -0.081818181818181554 5.4500000000000011 5.7681818181818185 4.9454545454545462 7.9045454545454552 2.4000000000000004 5.5500000000000007 5.9500000000000011 0.83333333333333337 1.0000000180025095e-35 6.0500000000000007
decision_type=10 2 8 2 2 2 2 2 2 2 2 10 2 2
left_child=1 2 3 5 -5 -1 -4 -3 9 11 -11 -8 -13 -6
right_child=-2 7 6 4 13 -7 8 -9 -10 10 -12 12 -14 -15
leaf_value=0 0.017924296120427115 2.1079437638829519e-05 -0.0015918240340922402 3.5004122349321598e-05 -0.0010629609751771438 0 3.7187489403979421e-05 0.022860762275472263 0.037662536659090723 -0.0069002572683109289 -0.0012421064151602709 -0.0027212282493417365 -0.00095127956653122197 -0.002419913885117279
leaf_weight=30 2838 884 38 113 37 36 299 289 47 71 159 55 70 39
leaf_count=30 2838 884 38 113 37 36 299 289 47 71 159 55 70 39
internal_value=0.00126374 -0.00127596 -0.00405433 -0.00892157 -0.00452381 -0.0215152 -0.00237483 0.00107843 -0.00184736 -0.00233945 -0.00478261 -0.00101415 -0.005 -0.0140789
internal_weight=5005 2167 994 255 189 66 739 1173 701 654 230 424 125 76
internal_count=5005 2167 994 255 189 66 739 1173 701 654 230 424 125 76
is_linear=0
shrinkage=0.05


Tree=21
num_leaves=15
num_cat=0
split_feature=5 4 2 5 0 0 5 4 2 0 0 5 4 5
split_gain=9.25981 5.02285 2.74855 4.54787 1.38419 4.17673 1.2015 0.987667 0.926172 1.6138 1.22927 0.770833 0.678676 0.70186
threshold=1.1666666666666667 6.0590909090909095 -0.39545454545454589 1.0000000180025095e-35 5.5500000000000007 5.9500000000000011 0.83333333333333337 7.9045454545454552 1.0545454545454553 7.9500000000000011 6.7500000000000009 2.1666666666666674 6.8681818181818182 -1.0000000180025095e-35
decision_type=10 2 2 8 2 2 10 2 2 2 2 10 2 10
left_child=1 2 3 -1 -4 -6 -5 12 -7 10 -10 -2 -3 -14
right_child=11 7 4 6 5 8 -8 -9 9 -11 -12 -13 13 -15
leaf_value=0 0.021087843923780953 4.1651594669826448e-05 0 3.5328114933780447e-05 -0.0056975486723191172 0.037724641979848733 -0.00093403945080159766 0.021717724161698648 -0.00071377063951972208 0.033290356426848154 -0.004830333383800749 0.017028081314405759 2.7471613633353096e-05 -0.00299088492065011
leaf_weight=41 921 556 506 55 98 92 41 289 60 38 63 1917 60 268
leaf_count=41 921 556 506 55 98 92 41 289 60 38 63 1917 60 268
internal_value=0.00132368 -0.00113752 -0.00375251 -0.0103285 -0.00270128 -0.00511396 -0.004375 0.00107843 -0.00171937 -0.00400621 -0.00678862 0.00320296 0.000248869 -0.00155488
internal_weight=5005 2167 994 137 857 351 96 1173 253 161 123 2838 884 328
internal_count=5005 2167 994 137 857 351 96 1173 253 161 123 2838 884 328
is_linear=0
shrinkage=0.05


Tree=22
num_leaves=15
num_cat=0
split_feature=5 4 3 5 3 2 4 5 4 3 1 4 5 4
split_gain=8.77411 4.51346 2.84456 11.0602 1.34622 2.15853 1.01004 1.225 0.987667 0.924333 0.782932 0.819626 1.46255 0.678676
threshold=1.1666666666666667 6.0590909090909095 5.4409090909090922 1.0000000180025095e-35 8.0818181818181838 0.95000000000000029 5.8136363636363644 0.58333333333333337 7.9045454545454552 5.3136363636363644 1.0000000180025095e-35 5.4772727272727275 1.0000000180025095e-35 6.8681818181818182
decision_type=10 2 2 8 2 2 2 10 2 2 2 2 10 2
left_child=1 2 3 -1 5 -4 7 -5 13 -2 -7 -12 -13 -3
right_child=9 8 4 6 -6 10 -8 -9 -10 -11 11 12 -14 -15
leaf_value=0 -0.026472210553251496 3.9569014936335121e-05 -0.00054522590968228402 -7.2510106421795972e-05 0.033509651647982364 -0.0017396847775498381 3.356170918709143e-05 -0.0010625540582484955 0.020631837953613719 0.016176677248685468 -0.0010583564387584496 -0.0018660892789585906 -0.0059023245925235515 -0.0020526930945593846
leaf_weight=52 76 556 471 60 60 102 41 36 289 2762 82 52 38 328
leaf_count=52 76 556 471 60 60 102 41 36 289 2762 82 52 38 328
internal_value=0.00137363 -0.00102215 -0.00350101 -0.00902116 -0.00220497 -0.00278523 -0.00156934 -0.004375 0.00107843 0.00320296 -0.00631387 -0.00837209 -0.0116667 0.000248869
internal_weight=5005 2167 994 189 805 745 137 96 1173 2838 274 172 90 884
internal_count=5005 2167 994 189 805 745 137 96 1173 2838 274 172 90 884
is_linear=0
shrinkage=0.05


Tree=23
num_leaves=15
num_cat=0
split_feature=5 3 2 3 5 2 3 3 0 0 5 5 0 0
split_gain=8.11612 2.01172 3.45288 2.25584 5.41697 8.80509 1.97964 1.03255 1.00916 4.02525 2.99853 1.1218 1.05661 1.06815
threshold=1.1666666666666667 7.9045454545454552 1.0545454545454553 5.4409090909090922 1.0000000180025095e-35 -0.85454545454545394 7.8863636363636376 7.577272727272728 5.5500000000000007 5.9500000000000011 1.0000000180025095e-35 1.0000000180025095e-35 4.9500000000000011 4.8500000000000005
decision_type=10 2 2 2 8 2 2 2 2 2 10 10 2 2
left_child=1 2 3 4 5 -1 7 -4 11 10 -10 -5 13 -13
right_child=-2 -3 6 8 -6 -7 -8 -9 9 -11 -12 12 -14 -15
leaf_value=3.6424377897662336e-05 0.015367843386251197 0.021853289532882937 -0.0013744363664185905 6.258941041789465e-05 -0.00037802940562613278 0 -0.0065548601514081525 0.03613688847418018 -0.0098362032189664456 0.019600246055933038 -0.0061141952087883852 -0.00038078056395312606 0.019600246055933038 -0.0025993335443080462
leaf_weight=44 2838 222 184 347 244 48 32 38 57 291 119 149 322 70
leaf_count=44 2838 222 184 347 244 48 32 38 57 291 119 149 322 70
internal_value=0.00144356 -0.000860637 -0.00137532 -0.000558841 -0.00422619 -0.0145652 -0.00681102 -0.00513513 0.000350554 -0.00153105 -0.0075 0.00134009 -8.31791e-05 -0.00276256
internal_weight=5005 2167 1945 1691 336 92 254 222 1355 467 176 888 541 219
internal_count=5005 2167 1945 1691 336 92 254 222 1355 467 176 888 541 219
is_linear=0
shrinkage=0.05


Tree=24
num_leaves=15
num_cat=0
split_feature=3 4 4 4 0 4 3 3 0 3 3 4 2 4
split_gain=3.40978 3.29668 2.30182 2.20715 1.67854 1.47499 0.922496 0.874218 3.03471 1.74508 0.807324 0.759808 1.01385 0.607623
threshold=5.4409090909090922 5.6681818181818189 5.5681818181818192 5.0863636363636369 7.5500000000000007 7.9045454545454552 8.122727272727273 7.1409090909090915 7.3500000000000005 7.2227272727272736 5.2909090909090919 7.8863636363636376 -1.8590909090909091 6.1772727272727286
decision_type=2 2 2 2 2 2 2 2 2 2 2 2 2 2
left_child=1 2 10 -2 5 6 7 11 9 -9 -1 -5 -13 -3
right_child=3 13 -4 4 -6 -7 -8 8 -10 -11 -12 12 -14 -15
leaf_value=-0.0008153083050677864 -0.00065918602434288402 0 -0.00050490495931465812 0.00012715434076608547 0.014599451216938637 0.014599451216938637 0.016742888716938638 -0.0055952009099146981 -0.011408910420235004 0.014599451216938637 5.9170312643607527e-05 -0.010100560307316937 0.0011163768886785388 4.7590036458019516e-05
leaf_weight=35 116 155 58 2328 711 658 217 36 34 291 47 44 39 236
leaf_count=35 116 155 58 2328 711 658 217 36 34 291 47 44 39 236
internal_value=0.00144356 -0.00234463 -0.00892857 0.00189316 0.00207435 0.00164108 0.00116929 0.000923521 -0.00137119 0.000107034 -0.00353659 0.00126711 -0.00343373 1.27879e-05
internal_weight=5005 531 140 4474 4358 3647 2989 2772 361 327 82 2411 83 391
internal_count=5005 531 140 4474 4358 3647 2989 2772 361 327 82 2411 83 391
is_linear=0
shrinkage=0.05


Tree=25
num_leaves=15
num_cat=0
split_feature=5 4 0 0 0 3 3 3 3 5 4 5 0 4
split_gain=5.98296 2.24382 1.89809 2.11274 1.2498 1.32723 2.19248 2.11324 0.874969 1.679 1.49333 1.1071 0.782849 1.11302
threshold=1.1666666666666667 6.2181818181818196 5.5500000000000007 5.7500000000000009 7.9500000000000011 6.8681818181818182 7.9318181818181825 7.5409090909090919 5.4409090909090922 -1.0000000180025095e-35 5.9409090909090922 0.58333333333333337 6.0500000000000007 5.6500000000000012
decision_type=10 2 2 2 2 2 2 2 2 10 2 10 2 2
left_child=1 2 8 -4 5 12 7 -7 9 -1 11 -11 13 -5
right_child=-2 -3 3 4 -6 6 -8 -9 -10 10 -12 -13 -14 -15
leaf_value=5.0785094009043499e-05 0.014593093499900334 0.00011867224724992301 -0.0055690319305322297 -0.00085912445727738128 0.030839306822457037 -0.0037768276082861471 0.030175855681866284 -0.0060481951790862312 5.0333410318513759e-05 2.5245247965732907e-05 0 -0.00087799558994433808 0.034879301156505456 0.0003036321810030561
leaf_weight=57 2802 1060 65 32 44 59 38 36 532 63 35 37 111 35
leaf_count=57 2802 1060 65 32 44 59 38 36 532 63 35 37 111 35
internal_value=0.0017539 -0.0001951 -0.00173077 -0.00440476 -0.00288732 -0.00400322 -0.00778195 -0.0118421 -0.000179558 -0.00307292 -0.00611111 -0.003 -0.00117978 -0.00544776
internal_weight=5006 2204 1144 420 355 311 133 95 724 192 135 100 178 67
internal_count=5006 2204 1144 420 355 311 133 95 724 192 135 100 178 67
is_linear=0
shrinkage=0.05


Tree=26
num_leaves=15
num_cat=0
split_feature=5 4 3 5 3 0 0 3 5 0 3 3 4 0
split_gain=5.59535 1.77159 1.28462 0.977133 0.731402 1.17407 1.22757 1.94664 1.51912 1.42323 0.776921 0.675804 0.579539 0.552722
threshold=1.1666666666666667 7.9045454545454552 8.122727272727273 2.1666666666666674 5.4409090909090922 5.5500000000000007 5.7500000000000009 6.8681818181818182 0.58333333333333337 6.7500000000000009 5.9500000000000011 5.4000000000000012 5.0863636363636369 5.3500000000000005
decision_type=8 2 2 10 2 2 2 2 10 2 2 2 2 2
left_child=1 2 4 -2 11 12 10 -8 9 -9 -7 -1 -6 -14
right_child=3 -3 -4 -5 5 6 7 8 -10 -11 -12 -13 13 -15
leaf_value=-0.0007306431103171802 0.00011497406316153423 0.017884327579926956 0.02847231064792341 0.013139823981096688 -0.00059790452997225826 -0.0079177587061411269 0.033111022031903352 -0.0035249043189124391 -0.0059134088337254977 -0.0068338764095028301 -0.0063003168358018854 -2.9854917625554605e-06 7.4950679697060983e-07 0.037497000123804185
leaf_weight=192 1312 259 99 1897 44 34 229 42 76 37 53 36 544 152
leaf_count=192 1312 259 99 1897 44 34 229 42 76 37 53 36 544 152
internal_value=0.00186376 -0.000370061 -0.0010143 0.00311468 -0.00139333 -0.000904211 -0.00285563 -0.00164062 -0.00596774 -0.0108228 -0.00821839 -0.00399123 0.000337838 0.000689655
internal_weight=5006 1797 1538 3209 1439 1211 471 384 155 79 87 228 740 696
internal_count=5006 1797 1538 3209 1439 1211 471 384 155 79 87 228 740 696
is_linear=0
shrinkage=0.05


Tree=27
num_leaves=15
num_cat=0
split_feature=5 4 3 2 0 5 5 0 0 5 3 2 2 5
split_gain=4.44932 1.45242 1.09509 1.41832 1.37193 1.01955 0.793719 1.25368 1.06428 1.10217 0.7396 0.626462 0.934326 0.576182
threshold=1.1666666666666667 7.9045454545454552 8.122727272727273 1.2136363636363641 6.7500000000000009 2.1666666666666674 1.0000000180025095e-35 5.4500000000000011 4.9500000000000011 0.41666666666666669 7.1045454545454554 -0.90000000000000069 -1.3954545454545448 0.58333333333333337
decision_type=8 2 2 2 2 10 10 2 2 10 2 2 2 10
left_child=1 2 3 6 10 -2 7 -1 9 -8 -5 12 -11 -10
right_child=5 -3 -4 4 -6 -7 8 -9 13 11 -12 -13 -14 -15
leaf_value=3.6532155515859009e-05 0.00010922536000345753 0.016990111200930608 0.027048695115527238 -0.0026412461092453067 -0.0075767230534846131 0.012482832782041854 5.7244575329383875e-05 -0.0040380234690135623 -0.0015565987286020081 -0.0020130429158012526 0.00031185978755404606 -0.0010484441494631597 -0.0026886557582655526 0.03166352456688469
leaf_weight=284 1312 259 99 59 50 1897 80 87 169 42 95 123 31 419
leaf_count=284 1312 259 99 59 50 1897 80 87 169 42 95 123 31 419
internal_value=0.00198362 -8.34706e-06 -0.000591677 -0.000941626 -0.00480392 0.0030991 -0.000303644 0.00163073 -0.00113426 -0.00369565 -0.00246753 -0.00571429 -0.00938356 6.80274e-05
internal_weight=5006 1797 1538 1439 204 3209 1235 371 864 276 154 196 73 588
internal_count=5006 1797 1538 1439 204 3209 1235 371 864 276 154 196 73 588
is_linear=0
shrinkage=0.05


Tree=28
num_leaves=15
num_cat=0
split_feature=5 4 3 2 5 3 5 2 2 3 3 3 2 4
split_gain=4.80061 1.59248 1.17214 1.6968 1.19737 0.874701 0.719325 0.603452 0.671386 0.646154 0.452281 1.07932 0.441191 0.815388
threshold=1.1666666666666667 7.9045454545454552 8.122727272727273 1.0545454545454553 1.0000000180025095e-35 5.245454545454546 2.1666666666666674 2.0227272727272729 1.55 7.8318181818181829 5.4000000000000012 5.4954545454545469 -0.40909090909090867 6.6318181818181836
decision_type=10 2 2 2 10 2 10 2 2 2 2 2 2 2
left_child=1 2 3 4 10 -6 -2 8 -5 -10 -1 -12 13 -13
right_child=6 -3 -4 7 5 -7 -8 -9 9 -11 11 12 -14 -15
leaf_value=3.712094118221298e-05 0.016985388488844878 0.016140605640884077 0.025719376448168515 -0.00092677689843752233 -0.0012960898058180664 -0.00094289515000067509 0.01185869114293976 -0.00045121844575202457 -0.00094524179723798655 -0.0065757462414908251 -1.6773331876651775e-06 -2.8708609483218232e-05 4.5952656686946591e-05 0.00010394593737533013
leaf_weight=172 905 290 114 168 52 784 1897 77 35 30 30 37 293 122
leaf_count=172 905 290 114 168 52 784 1897 77 35 30 30 37 293 122
internal_value=0.0019137 0.000167877 -0.000355277 -0.000666666 3.35572e-05 -0.0012201 0.00328694 -0.00403226 -0.00530043 -0.00961538 0.00163609 0.000850623 0.00146018 -0.000660377
internal_weight=5006 2204 1914 1800 1490 836 2802 310 233 65 654 482 452 159
internal_count=5006 2204 1914 1800 1490 836 2802 310 233 65 654 482 452 159
is_linear=0
shrinkage=0.05


Tree=29
num_leaves=15
num_cat=0
split_feature=5 4 5 2 2 2 2 0 4 1 4 0 5 0
split_gain=4.64586 1.52327 1.06287 0.935292 0.594452 0.713901 1.21214 0.512394 1.41324 0.45151 0.806509 0.723591 1.60975 1.09094
threshold=1.1666666666666667 7.9045454545454552 2.1666666666666674 2.4000000000000004 1.2136363636363641 -0.39545454545454589 -0.53636363636363649 5.8500000000000005 5.6045454545454563 1.0000000180025095e-35 7.5227272727272743 4.9500000000000011 1.0000000180025095e-35 5.5500000000000007
decision_type=8 2 10 2 2 2 2 2 2 2 2 2 10 2
left_child=1 3 -2 4 5 6 9 -6 -9 10 11 12 -1 -13
right_child=2 -3 -4 -5 7 -7 -8 8 -10 -11 -12 13 -14 -15
leaf_value=3.7129298323012536e-05 9.9912416031479301e-05 0.015333575358839875 0.01126575658579277 0.023921039155968247 -0.00033687063631291308 4.1904817735133185e-05 -0.0012515952836687073 -0.0060644631061109264 -0.0049957670300435995 3.2849500680955412e-05 0.00070011815001968006 0.0010095632707036656 -0.0025070782128522409 -0.01197105273207205
leaf_weight=37 1312 259 1897 69 117 686 85 30 82 224 53 67 54 34
leaf_count=37 1312 259 1897 69 117 686 85 30 82 224 53 67 54 34
internal_value=0.00194367 -9.18195e-05 0.00308352 -0.000689207 -0.000956433 -0.000524193 -0.00185921 -0.00329694 -0.00571429 -0.000863539 -0.00234694 -0.00385417 -0.00708791 -0.000940594
internal_weight=5006 1797 3209 1538 1469 1240 554 229 112 469 245 192 91 101
internal_count=5006 1797 3209 1538 1469 1240 554 229 112 469 245 192 91 101
is_linear=0
shrinkage=0.05


Tree=30
num_leaves=15
num_cat=0
split_feature=5 3 2 3 5 0 0 0 3 3 3 0 2 2
split_gain=4.35977 1.43161 2.69625 1.81369 1.61605 0.972078 0.886209 0.854824 0.853809 0.850831 0.850102 0.788102 0.923843 0.645252
threshold=1.1666666666666667 7.9045454545454552 0.68636363636363662 7.8636363636363642 1.0000000180025095e-35 5.3500000000000005 6.1500000000000012 5.6500000000000012 5.1545454545454552 6.0863636363636369 7.1954545454545462 6.5500000000000007 1.4136363636363634 -2.0772727272727263
decision_type=10 2 2 2 10 2 2 2 2 2 2 2 2 2
left_child=1 2 4 10 5 -1 7 -7 -6 -2 11 12 -4 -10
right_child=9 -3 3 -5 8 6 -8 -9 13 -11 -12 -13 -14 -15
leaf_value=3.5610903292040775e-05 0.01142608360031176 0.017290401681085567 -0.00099162174888005436 -0.004427706214961186 -0.0012198759759619723 0.0006855931329440185 0.031420853369907707 -0.0073650212843714416 0.014566896590897882 0.010702468756503131 0.00049336019172041556 0.029849279895414055 -0.0011723197473377796 -0.0009225801860979825
leaf_weight=434 1090 213 202 32 50 73 70 57 139 1701 69 69 33 732
leaf_count=434 1090 213 202 32 50 73 70 57 139 1701 69 69 33 732
internal_value=0.0018473 0.000167971 -0.000255102 -0.00388889 0.000691318 0.00263407 -0.00025 -0.00269231 -0.000646037 0.00315478 -0.00290885 -0.00404605 -0.00542553 -0.000281286
internal_weight=4964 2173 1960 405 1555 634 200 130 921 2791 373 304 235 871
internal_count=4964 2173 1960 405 1555 634 200 130 921 2791 373 304 235 871
is_linear=0
shrinkage=0.05


Tree=31
num_leaves=15
num_cat=0
split_feature=5 4 3 2 0 5 5 0 0 5 0 5 2 0
split_gain=4.28062 1.49877 1.26852 1.13463 1.24658 1.73009 0.972931 0.812073 1.67038 1.61634 1.7041 1.20752 1.18596 1.06239
threshold=1.1666666666666667 7.9045454545454552 7.9045454545454552 1.2136363636363641 5.8500000000000005 0.58333333333333337 2.1666666666666674 6.5500000000000007 5.5500000000000007 0.41666666666666669 4.9500000000000011 0.58333333333333337 -0.17272727272727237 5.7500000000000009
decision_type=8 2 2 2 2 10 10 2 2 10 2 10 2 2
left_child=1 2 3 7 -5 -6 -2 8 9 -1 -11 12 -10 -13
right_child=6 -3 -4 4 5 -7 -8 -9 11 10 -12 13 -14 -15
leaf_value=3.8029031683774485e-05 9.3136250065303301e-05 0.013838551761352992 0.023688387929790358 -0.00025429464315774664 -0.0051755317499685843 -0.0044968696162952402 0.010167345318677974 0.029445202220337613 -0.0079323477130330729 -0.0019461961415864447 0.034130152415187916 -0.009954019126849907 -0.0017580557335487334 0.033428183819534683
leaf_weight=449 1292 256 150 82 38 31 1898 117 38 209 215 35 57 97
leaf_count=449 1292 256 150 82 38 31 1898 117 38 209 215 35 57 97
internal_value=0.00186745 -0.000101465 -0.000698287 -0.0011769 -0.0052649 -0.0102174 0.00296238 -0.000669679 -0.00109091 -9.73652e-05 -0.00231132 -0.00491189 -0.00921053 -0.00181818
internal_weight=4964 1774 1518 1368 151 69 3190 1217 1100 873 424 227 95 132
internal_count=4964 1774 1518 1368 151 69 3190 1217 1100 873 424 227 95 132
is_linear=0
shrinkage=0.05


Tree=32
num_leaves=15
num_cat=0
split_feature=5 4 4 3 3 5 2 3 2 5 3 4 3 5
split_gain=4.03037 1.54369 1.15704 1.05169 2.25033 0.87052 0.859356 0.850831 0.705397 0.617577 0.53496 0.534001 0.786844 1.42115
threshold=1.1666666666666667 5.245454545454546 7.9045454545454552 7.9045454545454552 7.8636363636363642 -1.0000000180025095e-35 0.72727272727272807 6.0863636363636369 0.95000000000000029 0.41666666666666669 6.3045454545454556 6.8681818181818182 5.9409090909090922 0.83333333333333337
decision_type=10 2 2 2 2 10 2 2 2 10 2 2 2 10
left_child=1 6 3 4 5 8 -1 -2 -3 10 -8 -7 -13 -14
right_child=7 2 -4 -5 -6 11 9 -9 -10 -11 -12 12 13 -15
leaf_value=5.6377225167949274e-05 0.010346412154362272 2.7624198946380303e-05 0.013146624173285344 0.022519975259403496 -0.0041288564714373997 -1.003279295541135e-05 0.00010217434984538812 0.0096589780527440716 -0.0006734463706997275 -0.0042836864002905907 -0.00055307679321116819 0.00055877419426232904 -0.0079860912505245931 0.028851410826467541
leaf_weight=33 1090 264 283 173 33 1018 36 1701 31 30 31 123 80 38
leaf_count=33 1090 264 283 173 33 1018 36 1701 31 30 31 123 80 38
internal_value=0.00189766 0.000283019 0.000619188 0.000142046 -0.000261499 1.28702e-05 -0.005 0.00315478 0.00245763 -0.00737113 -0.00470149 -0.000559968 -0.00267635 -0.00559322
internal_weight=4964 2173 2043 1760 1587 1554 130 2791 295 97 67 1259 241 118
internal_count=4964 2173 2043 1760 1587 1554 130 2791 295 97 67 1259 241 118
is_linear=0
shrinkage=0.05


Tree=33
num_leaves=15
num_cat=0
split_feature=5 3 2 3 5 5 0 0 0 0 3 2 1 2
split_gain=3.78817 1.2185 1.25806 0.943314 0.931057 0.916052 1.88787 1.36701 1.80416 1.07479 0.861883 0.539487 0.531232 0.508721
threshold=1.1666666666666667 7.9045454545454552 0.69090909090909103 7.8409090909090917 2.1666666666666674 0.41666666666666669 5.4500000000000011 6.2500000000000009 5.8500000000000005 4.9500000000000011 7.577272727272728 0.79090909090909156 1.0000000180025095e-35 -1.9545454545454544
decision_type=8 2 2 2 10 8 2 2 2 2 2 2 2 2
left_child=1 2 5 10 -2 6 -1 8 12 13 11 -4 -8 -7
right_child=4 -3 3 -5 -6 9 7 -9 -10 -11 -12 -13 -14 -15
leaf_value=5.1556888260624809e-05 8.6858428253306434e-05 0.014493509013214096 -0.0020620964242462742 -0.0035582465756387226 0.0091760291501068684 0.015058184928106422 0.00096325675284083731 0.01389963860262048 -0.0099790396065848556 0.010763766803470853 0.033253326606065857 -0.00067536520323864915 -0.0077309849479557727 -0.0019233159241372763
leaf_weight=442 1292 186 45 30 1898 40 36 47 30 480 35 193 35 175
leaf_count=442 1292 186 45 30 1898 40 36 47 30 480 35 193 35 175
internal_value=0.00194803 9.58288e-05 -0.000352645 -0.00325082 0.00297806 0.000330739 0.00177966 -0.00310811 -0.00638614 -0.00089928 -0.00232601 -0.00340336 -0.00204225 -0.00383721
internal_weight=4964 1774 1588 303 3190 1285 590 148 101 695 273 238 71 215
internal_count=4964 1774 1588 303 3190 1285 590 148 101 695 273 238 71 215
is_linear=0
shrinkage=0.05


Tree=34
num_leaves=15
num_cat=0
split_feature=4 3 4 3 0 0 0 0 4 2 3 4 3 3
split_gain=1.85967 1.44758 1.21254 1.041 1.45691 1.33754 0.626493 1.20206 0.580583 0.520923 0.471661 0.38335 0.331316 0.787326
threshold=5.245454545454546 7.9045454545454552 7.9045454545454552 7.8863636363636376 7.4500000000000011 7.5500000000000007 5.0500000000000007 6.5500000000000007 7.8863636363636376 -1.8590909090909091 6.2000000000000002 7.7500000000000009 7.0045454545454549 7.2227272727272736
decision_type=2 2 2 2 2 2 2 2 2 2 2 2 2 2
left_child=6 2 3 5 -5 8 -1 10 11 -10 -8 12 -2 -14
right_child=1 -3 -4 4 -6 -7 7 -9 9 -11 -12 -13 13 -15
leaf_value=4.2954966605534203e-05 6.4499211135249983e-05 0.0087172276926015257 0.0087172276926015257 0.0095746028011965342 -0.0040383123473505212 0.015104051369222765 -0.0079433367872115603 0.014540258440896634 -0.010737536536011748 0.00023353671981014967 -0.0010269025208514851 0.012859088181893652 -0.0062618906206682173 0.010062588463740457
leaf_weight=71 2600 727 660 35 31 277 48 37 63 36 33 69 126 151
leaf_count=71 2600 727 660 35 31 277 48 37 63 36 33 69 126 151
internal_value=0.00192788 0.00212042 0.00175148 0.00136954 -0.00484848 0.00149308 -0.00293651 -0.00516949 0.00119048 -0.00257576 -0.00858025 0.00131704 0.00122871 -0.000415162
internal_weight=4964 4775 4048 3388 66 3322 189 118 3045 99 81 2946 2877 277
internal_count=4964 4775 4048 3388 66 3322 189 118 3045 99 81 2946 2877 277
is_linear=0
shrinkage=0.05


Tree=35
num_leaves=15
num_cat=0
split_feature=5 3 4 5 2 5 3 1 5 4 1 2 4 2
split_gain=4.08659 1.35804 1.28328 1.00398 0.801859 0.838091 0.717425 0.992427 0.605582 0.551858 0.485024 0.773333 0.740885 0.516729
threshold=2.1666666666666674 8.122727272727273 7.9045454545454552 1.1666666666666667 0.69090909090909103 0.41666666666666669 6.3045454545454556 1.0000000180025095e-35 0.58333333333333337 7.8863636363636376 1.0000000180025095e-35 -0.39545454545454589 6.1409090909090915 0.27272727272727298
decision_type=10 2 2 8 2 10 2 2 10 2 2 2 2 2
left_child=1 2 3 4 5 6 -1 -8 -7 -5 11 -10 -12 -13
right_child=-2 -3 -4 9 -6 8 7 -9 10 -11 12 13 -14 -15
leaf_value=3.1526498356425513e-05 0.0082813663079714505 0.014561018109592689 0.012289717078667252 7.7316992009280239e-05 -0.0012888048120364851 -0.0018905632691540851 0.032140176647403228 -0.007046501000573694 -0.0038108856569689792 -0.028080788709372265 -0.0021919419348367759 0.03188273313334599 0.031136591683625217 -0.0098524602843340359
leaf_weight=435 1908 233 397 994 347 58 35 48 151 36 103 69 127 41
leaf_count=435 1908 233 397 994 347 58 35 48 151 36 103 69 127 41
internal_value=0.00202931 0.000901106 0.000600141 0.00017185 -0.000693069 -1.40579e-05 0.00142857 -0.00283133 -0.00137523 0.00135922 -0.00080448 -0.00227969 0.000869565 0.000909091
internal_weight=4982 3074 2841 2444 1414 1067 518 83 549 1030 491 261 230 110
internal_count=4982 3074 2841 2444 1414 1067 518 83 549 1030 491 261 230 110
is_linear=0
shrinkage=0.05


Tree=36
num_leaves=15
num_cat=0
split_feature=5 3 2 5 0 0 0 0 5 5 5 0 3 2
split_gain=3.95233 1.32216 0.989161 1.50053 1.13034 0.816044 1.27454 0.911701 1.99719 0.652909 0.956921 0.752252 0.6039 0.504867
threshold=2.1666666666666674 8.122727272727273 1.55 0.41666666666666669 6.4500000000000011 6.8500000000000005 5.8500000000000005 5.9500000000000011 1.1666666666666667 0.41666666666666669 0.58333333333333337 4.9500000000000011 6.2000000000000002 -1.3409090909090906
decision_type=10 2 2 10 2 2 2 2 10 10 10 2 2 2
left_child=1 2 5 4 -4 6 9 8 -8 12 -11 13 -1 -12
right_child=-2 -3 3 -5 -6 -7 7 -9 -10 10 11 -13 -14 -15
leaf_value=3.3780587361043021e-05 0.0078672979925728751 0.013832967204113056 -7.9558887248122614e-05 0.014344982951161163 -0.002043996765756285 0.014053704130659329 -0.010215953346109514 -0.0041560999833934143 0.015750022955602828 -0.0017661187680083528 -0.0024332364788462535 0.012186479449120165 -0.00033488830989531209 2.9221869576729993e-05
leaf_weight=658 1908 233 36 117 39 319 55 323 32 60 111 670 187 234
leaf_count=658 1908 233 36 117 39 319 55 323 32 60 111 670 187 234
internal_value=0.00205941 0.000949903 0.000652939 -0.0028125 -0.00833333 0.000904115 0.000579399 -0.00195122 -0.00649425 0.00111979 0.000302326 0.000665025 0.00215976 -0.00123188
internal_weight=4982 3074 2841 192 75 2649 2330 410 87 1920 1075 1015 845 345
internal_count=4982 3074 2841 192 75 2649 2330 410 87 1920 1075 1015 845 345
is_linear=0
shrinkage=0.05


Tree=37
num_leaves=15
num_cat=0
split_feature=5 3 4 2 5 0 0 5 0 2 5 5 5 0
split_gain=3.86406 1.29851 1.19905 0.933728 1.46203 1.08695 0.825371 0.52238 1.49186 0.964581 0.865189 0.583189 0.95461 0.956318
threshold=2.1666666666666674 8.122727272727273 7.9045454545454552 1.55 0.58333333333333337 6.4500000000000011 7.5500000000000007 1.0000000180025095e-35 5.3500000000000005 -2.3454545454545448 0.83333333333333337 0.41666666666666669 0.58333333333333337 4.9500000000000011
decision_type=10 2 2 2 10 2 2 10 2 2 10 10 10 2
left_child=1 2 3 6 5 -5 7 8 -1 -9 11 -11 -13 -14
right_child=-2 -3 -4 4 -6 -7 -8 9 -10 10 -12 12 13 -15
leaf_value=1.8958509290220281e-05 0.0074739330929442299 0.013141318843907401 0.011065907252277879 -0.00013048038400004927 0.013678148474727174 -0.0019417969274684707 0.013642297744628197 -0.026555087449961337 -0.0013825296752182508 0.00011893954666717044 0.013894370889902315 -0.0021921924465879909 -0.0022056356767919238 0.026768747363983471
leaf_weight=470 1908 233 397 40 113 39 100 33 226 228 929 67 47 152
leaf_count=470 1908 233 397 40 113 39 100 33 226 228 929 67 47 152
internal_value=0.00207949 0.000982433 0.000688138 0.000274141 -0.00307292 -0.00829114 0.000559503 0.00035316 0.00147989 -0.000185439 1.05413e-05 -0.00168016 -0.00327068 -0.00153266
internal_weight=4982 3074 2841 2444 192 79 2252 2152 696 1456 1423 494 266 199
internal_count=4982 3074 2841 2444 192 79 2252 2152 696 1456 1423 494 266 199
is_linear=0
shrinkage=0.05


Tree=38
num_leaves=15
num_cat=0
split_feature=5 3 2 5 0 0 5 0 3 0 5 2 3 0
split_gain=4.36184 1.43123 0.968564 1.05504 1.54664 1.01156 0.995294 1.13832 0.972476 1.03025 0.717912 1.03939 1.05524 0.653146
threshold=2.1666666666666674 8.122727272727273 1.1681818181818182 0.58333333333333337 6.7500000000000009 6.8500000000000005 1.0000000180025095e-35 5.3500000000000005 5.1545454545454552 4.4500000000000011 1.1666666666666667 0.38636363636363674 6.2181818181818196 6.5500000000000007
decision_type=10 2 2 10 2 2 10 2 2 2 10 2 2 2
left_child=1 2 5 4 -4 6 7 -1 9 -8 11 -10 -13 -5
right_child=-2 -3 3 13 -6 -7 8 -9 10 -11 -12 12 -14 -15
leaf_value=2.661313502717815e-05 0.0071002364382970196 0.012484252901712034 -0.00013624724876708084 -0.0063413298835470521 -0.0038729729762377223 0.012797723561512471 0.00082928013000970456 -0.00067621000037430129 0.00014853970771477122 -0.025422133671498395 0.012891084795589425 -0.0026522171870432595 -0.002757522088918878 0.013195899525140865
leaf_weight=476 1908 233 112 115 49 273 34 208 716 40 554 77 102 85
leaf_count=476 1908 233 112 115 49 273 34 208 716 40 554 77 102 85
internal_value=0.00196909 0.000803514 0.000494544 -0.00192521 -0.00493789 0.000846774 0.000491618 0.00207602 -0.00021996 -0.00581081 6.55626e-05 -0.000810056 -0.00421788 0.0005
internal_weight=4982 3074 2841 361 161 2480 2207 684 1523 74 1449 895 179 200
internal_count=4982 3074 2841 361 161 2480 2207 684 1523 74 1449 895 179 200
is_linear=0
shrinkage=0.05


Tree=39
num_leaves=15
num_cat=0
split_feature=5 3 4 5 5 3 4 5 2 4 1 2 3 2
split_gain=4.22309 1.39439 1.33519 1.02579 0.782198 1.46137 1.19384 1.02032 0.660802 0.543083 0.541997 0.696733 0.508105 0.469427
threshold=2.1666666666666674 8.122727272727273 7.9045454545454552 1.1666666666666667 0.41666666666666669 6.2000000000000002 5.1863636363636374 0.58333333333333337 -0.17727272727272766 7.8863636363636376 1.0000000180025095e-35 1.2363636363636361 5.6500000000000012 -0.52727272727272678
decision_type=10 2 2 8 10 2 2 10 2 2 2 2 2 2
left_child=1 2 3 4 5 -1 -6 8 -8 -5 11 -7 13 -9
right_child=-2 -3 -4 9 6 10 7 12 -10 -11 -12 -13 -14 -15
leaf_value=3.1004523672399596e-05 0.0067452246163821677 0.011860040256626431 0.010258442686703541 7.0533108935989526e-05 -0.0012993556704152408 0.02452100456561589 -0.00049057564804168188 -0.00066487304640522392 -0.0025196063276910962 -0.026237380177318022 -0.0022030543895647558 -0.0014864744761876349 0.020075040585473453 -0.0051323039286273846
leaf_weight=441 1908 233 397 994 30 62 33 124 31 36 146 33 460 54
leaf_count=441 1908 233 397 994 30 62 33 124 31 36 146 33 460 54
internal_value=0.0019992 0.00085231 0.000547343 0.000110475 -0.00076379 0.000454546 -0.00189891 -0.00148148 -0.0075 0.00131068 -0.00267635 0.000263158 -0.000877743 -0.00314607
internal_weight=4982 3074 2841 2444 1414 682 732 702 64 1030 241 95 638 178
internal_count=4982 3074 2841 2444 1414 682 732 702 64 1030 241 95 638 178
is_linear=0
shrinkage=0.05


Tree=40
num_leaves=15
num_cat=0
split_feature=5 4 3 3 3 5 3 0 0 0 5 0 1 4
split_gain=3.96586 1.72617 1.1607 1.03569 0.70343 1.30808 0.899354 0.709006 0.698931 0.730838 0.658116 0.82755 0.743847 0.602611
threshold=1.1666666666666667 7.9045454545454552 8.122727272727273 5.3136363636363644 6.2000000000000002 1.0000000180025095e-35 6.2181818181818196 7.9500000000000011 5.5500000000000007 6.1500000000000012 0.83333333333333337 5.2500000000000009 1.0000000180025095e-35 6.1318181818181836
decision_type=10 2 2 2 2 10 2 2 2 2 10 2 2 2
left_child=1 2 4 13 5 8 -6 10 -1 -10 11 -8 -13 -2
right_child=3 -3 -4 -5 6 -7 7 -9 9 -11 -12 12 -14 -15
leaf_value=1.5129700890730378e-05 0.013134375608096521 0.0092177889310932747 0.016923453069242294 0.0074936622061736631 -0.0020059943695971759 -0.00063162939408496278 0.00042138957605064088 0.024181637323968899 -0.0052493824468672103 0.033083659323267803 0.024543511212868102 -0.0029390970381892841 -0.0055068634025342992 -0.027842771306151815
leaf_weight=448 34 292 121 2760 34 609 110 41 58 37 151 140 172 37
leaf_count=448 34 292 121 2760 34 609 110 41 58 37 151 140 172 37
internal_value=0.00197661 0.000390872 -0.000153566 0.00321618 -0.000472222 0.000269097 -0.00179012 -0.00135179 0.00205341 -0.00184211 -0.00180628 -0.0028199 -0.00413462 -0.00274648
internal_weight=5044 2213 1921 2831 1800 1152 648 614 543 95 573 422 312 71
internal_count=5044 2213 1921 2831 1800 1152 648 614 543 95 573 422 312 71
is_linear=0
shrinkage=0.05


Tree=41
num_leaves=15
num_cat=0
split_feature=0 4 3 4 0 4 3 3 0 2 4 0 0 2
split_gain=1.8042 1.78387 0.91234 0.524265 0.358402 0.729293 0.299904 0.319542 0.790596 0.762748 0.502309 0.287887 0.279708 0.251535
threshold=7.5500000000000007 7.9045454545454552 8.122727272727273 4.8045454545454556 4.0500000000000007 6.0318181818181831 8.0500000000000025 5.3681818181818191 5.3500000000000005 -1.4090909090909085 6.1772727272727286 4.4500000000000011 4.4500000000000011 0.38636363636363674
decision_type=2 2 2 2 2 2 2 2 2 2 2 2 2 2
left_child=1 2 3 -1 5 -5 7 8 9 11 -10 -6 -9 -14
right_child=-2 -3 -4 4 6 -7 -8 12 10 -11 -12 -13 13 -15
leaf_value=-0.00051565760315328772 0.0060332802752543768 0.0060332802752543768 0.0079099307780568888 3.0708087311521207e-06 2.0964252686960136e-05 -0.00050096792196462189 -0.018233344468747012 -3.2545661174155174e-05 -0.012221883694930576 4.8831084766843278e-05 -0.0023143280244293505 -0.023460274011522904 0.00052916062891647964 0.00023883866146328942
leaf_weight=65 730 682 219 36 33 30 44 137 30 178 33 47 1769 1011
leaf_count=65 730 682 219 36 33 30 44 137 30 178 33 47 1769 1011
internal_value=0.00201626 0.00162726 0.00118667 0.000985936 0.00107228 -0.00257576 0.00114564 0.00120136 -0.00029595 0.000930233 -0.00531746 -0.003125 0.00136613 0.00147482
internal_weight=5044 4314 3632 3413 3348 66 3282 3238 321 258 63 80 2917 2780
internal_count=5044 4314 3632 3413 3348 66 3282 3238 321 258 63 80 2917 2780
is_linear=0
shrinkage=0.05


Tree=42
num_leaves=15
num_cat=0
split_feature=5 4 3 5 0 0 3 0 0 5 5 0 3 3
split_gain=3.80216 1.64875 1.112 0.866323 0.538908 0.936043 0.832664 0.719943 0.943216 0.716501 0.583484 1.11362 0.816358 0.446714
threshold=1.1666666666666667 7.9045454545454552 8.122727272727273 2.1666666666666674 5.5500000000000007 5.9500000000000011 6.7318181818181824 5.8500000000000005 5.7500000000000009 0.58333333333333337 0.41666666666666669 4.9500000000000011 5.3272727272727289 6.1318181818181836
decision_type=8 2 2 10 2 2 2 2 2 10 10 2 2 2
left_child=1 2 4 -2 10 7 -7 8 -6 -8 13 12 -12 -1
right_child=3 -3 -4 -5 5 6 9 -9 -10 -11 11 -13 -14 -15
leaf_value=1.9454835895808118e-05 9.1298364542884627e-05 0.0084552354707758907 0.015039444363574191 0.0057316162614916566 -0.0080416277644565059 0.023596934360279993 -0.0046323994459598174 -0.011571278033615124 0.0085266771908925898 0.014796204297227392 0.00074994497603242893 0.02726366487835484 -0.0025800721611367655 -0.00053942612198936747
leaf_weight=353 1299 261 105 1932 84 163 66 45 44 79 54 244 162 153
leaf_count=353 1299 261 105 1932 84 163 66 45 44 79 54 244 162 153
internal_value=0.00200634 0.000173745 -0.000444587 0.00303466 -0.000805114 -0.00217256 -0.00051948 -0.00511561 -0.00320312 -0.00327586 -0.000124223 -0.00141304 -0.00402778 0.00104743
internal_weight=5044 1813 1552 3231 1447 481 308 173 128 145 966 460 216 506
internal_count=5044 1813 1552 3231 1447 481 308 173 128 145 966 460 216 506
is_linear=0
shrinkage=0.05


Tree=43
num_leaves=15
num_cat=0
split_feature=0 4 3 0 4 1 2 3 2 2 2 4 4 2
split_gain=1.81979 1.80154 0.920387 0.709239 0.640771 0.632218 0.39355 0.313521 0.265516 0.261914 0.359448 0.507645 0.634892 0.73092
threshold=7.5500000000000007 7.9045454545454552 8.122727272727273 4.0500000000000007 4.6909090909090922 1.0000000180025095e-35 -2.3454545454545448 8.0500000000000025 -2.459090909090909 -2.0499999999999994 -0.92272727272727229 6.3545454545454545 5.8681818181818182 1.1681818181818182
decision_type=2 2 2 2 2 2 2 2 2 2 2 2 2 2
left_child=1 2 3 5 -5 -1 8 9 -6 -8 -11 12 -12 -14
right_child=-2 -3 -4 4 6 -7 7 -9 -10 10 11 -13 13 -15
leaf_value=-0.00034460851680605552 0.0054450354484170743 0.0054450354484170743 0.0072278534260794601 -0.00052749843732637937 8.8143222634801599e-05 2.9594774971270005e-06 0.014471525874400485 -0.017665975140733581 -0.010699858213371655 2.1518479209044184e-05 9.2847956582366745e-05 0.0068764926986159105 1.0958922394058109e-05 -0.0047546056046586091
leaf_weight=43 730 682 219 46 33 30 47 44 32 608 1148 588 701 93
leaf_count=43 730 682 219 46 33 30 47 44 32 608 1148 588 701 93
internal_value=0.00200634 0.00161567 0.00117291 0.000971286 0.00107784 -0.00390411 0.00115968 0.00123723 -0.00269231 0.00129513 0.00123964 0.00150198 0.00111226 2.51891e-05
internal_weight=5044 4314 3632 3413 3340 73 3294 3229 65 3185 3138 2530 1942 794
internal_count=5044 4314 3632 3413 3340 73 3294 3229 65 3185 3138 2530 1942 794
is_linear=0
shrinkage=0.05


Tree=44
num_leaves=15
num_cat=0
split_feature=5 3 2 3 2 2 3 0 0 5 0 3 3 2
split_gain=4.48952 1.28871 1.07177 1.03569 0.64862 0.644109 0.656557 0.573665 0.581034 0.552312 0.50053 0.475179 0.416098 0.333504
threshold=1.1666666666666667 8.122727272727273 -1.9545454545454544 5.3136363636363644 -1.431818181818181 1.2363636363636361 7.577272727272728 6.7500000000000009 7.5500000000000007 0.83333333333333337 6.8500000000000005 6.3136363636363653 7.2090909090909099 -1.8863636363636365
decision_type=10 2 2 2 2 2 2 2 2 8 2 2 2 2
left_child=1 2 -1 4 -2 6 10 9 -9 -7 13 -5 -11 -4
right_child=3 -3 5 11 -6 7 -8 8 -10 12 -12 -13 -14 -15
leaf_value=0.0073074109476506171 -0.02528325988245568 0.011469225363818981 -0.0061877795223937914 0.0068048643273841197 0.012180512939888628 0.0001335639263439415 0.0092155134428835092 -0.0077825466385933019 -0.0013608759200953058 -0.0052573548235395028 0.020174708979175383 0.0052136934996845352 2.7945505814808757e-05 -1.3349715793109271e-05
leaf_weight=260 30 151 33 1286 41 108 59 42 31 32 114 1474 33 1350
leaf_count=260 30 151 33 1286 41 108 59 42 31 32 114 1474 33 1350
internal_value=0.0018973 0.000210122 -0.000116392 0.00321618 -0.00274648 -0.000549389 -0.000173522 -0.00292683 -0.00664384 -0.00135838 -0.000377421 0.00336957 -0.005 -0.000639913
internal_weight=5044 2213 2062 2831 71 1802 1556 246 73 173 1497 2760 65 1383
internal_count=5044 2213 2062 2831 71 1802 1556 246 73 173 1497 2760 65 1383
is_linear=0
shrinkage=0.05


Tree=45
num_leaves=15
num_cat=0
split_feature=5 3 3 2 3 0 2 1 3 3 5 5 0 3
split_gain=4.42019 1.21536 1.03848 0.922771 0.623714 0.511428 0.58332 0.596203 0.788816 0.604466 1.22494 0.772237 0.707295 0.601284
threshold=1.1666666666666667 8.122727272727273 5.3136363636363644 -2.5909090909090908 4.6909090909090922 7.9500000000000011 0.38636363636363674 1.0000000180025095e-35 6.1409090909090915 5.9409090909090922 1.0000000180025095e-35 0.83333333333333337 4.6500000000000012 5.5227272727272743
decision_type=10 2 2 2 2 2 2 2 2 2 8 8 2 2
left_child=1 3 -2 -1 -5 6 7 8 9 11 -11 -6 -13 -14
right_child=2 -3 -4 4 5 -7 -8 -9 -10 10 -12 12 13 -15
leaf_value=0.0073948513774337093 -0.021540281266610884 0.010488594104008483 0.0061779010523818519 -0.0006239196735432996 1.8104322164467448e-05 0.019245882984472495 -0.00079171836685875481 3.1423240377439803e-05 0.0073948514286476842 -0.00028085757139792466 -0.0014914648072076688 -8.6354128602020601e-05 9.2822776372291949e-05 -0.0094624035992993509
leaf_weight=123 72 149 2763 39 212 47 638 576 121 34 98 55 43 69
leaf_count=123 72 149 2763 39 212 47 638 576 121 34 98 55 43 69
internal_value=0.00198353 0.000303993 0.00328924 -1.21653e-05 -0.000279503 -0.000150554 -0.00028169 0.000364239 -0.000696202 -0.00155577 -0.0044697 -0.000540897 -0.00308383 -0.000803571
internal_weight=5039 2204 2835 2055 1932 1893 1846 1208 632 511 132 379 167 112
internal_count=5039 2204 2835 2055 1932 1893 1846 1208 632 511 132 379 167 112
is_linear=0
shrinkage=0.05


Tree=46
num_leaves=15
num_cat=0
split_feature=0 4 3 2 3 3 0 4 2 2 4 2 4 3
split_gain=2.03866 1.70304 0.693203 0.598553 0.597921 0.360629 0.322479 0.559684 0.661054 0.651231 0.471892 0.454219 0.388486 0.380687
threshold=6.5500000000000007 7.9045454545454552 5.1545454545454552 -0.85454545454545394 8.122727272727273 8.0500000000000025 4.9500000000000011 6.2000000000000002 -0.71818181818181814 -0.40909090909090867 5.245454545454546 -1.9409090909090907 6.0318181818181831 5.8863636363636376
decision_type=2 2 2 2 2 2 2 2 2 2 2 2 2 2
left_child=1 2 3 -1 5 6 7 12 -9 -10 -8 -12 -4 -13
right_child=-2 -3 4 -5 -6 -7 10 8 9 -11 11 13 -14 -15
leaf_value=-0.00059890199689080091 0.0046032039483929034 0.0057984535524914227 1.9844355104646339e-06 2.9395831322172687e-05 0.0064564961493696563 -0.017326992488400816 -0.0021319845728691557 1.2285775765409131e-05 -0.00039144191983566745 -0.00021560914765742808 -0.0058799617082929741 0.0061557260583958223 6.4477691329775232e-05 0.001031158848145318
leaf_weight=106 1481 555 406 42 159 32 81 225 56 53 66 695 60 1022
leaf_count=106 1481 555 406 42 159 32 81 225 56 53 66 695 60 1022
internal_value=0.00202322 0.00137437 0.000904096 -0.00243243 0.00107706 0.000901335 0.000964715 0.000125 -0.00143713 -0.00463303 0.00132511 0.00149467 0.00124464 0.00165114
internal_weight=5039 3558 3003 148 2855 2696 2664 800 334 109 1864 1783 466 1717
internal_count=5039 3558 3003 148 2855 2696 2664 800 334 109 1864 1783 466 1717
is_linear=0
shrinkage=0.05


Tree=47
num_leaves=15
num_cat=0
split_feature=5 3 3 2 0 2 3 3 2 2 0 3 3 5
split_gain=5.78879 1.46752 1.03848 1.00744 0.666181 0.621029 0.688888 0.451037 0.438639 0.406664 0.405958 0.686768 0.8196 0.764732
threshold=1.1666666666666667 8.122727272727273 5.3136363636363644 -1.1181818181818175 7.9500000000000011 -0.92272727272727229 5.5045454545454549 4.6909090909090922 -1.2909090909090903 -2.2272727272727266 4.5500000000000007 5.8136363636363644 5.7772727272727282 1.0000000180025095e-35
decision_type=10 2 2 2 2 2 2 2 2 2 2 2 2 8
left_child=1 3 8 7 5 6 -5 -1 -2 -9 -7 12 13 -12
right_child=2 -3 -4 4 -6 10 -8 9 -10 -11 11 -13 -14 -15
leaf_value=-0.00022049340235776434 -0.022170813597939557 0.0097220517185272783 0.0055790833221381897 -0.00055865971846723035 0.020145363168373922 1.8247695793780191e-06 -0.0015048333423841943 0.0067351861309374542 0.012553229909387027 2.6328428318608052e-05 -0.00023807970206466577 -0.00016459867053178937 -0.0071549257774949334 -0.00023727146674253172
leaf_weight=32 34 149 2763 35 43 250 76 200 38 307 46 825 53 188
leaf_count=32 34 149 2763 35 43 250 76 200 38 307 46 825 53 188
internal_value=0.001795 -0.000127042 0.00328924 -0.000474452 -0.00113456 -0.00131365 -0.00490991 0.00138219 -0.00263889 0.00174556 -0.00102056 -0.00142986 -0.00353659 -0.00226496
internal_weight=5039 2204 2835 2055 1516 1473 111 539 72 507 1362 1112 287 234
internal_count=5039 2204 2835 2055 1516 1473 111 539 72 507 1362 1112 287 234
is_linear=0
shrinkage=0.05


Tree=48
num_leaves=15
num_cat=0
split_feature=5 4 3 3 4 0 0 3 5 0 5 5 4 4
split_gain=5.26313 1.87811 1.3692 1.03848 0.680556 0.61012 0.439915 1.68044 1.20318 1.03299 0.729203 0.894422 0.86821 0.664604
threshold=1.1666666666666667 7.9045454545454552 8.122727272727273 5.3136363636363644 6.1318181818181836 7.9500000000000011 5.0500000000000007 5.2909090909090919 0.41666666666666669 4.9500000000000011 0.58333333333333337 0.41666666666666669 6.1500000000000012 5.4954545454545469
decision_type=10 2 2 2 2 2 2 2 10 2 8 10 2 2
left_child=1 2 5 4 -2 6 8 -8 -1 -10 11 13 -12 -9
right_child=3 -3 -4 -5 -6 -7 7 10 9 -11 12 -13 -14 -15
leaf_value=1.1364256130659771e-05 0.012029268811309276 0.0063984268243905797 0.012670867098321126 0.0053001291560312806 -0.021803597045260834 0.01902146032420509 -0.001192587965608108 0.00057459809362108089 -0.0018936143809518689 0.028861599664868856 -0.0025388397046017148 -0.0045387913666099728 0.024485401649518443 -0.0020635155324930923
leaf_weight=501 36 289 122 2763 36 43 34 50 214 46 349 35 249 272
leaf_count=501 36 289 122 2763 36 43 34 50 214 46 349 35 249 272
internal_value=0.00186446 3.17606e-05 -0.000535248 0.00328924 -0.00263889 -0.000883993 -0.00102857 -0.00172396 -0.000124836 -0.00288462 -0.00133508 -0.00312325 -0.000267558 -0.00229814
internal_weight=5039 2204 1915 2835 72 1793 1750 989 761 260 955 357 598 322
internal_count=5039 2204 1915 2835 72 1793 1750 989 761 260 955 357 598 322
is_linear=0
shrinkage=0.05


Tree=49
num_leaves=15
num_cat=0
split_feature=5 4 3 3 4 3 3 3 3 5 3 4 3 5
split_gain=4.76248 1.72271 1.27329 1.03848 0.680556 0.434471 0.410617 0.735279 0.842151 0.479442 0.336496 0.266695 0.401351 0.347143
threshold=1.1666666666666667 7.9045454545454552 8.122727272727273 5.3136363636363644 6.1318181818181836 4.6909090909090922 5.2090909090909099 5.4409090909090922 5.4136363636363649 -1.0000000180025095e-35 6.6500000000000012 6.2954545454545459 5.3272727272727289 1.0000000180025095e-35
decision_type=10 2 2 2 2 2 2 2 2 10 2 2 2 8
left_child=1 2 5 4 -2 -1 -7 8 11 -9 -5 13 -13 -8
right_child=3 -3 -4 10 -6 6 7 9 -10 -11 -12 12 -14 -15
leaf_value=-0.00043604601349627538 0.011427805370743812 0.0060785054831710488 0.012037323743405071 0.0053039791315675549 -0.020713417192997793 2.7455499500113753e-05 -0.00014196890308584801 4.0931211725164105e-05 -0.00017677050103487757 -0.00023493796730229605 0.0038290831270647863 1.6419158613559302e-05 -0.0012263706689454512 1.1653181508794606e-06
leaf_weight=42 36 289 122 1571 36 76 30 253 31 1217 1192 30 44 70
leaf_count=42 36 289 122 1571 36 76 30 253 31 1217 1192 30 44 70
internal_value=0.00193392 0.000190563 -0.00035248 0.00328924 -0.00263889 -0.00068879 -0.000568247 -0.000731343 -0.00353659 -0.000340136 0.00344372 -0.00218391 -0.00445946 -0.0005
internal_weight=5039 2204 1915 2835 72 1793 1751 1675 205 1470 2763 174 74 100
internal_count=5039 2204 1915 2835 72 1793 1751 1675 205 1470 2763 174 74 100
is_linear=0
shrinkage=0.05


Tree=50
num_leaves=15
num_cat=0
split_feature=5 4 0 5 2 0 5 4 4 0 1 0 0 0
split_gain=3.77356 1.26287 0.948013 0.643868 0.578844 0.849531 1.49269 1.13244 0.492493 0.474113 0.452079 0.453799 0.445755 0.475921
threshold=1.1666666666666667 7.9045454545454552 7.9500000000000011 2.1666666666666674 -0.28636363636363699 4.7500000000000009 1.0000000180025095e-35 6.6590909090909101 6.3227272727272732 5.0500000000000007 1.0000000180025095e-35 4.2500000000000009 6.8500000000000005 6.0500000000000007
decision_type=10 2 2 10 2 2 8 2 2 2 2 2 2 2
left_child=1 2 4 12 5 10 7 -7 9 -8 11 -1 13 -2
right_child=3 -3 -4 -5 -6 6 8 -9 -10 -11 -12 -13 -14 -15
leaf_value=2.6271636123561042e-05 0.0091855274212657712 0.0057220401806706948 0.011778532216751639 0.0036376289707115484 2.5826132954971742e-05 -0.000234396491460845 5.4473146345864794e-05 -0.0044590491276460358 -0.00043114514837153811 -0.0059440458705542201 1.6653465824009951e-05 -0.00015511063087054471 0.0091565967290975995 -0.034842904062077837
leaf_weight=61 543 276 88 1925 1063 34 35 60 273 75 114 101 232 104
leaf_count=61 543 276 88 1925 1063 34 35 60 273 75 114 101 232 104
internal_value=0.00195024 0.000389908 -6.82771e-05 0.00316334 -0.000313876 -0.0013745 -0.00265199 -0.00829787 -0.00126632 -0.00409091 0.000833334 -0.000864197 0.00204209 0.00136785
internal_weight=4984 2180 1904 2804 1816 753 477 94 383 110 276 162 879 647
internal_count=4984 2180 1904 2804 1816 753 477 94 383 110 276 162 879 647
is_linear=0
shrinkage=0.05


Tree=51
num_leaves=15
num_cat=0
split_feature=5 4 3 3 4 2 3 5 4 4 5 3 4 5
split_gain=3.47779 1.12936 1.25812 0.924378 0.576146 0.744622 0.404879 0.521338 0.385735 1.11873 0.416526 0.730625 0.652293 0.407787
threshold=1.1666666666666667 7.8954545454545464 8.122727272727273 6.0863636363636369 7.9045454545454552 -2.3636363636363624 6.0045454545454549 1.4166666666666667 5.4772727272727275 5.5045454545454549 1.0000000180025095e-35 6.0500000000000007 6.2000000000000002 0.83333333333333337
decision_type=8 2 2 2 2 2 2 10 2 2 10 2 2 10
left_child=1 2 8 4 5 -2 -7 -8 13 -10 11 -11 -13 -1
right_child=3 -3 -4 -5 -6 6 7 -9 9 10 -12 12 -14 -15
leaf_value=0.000129340985037093 -0.017280896392258511 0.0032422993205657585 0.010438922956456249 0.0034557475221759729 0.0045174898458444244 0.0001227015132954809 -0.015560801049891713 0.0040272474834634631 -0.0020996884250072548 -6.3554964098378727e-06 -4.455747597170526e-05 -0.00089159371320102719 -0.0064595502402427524 -0.0040905396743599349
leaf_weight=152 32 277 105 1861 199 992 30 87 43 195 817 65 56 73
leaf_count=152 32 277 105 1861 199 992 30 87 43 195 817 65 56 73
internal_value=0.0020305 0.000260797 -0.000278884 0.00301625 0.00201493 0.00158195 0.00179892 -0.000982906 -0.000674518 -0.00103741 -0.000736981 -0.00227848 -0.00533058 0.00122222
internal_weight=4984 1783 1506 3201 1340 1141 1109 117 1401 1176 1133 316 121 225
internal_count=4984 1783 1506 3201 1340 1141 1109 117 1401 1176 1133 316 121 225
is_linear=0
shrinkage=0.05


Tree=52
num_leaves=15
num_cat=0
split_feature=5 3 4 5 0 0 3 4 5 3 3 3 4 4
split_gain=3.11051 1.09704 1.00204 0.841147 0.438079 0.383877 1.04745 0.746472 0.576141 0.540581 0.449309 0.339813 0.357084 0.286955
threshold=2.1666666666666674 8.122727272727273 7.9045454545454552 1.1666666666666667 7.4500000000000011 4.7500000000000009 5.245454545454546 7.1818181818181825 0.58333333333333337 5.3863636363636376 5.8590909090909102 6.3136363636363653 7.7500000000000009 7.8863636363636376
decision_type=10 2 2 8 2 2 2 2 10 2 2 2 2 2
left_child=1 2 3 5 13 7 -7 8 -1 -10 -11 12 -2 -5
right_child=11 -3 -4 4 -6 6 -8 -9 9 10 -12 -13 -14 -15
leaf_value=3.2161352780894421e-05 0.0048507636507888257 0.0079368957770430005 0.006180572916057267 5.5235967881179848e-05 0.009177925493125183 -0.0025497672891631393 -0.00018194094809588797 -8.524442450318171e-05 -0.0014123176821950177 0.00032609452277586537 -0.002925020935400223 0.0032829601460671767 0.0031296568044570541 -0.016198664858296647
leaf_weight=215 670 238 372 872 110 30 1041 38 36 39 31 1047 208 37
leaf_count=215 670 238 372 872 110 30 1041 38 36 39 31 1047 208 37
internal_value=0.00210072 0.00110984 0.000834811 0.000467538 0.00156526 -0.000314685 -0.000788982 0.00110028 0.00188474 -0.00113208 0.00142857 0.00367532 0.00294989 0.00120462
internal_weight=4984 3059 2821 2449 1019 1430 1071 359 321 106 70 1925 878 909
internal_count=4984 3059 2821 2449 1019 1430 1071 359 321 106 70 1925 878 909
is_linear=0
shrinkage=0.05


Tree=53
num_leaves=15
num_cat=0
split_feature=5 3 4 0 5 3 0 3 3 0 0 0 5 3
split_gain=3.23055 1.1303 1.0466 0.671046 0.493375 0.693755 0.688991 0.642303 0.465219 0.768146 0.450907 0.369231 0.351118 0.613847
threshold=2.1666666666666674 8.122727272727273 7.9045454545454552 7.9500000000000011 1.1666666666666667 6.7318181818181824 5.8500000000000005 5.3136363636363644 7.0136363636363646 7.4500000000000011 6.8500000000000005 4.8500000000000005 0.41666666666666669 5.5045454545454549
decision_type=10 2 2 2 10 2 2 2 2 2 2 2 10 2
left_child=1 2 3 4 5 10 11 -6 -8 -10 12 -7 13 -1
right_child=-2 -3 -4 -5 7 6 8 -9 9 -11 -12 -13 -14 -15
leaf_value=-3.5470840006928135e-06 0.0031188121387638159 0.0075400509881908481 0.005871544270254405 0.010597687504889548 -0.019811793382906853 -0.0046867354882145756 -0.0081792014682162302 0.010210584495818555 3.5183302892874456e-05 -0.0048193411409114323 0.020634925365011332 0.00083185279283288756 -0.0013868180873493306 6.4800095249130011e-05
leaf_weight=266 1925 238 372 77 42 30 47 592 77 31 68 130 553 536
leaf_count=266 1925 238 372 77 42 30 47 592 77 31 68 130 553 536
internal_value=0.00207063 0.0010608 0.000781638 0.000406288 0.000257167 -0.000178366 -0.00230159 0.0014511 -0.00467742 -0.00287037 0.000291638 1.86265e-10 9.22511e-05 0.000760599
internal_weight=4984 3059 2821 2449 2372 1738 315 634 155 108 1423 160 1355 802
internal_count=4984 3059 2821 2449 2372 1738 315 634 155 108 1423 160 1355 802
is_linear=0
shrinkage=0.05


Tree=54
num_leaves=15
num_cat=0
split_feature=5 4 0 2 5 2 2 0 5 5 4 2 0 0
split_gain=3.15027 1.05183 0.947299 0.551839 0.617466 0.442983 0.414092 0.813653 0.383258 0.347553 0.331275 0.315599 0.304852 0.325027
threshold=2.1666666666666674 7.9045454545454552 7.9500000000000011 -0.92272727272727229 1.1666666666666667 2.5000000000000004 1.572727272727273 6.7500000000000009 0.83333333333333337 1.8333333333333337 5.245454545454546 -2.3636363636363624 6.5500000000000007 6.0500000000000007
decision_type=10 2 2 2 10 2 2 2 8 8 2 2 2 2
left_child=1 2 3 9 5 6 -5 8 -8 11 -2 -1 13 -6
right_child=10 -3 -4 4 12 -7 7 -9 -10 -11 -12 -13 -14 -15
leaf_value=-0.0095747451315215462 -0.041656619631277148 0.0048855031691547209 0.0082090536414058668 1.3989038071653084e-05 0.010323397072415644 0.0013030797221323135 0.00084082653230769871 -0.003188402946212106 -0.0090007197982970074 2.4761156182419295e-05 0.0029628715318256228 -0.00044071999651064435 0.0082104908776791004 -0.033284903268210805
leaf_weight=30 31 415 145 1222 344 49 68 36 38 153 1894 348 142 69
leaf_count=30 31 415 145 1222 344 49 68 36 38 153 1894 348 142 69
internal_value=0.00209069 0.00109349 0.000726173 0.000498199 0.000884147 0.000329087 0.000161291 -0.00239437 -0.000188679 -0.000932203 0.00367532 -0.00174603 0.0022973 0.00161017
internal_weight=4984 3059 2644 2499 1968 1413 1364 142 106 531 1925 378 555 413
internal_count=4984 3059 2644 2499 1968 1413 1364 142 106 531 1925 378 555 413
is_linear=0
shrinkage=0.05


Tree=55
num_leaves=15
num_cat=0
split_feature=5 4 3 5 3 4 4 2 4 4 5 3 3 3
split_gain=3.06913 0.787411 0.972526 0.457492 0.775646 0.338023 0.374767 0.310136 0.339808 0.700821 0.560692 1.14467 0.704735 0.515789
threshold=2.1666666666666674 7.9045454545454552 8.122727272727273 1.1666666666666667 5.3136363636363644 5.9136363636363649 6.0590909090909095 -2.3954545454545455 6.8681818181818182 6.6590909090909101 0.83333333333333337 5.9409090909090922 6.0318181818181831 6.1318181818181836
decision_type=10 2 2 10 2 2 2 2 2 2 8 2 2 2
left_child=1 2 3 7 -5 -6 -7 -1 9 -9 11 -10 -13 -12
right_child=-2 -3 -4 4 5 6 -8 8 10 -11 13 12 -14 -15
leaf_value=0.00060964083486988259 0.0028829108829549776 0.0048479200018151846 0.0071090045495690929 -0.017151811789527818 0.011460004296826158 -0.032270679505649651 0.008734568682734152 3.5450903781457187e-06 0.00051600482362560958 0.025147387288374123 -0.00066667155897256905 -0.0043092166343527555 -0.0069383659962874563 0.016336017149473376
leaf_weight=32 1906 425 193 47 223 91 336 1361 70 130 76 30 66 49
leaf_count=32 1906 425 193 47 223 91 336 1361 70 130 76 30 66 49
internal_value=0.00208044 0.00111697 0.000802515 0.000539626 0.00162841 0.00207692 0.00125293 0.000121279 3.36702e-05 0.000338699 -0.00152921 -0.00343373 -0.00697917 0.001
internal_weight=5035 3129 2704 2511 697 650 427 1814 1782 1491 291 166 96 125
internal_count=5035 3129 2704 2511 697 650 427 1814 1782 1491 291 166 96 125
is_linear=0
shrinkage=0.05


Tree=56
num_leaves=15
num_cat=0
split_feature=5 4 0 4 2 5 2 2 2 4 4 4 2 4
split_gain=3.10779 0.80004 0.949765 0.467869 0.581755 0.53535 0.459073 0.37054 0.416748 0.33612 0.407111 0.299602 0.297193 0.297102
threshold=2.1666666666666674 7.9045454545454552 7.9500000000000011 7.8863636363636376 -1.8590909090909091 1.1666666666666667 2.5000000000000004 2.2636363636363637 1.9863636363636361 5.9136363636363649 6.0136363636363646 5.245454545454546 0.57727272727272816 7.7500000000000009
decision_type=10 2 2 2 2 10 2 2 2 2 2 2 2 2
left_child=1 2 3 5 -5 6 7 8 13 -7 -11 -2 -12 -1
right_child=11 -3 -4 4 -6 9 -8 -9 -10 10 12 -13 -14 -15
leaf_value=-5.6181255076113424e-07 -0.030596076465200364 0.0046055240017244233 0.0073618725251988655 -0.011425523814293728 0.0021561107025242264 0.0097936989501337651 0.0012377484815067905 -0.0039619346587834127 0.01506931613130575 -0.030657145539985515 0.0088711978819676542 0.0028098507525037546 0.0075289783202531482 0.024496834866434461
leaf_weight=1623 33 425 149 53 34 244 49 35 44 57 307 1873 79 30
leaf_count=1623 33 425 149 53 34 244 49 35 44 57 307 1873 79 30
internal_value=0.00207051 0.00110099 0.000784024 0.00055773 -0.00304598 0.000684765 0.000227401 9.23789e-05 0.000197407 0.00187045 0.00104966 0.00366212 0.00163212 6.95707e-05
internal_weight=5035 3129 2704 2555 87 2468 1781 1732 1697 687 443 1906 386 1653
internal_count=5035 3129 2704 2555 87 2468 1781 1732 1697 687 443 1906 386 1653
is_linear=0
shrinkage=0.05


Tree=57
num_leaves=15
num_cat=0
split_feature=5 4 3 0 3 3 4 3 3 0 3 4 2 4
split_gain=3.22522 0.838528 1.01504 0.646156 0.511821 0.542168 0.720982 0.551868 0.649567 0.492651 0.403474 0.330499 0.432815 0.390129
threshold=2.1666666666666674 7.9045454545454552 8.122727272727273 7.9500000000000011 6.8681818181818182 7.577272727272728 5.9681818181818187 7.8409090909090917 7.9045454545454552 6.8500000000000005 8.0409090909090928 7.8863636363636376 -1.8954545454545457 7.7136363636363647
decision_type=10 2 2 2 2 2 2 2 2 2 2 2 2 2
left_child=1 2 3 4 9 6 -6 -7 -9 11 -10 13 -13 -1
right_child=-2 -3 -4 -5 5 7 -8 8 10 -11 -12 12 -14 -15
leaf_value=1.494026601837935e-05 0.0025982728011820413 0.0043752478016382016 0.0064452028447311988 0.0085245063430117365 -0.0050964319462025783 0.0079844728867336234 -0.0012603669338520349 -0.0039761303912374387 0.01402445866115385 0.0091956123539411461 -0.012676974980794134 -0.0108525586020313 0.0019797191796200628 0.01271648921745884
leaf_weight=1762 1906 425 193 76 86 66 109 51 40 153 43 46 31 48
leaf_count=1762 1906 425 193 76 86 66 109 51 40 153 43 46 31 48
internal_value=0.00204072 0.00105305 0.00072855 0.000459976 0.000318275 -0.00132911 -0.00320513 0.0005 -0.00134328 0.000637255 0.00138554 0.000416004 -0.00279221 0.000552486
internal_weight=5035 3129 2704 2511 2435 395 195 200 134 2040 83 1887 77 1810
internal_count=5035 3129 2704 2511 2435 395 195 200 134 2040 83 1887 77 1810
is_linear=0
shrinkage=0.05


Tree=58
num_leaves=15
num_cat=0
split_feature=0 4 3 3 0 3 2 2 0 0 3 4 2 0
split_gain=1.44776 1.39595 0.792175 0.365146 0.387795 0.353952 0.290911 0.312676 0.284335 0.280279 0.267207 0.318285 0.512639 0.338904
threshold=7.5500000000000007 7.9045454545454552 8.122727272727273 5.4409090909090922 4.4500000000000011 8.0500000000000025 0.40909090909090967 -0.71818181818181814 5.3500000000000005 5.6500000000000012 5.4227272727272737 6.3045454545454556 -0.25454545454545435 4.7500000000000009
decision_type=2 2 2 2 2 2 2 2 2 2 2 2 2 2
left_child=1 2 3 8 6 -6 7 -5 10 -10 11 12 -1 -14
right_child=-2 -3 -4 4 5 -7 -8 -9 9 -11 -12 -13 13 -15
leaf_value=2.8456768279493785e-05 0.0024001762334023014 0.0024001762334023014 0.0041608038243302172 5.8331395591673772e-05 0.00050389735516134066 -0.014987468704808649 7.7702494130954506e-05 -0.00082759990202449962 -0.011490859223479803 0.0024052702041663424 -4.0789310657061396e-06 -7.5326230974136188e-06 -2.8374737311756957e-05 0.00036501704374448512
leaf_weight=180 730 668 211 47 2694 44 52 68 56 36 42 141 34 32
leaf_count=180 730 668 211 47 2694 44 52 68 56 36 42 141 34 32
internal_value=0.00205065 0.00170151 0.00131564 0.00113252 0.00135112 0.00149379 -0.000988024 -0.0023913 -8.63722e-05 -0.0026087 0.000454546 0.000865633 0.00195122 -0.00181818
internal_weight=5035 4305 3637 3426 2905 2738 167 115 521 92 429 387 246 66
internal_count=5035 4305 3637 3426 2905 2738 167 115 521 92 429 387 246 66
is_linear=0
shrinkage=0.05


Tree=59
num_leaves=15
num_cat=0
split_feature=5 4 0 5 2 0 4 4 4 0 0 0 2 4
split_gain=3.10779 0.80004 0.949765 0.619824 0.482887 0.590521 0.369211 0.337276 0.434337 0.474127 0.424361 0.575888 0.396827 0.498306
threshold=2.1666666666666674 7.9045454545454552 7.9500000000000011 1.1666666666666667 2.4000000000000004 7.4500000000000011 7.8863636363636376 6.8681818181818182 6.6590909090909101 4.3500000000000005 5.5500000000000007 5.9500000000000011 -1.6681818181818182 7.1818181818181825
decision_type=10 2 2 8 2 2 2 2 2 2 2 2 2 2
left_child=1 2 3 4 5 7 -5 8 9 -1 12 -12 -9 -14
right_child=-2 -3 -4 6 -6 -7 -8 10 -10 -11 11 -13 13 -15
leaf_value=2.77121718320388e-05 0.0024414343508575758 0.004036476599886177 0.0064475447701182248 9.3805519591435443e-05 0.0084121922267474704 -0.0044766067729461638 -0.01166946259123617 0.00095874594403316598 0.019097545521021587 -0.00014801165950882727 -0.0052859567439859497 -0.0047868518976630879 0.00057322805948594282 -0.0074523066611416507
leaf_weight=119 1906 425 149 1030 45 40 35 85 127 907 34 42 54 37
leaf_count=119 1906 425 149 1030 45 40 35 85 127 907 34 42 54 37
internal_value=0.00207051 0.00110099 0.000784024 0.00055773 -0.000100671 -0.000259515 0.00147887 -8.89678e-05 0.000273201 -6.82259e-05 -0.00174603 -0.00486842 -0.000397727 -0.00269231
internal_weight=5035 3129 2704 2555 1490 1445 1065 1405 1153 1026 252 76 176 91
internal_count=5035 3129 2704 2555 1490 1445 1065 1405 1153 1026 252 76 176 91
is_linear=0
shrinkage=0.05


Tree=60
num_leaves=15
num_cat=0
split_feature=5 4 0 2 5 4 5 5 5 4 5 0 0 4
split_gain=3.05958 0.886572 0.780119 0.473678 0.411758 0.355808 0.389372 0.452394 0.285671 0.536504 0.413413 0.683816 0.595238 0.515292
threshold=1.1666666666666667 7.9045454545454552 7.9500000000000011 2.5000000000000004 2.4166666666666674 5.8681818181818182 1.4166666666666667 1.5833333333333337 0.41666666666666669 5.9681818181818187 0.83333333333333337 5.2500000000000009 5.5500000000000007 6.4772727272727275
decision_type=10 2 2 2 10 2 10 10 10 2 10 2 2 2
left_child=1 2 3 8 5 -2 -7 -8 -1 -10 12 -12 13 -11
right_child=4 -3 -4 -5 -6 6 7 -9 9 10 11 -13 -14 -15
leaf_value=1.2882882747213757e-05 0.0071995540420289597 0.0034662150086331419 0.0074790068618879246 0.00095429362228128265 0.0025720953353993714 0.0066195706241719172 -0.018811785283614886 0.0030166060388722334 -0.0034549105355671499 0.0073968056691379128 -0.002164526551379034 0.02149757350993883 -0.011812269203936238 -0.00085803481096830144
leaf_weight=1024 280 291 85 48 1767 178 31 534 321 44 91 143 63 82
leaf_count=1024 280 291 85 48 1767 178 31 534 321 44 91 143 63 82
internal_value=0.00210959 0.000711679 0.000318254 9.91191e-05 0.00320789 0.00240958 0.00183715 0.00119469 -3.39365e-05 -0.00077957 0.000390071 0.00179487 -0.00134921 0.000634921
internal_weight=4982 2192 1901 1816 2790 1023 743 565 1768 744 423 234 189 126
internal_count=4982 2192 1901 1816 2790 1023 743 565 1768 744 423 234 189 126
is_linear=0
shrinkage=0.05


Tree=61
num_leaves=15
num_cat=0
split_feature=5 3 4 3 4 3 0 4 3 0 0 3 3 3
split_gain=3.00392 1.0106 0.757378 0.880445 0.56867 0.496202 0.393727 0.373775 0.527378 0.43524 0.857143 0.370408 1.3276 0.37231
threshold=1.1666666666666667 5.3136363636363644 7.9045454545454552 8.122727272727273 6.1318181818181836 6.0863636363636369 7.9500000000000011 7.5227272727272743 5.8954545454545464 6.9500000000000011 6.0500000000000007 5.9409090909090922 5.9500000000000011 5.8409090909090917
decision_type=10 2 2 2 2 2 2 2 2 2 2 2 2 2
left_child=2 4 3 6 -2 7 11 8 -3 10 -10 13 -13 -1
right_child=1 5 -4 -5 -6 -7 -8 -9 9 -11 -12 12 -14 -15
leaf_value=9.1556627144232602e-06 0.0094500761177101107 0.0057535892369482925 0.0032929042582014872 0.0074139668675089077 -0.018179365851380077 0.0024986911608881322 0.014011085591083765 0.0030458113119848753 0.0035271978868324375 0.003691344316806594 -0.036844053103208416 -0.0036533703177960633 -0.0001129975099475217 0.029775973484579776
leaf_weight=745 34 559 291 117 38 1703 40 271 121 31 33 52 878 69
leaf_count=745 34 559 291 117 38 1703 40 271 121 31 33 52 878 69
internal_value=0.00211963 0.00320789 0.000734489 0.000370858 -0.00263889 0.00336277 9.52917e-05 0.00248768 0.0019086 -0.000405405 -0.00149351 -1.72016e-05 -0.000698925 0.000761671
internal_weight=4982 2790 2192 1901 72 2718 1784 1015 744 185 154 1744 930 814
internal_count=4982 2790 2192 1901 72 2718 1784 1015 744 185 154 1744 930 814
is_linear=0
shrinkage=0.05


Tree=62
num_leaves=15
num_cat=0
split_feature=0 4 3 2 0 3 3 4 1 3 3 3 2 3
split_gain=1.29177 1.21965 0.721741 0.406764 1.31608 0.415663 0.340185 0.240321 0.331532 0.389547 0.23648 0.956519 0.587071 0.47317
threshold=7.5500000000000007 7.9045454545454552 8.122727272727273 -2.3454545454545448 4.6500000000000012 8.0500000000000025 5.4409090909090922 9.5772727272727298 1.0000000180025095e-35 6.1045454545454554 5.7772727272727282 5.7954545454545459 -0.92272727272727229 5.9409090909090922
decision_type=2 2 2 2 2 2 2 2 2 2 2 2 2 2
left_child=1 2 3 4 -1 6 -5 -3 9 -9 -8 -12 13 -13
right_child=-2 7 -4 5 -6 -7 10 8 -10 -11 11 12 -14 -15
leaf_value=0.0014850940333807705 0.0019045563793749388 0.0018823308442012965 0.0035771525907564551 2.536206053180079e-06 -0.01027810929893596 -0.015455710804797823 0.00022783569744333983 0.0030696391325683091 0.0037292487926015808 -0.0056063061348991952 -0.0072586138403780255 0.0033726144199039822 0.00042951020764801795 -0.0034707018019062607
leaf_weight=33 710 573 207 449 41 40 625 34 46 40 61 67 1882 174
leaf_count=33 710 573 207 449 41 40 625 34 46 40 61 67 1882 174
internal_value=0.00210959 0.00178137 0.00140961 0.00123369 -0.00243243 0.00131595 0.00137815 0.0037013 0.00166667 -0.000405405 0.00158241 0.001337 0.00151437 -0.000809128
internal_weight=4982 4272 3579 3372 74 3298 3258 693 120 74 2809 2184 2123 241
internal_count=4982 4272 3579 3372 74 3298 3258 693 120 74 2809 2184 2123 241
is_linear=0
shrinkage=0.05


Tree=63
num_leaves=15
num_cat=0
split_feature=5 3 4 3 4 3 4 3 2 2 2 3 2 5
split_gain=2.94877 1.0106 0.742903 0.869457 0.56867 0.496202 0.373775 0.527378 0.434528 0.370614 0.662571 0.300169 0.341467 0.408216
threshold=1.1666666666666667 5.3136363636363644 7.9045454545454552 8.122727272727273 6.1318181818181836 6.0863636363636369 7.5227272727272743 5.8954545454545464 -0.7545454545454543 -0.34545454545454518 1.0000000180025095e-35 6.0681818181818192 -1.8590909090909091 0.41666666666666669
decision_type=10 2 2 2 2 2 2 2 2 2 2 2 2 10
left_child=2 4 3 -1 -2 6 7 -3 -9 -10 -11 -4 13 -13
right_child=1 5 11 -5 -6 -7 -8 8 9 10 -12 12 -14 -15
leaf_value=4.6476283098075607e-06 0.0089774455015219478 0.0054525012535111307 0.0045188845074519554 0.0069145887953927874 -0.017270524369113732 0.0023254387921203337 0.0027994042041755655 -0.040386424336001148 0.0070919046780950137 -0.037850952665441688 0.0051060544665832014 0.008221519787016204 0.0015375296147240646 -0.040290636722808332
leaf_weight=1784 34 559 122 117 38 1703 271 33 38 35 79 34 89 46
leaf_count=1784 34 559 122 117 38 1703 271 33 38 35 79 34 89 46
internal_value=0.00212967 0.00320789 0.000757299 0.00039716 -0.00263889 0.00336277 0.00248768 0.0019086 -0.000405405 0.000723684 -0.000701754 0.00310997 0.00174556 -0.000625
internal_weight=4982 2790 2192 1901 72 2718 1015 744 185 152 114 291 169 80
internal_count=4982 2790 2192 1901 72 2718 1015 744 185 152 114 291 169 80
is_linear=0
shrinkage=0.05


Tree=64
num_leaves=15
num_cat=0
split_feature=5 3 4 3 4 3 0 4 3 0 0 0 5 3
split_gain=2.89413 1.0106 0.83999 0.869457 0.56867 0.496202 0.38924 0.373775 0.527378 0.43524 0.857143 0.371711 0.665926 0.448963
threshold=1.1666666666666667 5.3136363636363644 7.9045454545454552 8.122727272727273 6.1318181818181836 6.0863636363636369 7.9500000000000011 7.5227272727272743 5.8954545454545464 6.9500000000000011 6.0500000000000007 4.8500000000000005 0.58333333333333337 5.0863636363636369
decision_type=10 2 2 2 2 2 2 2 2 2 2 2 8 2
left_child=2 4 3 6 -2 7 11 8 -3 10 -10 12 -1 -14
right_child=1 5 -4 -5 -6 -7 -8 -9 9 -11 -12 -13 13 -15
leaf_value=3.3500364269903983e-05 0.008528573226445851 0.005179876190835573 0.0030951067635357436 0.0065688593556231497 -0.016406998150658044 0.0022091668525143176 0.013215071111145341 0.0026594339939667866 0.0029747676500241193 0.0032409485858849903 -0.032914428446080002 -0.00012141458872930509 1.9643842652094885e-05 -1.1397784505175719e-05
leaf_weight=262 34 559 291 117 38 1703 40 271 121 31 33 1248 55 179
leaf_count=262 34 559 291 117 38 1703 40 271 121 31 33 1248 55 179
internal_value=0.0021397 0.00320789 0.00078011 0.00039716 -0.00263889 0.00336277 0.000123319 0.00248768 0.0019086 -0.000405405 -0.00149351 1.14681e-05 0.00116935 -0.000769231
internal_weight=4982 2790 2192 1901 72 2718 1784 1015 744 185 154 1744 496 234
internal_count=4982 2790 2192 1901 72 2718 1784 1015 744 185 154 1744 496 234
is_linear=0
shrinkage=0.05


Tree=65
num_leaves=15
num_cat=0
split_feature=0 4 3 3 3 3 0 0 0 3 0 2 4 3
split_gain=1.26324 1.16212 0.764295 0.292012 0.322864 0.299158 0.311686 0.265157 0.331997 1.13118 0.696416 0.389054 0.25096 0.340742
threshold=7.5500000000000007 7.9045454545454552 8.122727272727273 5.4409090909090922 5.5227272727272743 5.4227272727272737 4.1500000000000012 5.3500000000000005 5.0500000000000007 6.0136363636363646 5.1500000000000012 -0.054545454545454224 7.5681818181818192 5.9409090909090922
decision_type=2 2 2 2 2 2 2 2 2 2 2 2 2 2
left_child=1 2 3 5 -5 6 -1 8 -6 10 -10 -12 -9 -14
right_child=-2 -3 -4 4 7 -7 -8 12 9 -11 11 -13 13 -15
leaf_value=1.8661650519490139e-05 0.001582598278174463 0.0015837095549331437 0.0040792148937372277 0.00055422489509647261 5.3371782089049828e-05 -8.9041497495670148e-06 4.992935799542412e-06 0.0026287965983570801 -0.038663052774310716 0.0011724403842093493 0.0014386976918721644 -0.003672205263471551 0.0091427780908126168 -0.0053416703790930319
leaf_weight=36 708 686 218 229 706 46 423 1557 31 136 46 30 38 102
leaf_count=36 708 686 218 229 706 46 423 1557 31 136 46 30 38 102
internal_value=0.0021254 0.00180205 0.00144247 0.0012574 0.00145217 0.000148515 0.000533769 0.0012963 0.000626976 -0.000967078 -0.00481308 -0.00223684 0.0016706 -0.000357143
internal_weight=4992 4284 3598 3380 2875 505 459 2646 949 243 107 76 1697 140
internal_count=4992 4284 3598 3380 2875 505 459 2646 949 243 107 76 1697 140
is_linear=0
shrinkage=0.05


Tree=66
num_leaves=15
num_cat=0
split_feature=5 4 0 5 2 2 0 5 2 0 0 4 2 1
split_gain=3.43264 0.777553 0.850278 0.577726 0.385965 0.328991 0.329337 0.342766 0.683369 0.617143 0.377585 0.666839 0.371337 0.591969
threshold=1.1666666666666667 7.9045454545454552 7.9500000000000011 2.1666666666666674 0.57727272727272816 2.5000000000000004 4.7500000000000009 1.0000000180025095e-35 0.47272727272727316 6.3500000000000005 5.5500000000000007 6.0500000000000007 0.38636363636363674 1.0000000180025095e-35
decision_type=10 2 2 10 2 2 2 8 2 2 2 2 2 2
left_child=1 2 5 4 -2 6 -1 8 10 -10 11 -8 13 -9
right_child=3 -3 -4 -5 -6 -7 7 12 9 -11 -12 -13 -14 -15
leaf_value=8.0334405714460051e-06 0.0056670077219254768 0.0025208285901719492 0.0060341842972163814 0.0019754403272387723 0.0055470317907621554 0.00082202929132095385 -0.00013555625860067351 -0.00057456114652194759 0.00021942132168425527 -0.0014844815610222497 -0.0053084716673856671 2.1346920461746942e-05 -0.0011914116391916196 0.00069645369236574241
leaf_weight=470 619 292 87 1925 271 49 49 314 70 30 41 66 419 290
leaf_count=470 619 292 87 1925 271 49 49 314 70 30 41 66 419 290
internal_value=0.00203526 0.000544327 0.000172414 0.00318828 0.00213483 -6.11789e-05 -0.000174385 -0.000590305 -0.00222656 0.001 -0.00429487 -0.00282609 -0.00018084 0.000612583
internal_weight=4992 2177 1885 2815 890 1798 1749 1279 256 100 156 115 1023 604
internal_count=4992 2177 1885 2815 890 1798 1749 1279 256 100 156 115 1023 604
is_linear=0
shrinkage=0.05


Tree=67
num_leaves=15
num_cat=0
split_feature=5 3 2 3 2 3 2 0 3 0 2 3 3 0
split_gain=3.49254 0.703223 0.753256 0.684667 0.581432 0.483348 0.444308 0.422723 0.482777 0.516977 0.78336 0.555377 0.450024 0.421375
threshold=1.1666666666666667 8.1409090909090924 -1.0818181818181813 6.0863636363636369 -0.90000000000000069 5.1545454545454552 -0.98181818181818181 7.9500000000000011 6.7318181818181824 6.7500000000000009 1.0545454545454553 7.2090909090909099 7.0045454545454549 5.7500000000000009
decision_type=10 2 2 2 2 2 2 2 2 2 2 2 2 2
left_child=1 2 -1 5 6 -2 -4 8 13 11 -11 12 -10 -6
right_child=3 -3 4 -5 7 -7 -8 -9 9 10 -12 -13 -14 -15
leaf_value=0.00011895877075353658 -0.01443085450266343 0.0035870723951000739 -0.00059545558534839188 0.0020731414091830608 -4.2042105452291528e-06 0.0026279452271704747 -0.0024176367853029957 0.013115045160098203 8.9789938187659522e-05 0.0092644441130587622 -0.0042464540611804108 0.00061902699622157697 -0.0062085912236117769 0.017084864977756603
leaf_weight=568 35 141 38 1722 778 1058 48 40 64 35 54 140 51 220
leaf_count=568 35 141 38 1722 778 1058 48 40 64 35 54 140 51 220
internal_value=0.00202524 0.00052136 0.000284872 0.00318828 -0.000313351 0.00220952 -0.00430233 -6.51228e-05 -0.000216095 -0.0018314 -0.00511236 -0.000686274 -0.00326087 0.000340682
internal_weight=4992 2177 2036 2815 1468 1093 86 1382 1342 344 89 255 115 998
internal_count=4992 2177 2036 2815 1468 1093 86 1382 1342 344 89 255 115 998
is_linear=0
shrinkage=0.05


Tree=68
num_leaves=15
num_cat=0
split_feature=5 2 2 3 3 0 0 3 3 3 2 2 3 5
split_gain=3.79979 0.728288 0.718769 0.684667 0.483348 0.477418 0.519047 0.379858 0.356521 0.668593 0.376665 0.333424 0.383075 0.650901
threshold=1.1666666666666667 2.5000000000000004 -2.459090909090909 6.0863636363636369 5.1545454545454552 7.9500000000000011 5.5500000000000007 5.6227272727272739 5.4409090909090922 5.0272727272727282 -0.7545454545454543 -1.2318181818181813 5.8772727272727279 2.1666666666666674
decision_type=10 2 2 2 2 2 2 2 2 2 2 2 2 10
left_child=1 2 -1 4 -2 6 8 -8 9 -4 -10 -6 -13 -14
right_child=3 -3 5 -5 11 -7 7 -9 10 -11 -12 12 13 -15
leaf_value=0.0024066488334473584 -0.013709311777530259 0.0025783266183868774 1.6834679445550026e-05 0.0019694843387239097 0.0022171075388013328 0.0065346888068009397 -0.0063674016744628172 -0.00087517228227719621 0.00059751676372074298 -1.6392031380614732e-05 5.8433356838996815e-06 0.0045612900103730591 -0.031621084982989899 0.0026055204446261953
leaf_weight=145 35 83 74 1722 364 64 41 608 275 212 675 472 74 148
leaf_count=145 35 83 74 1722 364 64 41 608 275 212 675 472 74 148
internal_value=0.00197516 0.000406523 0.000224451 0.00318828 0.00220952 -2.82194e-05 -0.000172414 -0.00131741 0.000428803 -0.00111888 0.000894737 0.00240076 0.00175793 4.50452e-05
internal_weight=4992 2177 2094 2815 1093 1949 1885 649 1236 286 950 1058 694 222
