tree
version=v4
num_class=1
num_tree_per_iteration=1
label_index=0
max_feature_idx=5
objective=quantile
feature_names=price_millions is_home strength_diff squad_top_n_avg_price opp_squad_top_n_avg_price form_lag
feature_infos=[4:15.1] [0:1] [-6.0181818181818185:6.0181818181818185] [4.3909090909090907:11.863636363636363] [4.3909090909090907:11.863636363636363] [-0.66666666666666663:19]
tree_sizes=1313 1403 1433 1419 1444 1433 1457 1470 1454 1457 1446 1445 1439 1453 1458 1447 1468 1477 1449 1433 1454 1443 1464 1464 1446 1450 1469 1462 1462 1454 1467 1444 1477 1478 1457 1468 1460 1429 1448 1453 1449 1444 1448 1452 1464 1468 1451 1481 1466 1477 1461 1473 1443 1460 1467 1467 1450 1449 1467 1480 1454 1460 1443 1466 1459 1472 1457 1488 1452 1456 1457 1456 1463 1458 1450 1469 1467 1466 1463 1462 1470 1450 1452 1462 1478 1455 1478 1452 1451 1469 1455 1471 1481 1447 1453 1455 1459 1449 1448 1460 1446 1471 1441 1458 1457 1456 1456 1472 1456 1453 1474 1476 1482 1479 1464 1469 1457 1470 1472 1475 1467 1448 1481 1467 1454 1471 1459 1471 1459 1448 1465 1471 1467 1470 1493 1435 1454 1487 1468 1449 1481 1482 1472 1448 1460 1466 1463 1481 1455 1463 1481 1469 1464 1467 1482 1462 1467 1474 1456 1465 1454 1457 1454 1463 1468 1474 1469 1470 1461 1464 1465 1494 1464 1442 1467 1472 1452 1462 1452 1459 1453 1454 1461 1456 1460 1442 1448 1459 1452 1473 1465 1463 1452 1475 1459 1451 1444 1459 1444 1466

Tree=0
num_leaves=15
num_cat=0
split_feature=0 0 5 3 2 5 2 5 2 2 3 2 5 1
split_gain=11.9233 4.41304 2.29061 1.50332 1.87818 0.990689 1.04025 0.916002 0.77403 0.768254 0.659866 0.655962 0.645592 0.54975
threshold=10.450000000000001 7.2500000000000009 1.4166666666666667 6.9045454545454552 -0.50909090909090826 3.4166666666666674 0.19090909090909094 7.5833333333333348 -1.7499999999999993 1.0090909090909086 5.9954545454545469 -0.05909090909090952 7.416666666666667 1.0000000180025095e-35
decision_type=2 2 10 2 2 8 2 10 2 2 2 2 8 2
left_child=1 2 -1 4 -3 6 -6 8 -4 -7 -9 -5 -2 -14
right_child=12 3 7 11 5 9 -8 10 -10 -11 -12 -13 13 -15
leaf_value=7.8499999999999996 8.25 7.9349998533725739 7.9000000000000004 7.7899999260902408 8.2299999594688416 8.1249998867511746 8.0500000000000007 7.9449999630451202 8 8.3099999308586128 8.1999999999999993 8.0500000000000007 8.25 8.4000000000000004
leaf_weight=2178 79 124 328 63 35 96 90 32 1460 30 58 352 31 40
leaf_count=2178 79 124 328 63 35 96 90 32 1460 30 58 352 31 40
internal_value=7.99878 7.99835 7.99769 8.00177 8.00407 8.00655 8.0034 7.99897 7.99872 8.00968 8.00389 7.9997 8.01267 8.01613
internal_weight=4996 4846 4056 790 375 251 125 1878 1788 126 90 415 150 71
internal_count=4996 4846 4056 790 375 251 125 1878 1788 126 90 415 150 71
is_linear=0
shrinkage=1


Tree=1
num_leaves=15
num_cat=0
split_feature=0 0 5 4 4 5 0 5 2 5 4 5 1 2
split_gain=11.0462 4.12698 2.41581 1.79633 0.825394 1.06765 0.7892 0.68462 0.710558 0.645592 0.598923 0.573258 0.54975 0.441497
threshold=10.450000000000001 5.5500000000000007 7.5833333333333348 5.3409090909090917 6.7227272727272736 4.416666666666667 6.5500000000000007 8.1666666666666696 0.70454545454545514 7.416666666666667 6.0954545454545466 2.8333333333333335 1.0000000180025095e-35 0.48181818181818287
decision_type=2 2 10 2 2 10 2 10 2 8 2 10 2 2
left_child=1 11 3 6 5 13 -3 -4 -9 10 -2 -1 -11 -5
right_child=9 2 7 4 -6 -7 -8 8 -10 12 -12 -13 -14 -15
leaf_value=-0.14500000000000002 0.27749996185302733 0.0075000000000000179 0.2099999570846558 0.035399653708912029 -0.046749992668628698 0.10000000000000001 0.26599994438886104 0.043924814772608428 0.1974999928474426 0.23750000000000002 0.18749989271163942 0 0.38 -0.0025000000000000356
leaf_weight=1870 33 73 37 472 909 208 66 58 41 31 46 439 40 673
leaf_count=1870 33 73 37 472 909 208 66 58 41 31 46 439 40 673
internal_value=-0.000696558 -0.0011102 0.000281828 -8.53823e-05 -0.000424404 0.000358461 0.00543165 0.0067647 0.00459596 0.0126667 0.00955696 -0.00263967 0.0161268 -0.000240176
internal_weight=4996 4846 2537 2401 2262 1353 139 136 99 150 79 2309 71 1145
internal_count=4996 4846 2537 2401 2262 1353 139 136 99 150 79 2309 71 1145
is_linear=0
shrinkage=0.05


Tree=2
num_leaves=15
num_cat=0
split_feature=0 0 5 4 4 5 5 5 2 5 4 0 4 2
split_gain=10.6364 4.11669 2.22863 1.60187 1.22278 1.0634 1.00171 0.68462 0.710558 0.645592 0.598923 0.594997 1.14317 1.37213
threshold=10.450000000000001 5.5500000000000007 7.5833333333333348 4.8045454545454556 7.0590909090909095 0.83333333333333337 1.1666666666666667 8.1666666666666696 0.70454545454545514 7.416666666666667 6.0954545454545466 7.2500000000000009 5.4000000000000012 0.79090909090909156
decision_type=2 2 10 2 2 8 10 10 2 8 2 2 2 2
left_child=1 6 3 -3 5 -5 -1 -4 -9 10 -2 -7 -13 -14
right_child=9 2 7 4 -6 11 -8 8 -10 -11 -12 12 13 -15
leaf_value=-0.18525000000000003 0.26362496376037597 0.30308247637241892 0.19949995923042307 -0.05237500000000006 -0.0898625499934574 0.002337499633431417 -0.042750000000000024 0.041728574033977998 0.18762499320507051 0.26099999999999995 0.17812489807605747 0.2341999903827941 0.12846231655774434 -0.0023750000000000607
leaf_weight=1367 33 30 37 295 700 953 942 58 41 71 46 41 154 228
leaf_count=1367 33 30 37 295 700 953 942 58 41 71 46 41 154 228
internal_value=-0.000446358 -0.00085225 0.000538036 0.000185338 4.00663e-05 0.000774984 -0.00237982 0.0067647 0.00459596 0.0126667 0.00955696 0.00135901 0.00291962 0.00206806
internal_weight=4996 4846 2537 2401 2371 1671 2309 136 99 150 79 1376 423 382
internal_count=4996 4846 2537 2401 2371 1671 2309 136 99 150 79 1376 423 382
is_linear=0
shrinkage=0.05


Tree=3
num_leaves=15
num_cat=0
split_feature=0 0 4 4 0 0 3 3 0 3 3 3 3 2
split_gain=9.38312 3.56978 1.58017 1.22058 0.88018 0.873061 1.60932 0.697788 0.677295 0.685402 0.990453 0.670621 0.525026 0.700379
threshold=10.450000000000001 5.5500000000000007 5.2909090909090919 7.0590909090909095 6.9500000000000011 7.2500000000000009 6.8590909090909102 6.2181818181818196 7.4500000000000011 6.6772727272727286 6.6045454545454554 8.5727272727272759 5.8227272727272732 -2.6772727272727264
decision_type=2 2 2 2 2 2 2 2 2 2 2 2 2 2
left_child=1 -1 4 5 -3 11 7 -7 -9 10 -10 -4 13 -5
right_child=-2 2 3 12 -6 6 -8 8 9 -11 -12 -13 -14 -15
leaf_value=-0.097862500000000019 0.24795 0.084470815384641393 8.1250183284531378e-06 0.072080556263181619 0.28754582811917689 0.03030690351322507 0.0082779302312126993 0.027136743931033526 0.16858996309649577 0.08513117591440679 0.26283254676032397 0.055258117329329295 -0.085669372866895716 -0.03816937286689575
leaf_weight=2309 150 61 1124 30 36 63 308 33 45 60 34 44 619 80
leaf_count=2309 150 61 1124 30 36 63 308 33 45 60 34 44 619 80
internal_value=-0.000316254 -0.000697484 0.000597161 0.000348359 0.00685567 0.00107832 0.00273481 0.00585106 0.0075 0.00902878 0.0120886 0.000308218 -0.00136488 0.00181818
internal_weight=4996 4846 2537 2440 97 1711 543 235 172 139 79 1168 729 110
internal_count=4996 4846 2537 2440 97 1711 543 235 172 139 79 1168 729 110
is_linear=0
shrinkage=0.05


Tree=4
num_leaves=15
num_cat=0
split_feature=5 5 2 1 2 2 5 4 4 4 5 4 4 4
split_gain=6.01404 3.64777 2.05867 1.89792 1.43817 1.12829 0.966061 0.921089 0.726316 0.65247 0.622092 0.858377 0.8361 0.533835
threshold=7.416666666666667 0.83333333333333337 -0.24545454545454556 1.0000000180025095e-35 0.40454545454545437 2.9863636363636363 5.166666666666667 4.8045454545454556 6.1409090909090915 6.6045454545454554 2.1666666666666674 7.3954545454545464 6.2318181818181824 5.5409090909090919
decision_type=10 8 2 2 2 2 10 2 2 2 10 2 2 2
left_child=1 -1 10 9 -5 6 7 -4 -6 -2 -3 12 -12 -8
right_child=3 2 5 4 8 -7 13 -9 -10 -11 11 -13 -14 -15
leaf_value=-0.17109437500000002 -0.017437915775135922 -0.0851109352654984 0.27644983257288241 0.12766768863433456 0.22378802244970772 0.20017750000000004 0.19488271876741195 0.0022202184008434322 0.34055246542930606 0.1413493494402199 -0.046536546301022497 -0.083885904223550967 0.048112736081966291 0.056863132629729557
leaf_weight=1241 65 868 38 42 46 102 47 1572 30 44 75 414 263 149
leaf_count=1241 65 868 38 42 46 102 47 1572 30 44 75 414 263 149
internal_value=-0.000396318 -0.000774797 4.53503e-05 0.00755506 0.0119492 0.00115828 0.000869323 0.000465837 0.0160526 0.00279816 -0.00126543 -0.000212767 0.0016568 0.00418367
internal_weight=4996 4769 3528 227 118 1908 1806 1610 76 109 1620 752 338 196
internal_count=4996 4769 3528 227 118 1908 1806 1610 76 109 1620 752 338 196
is_linear=0
shrinkage=0.05


Tree=5
num_leaves=15
num_cat=0
split_feature=0 5 0 4 5 4 5 2 5 0 4 3 2 4
split_gain=6.37216 3.1254 1.84429 2.21305 1.31209 0.98687 0.977202 0.933931 0.89834 1.18755 0.819467 0.72379 0.869588 0.71213
threshold=10.450000000000001 0.83333333333333337 5.5500000000000007 5.0863636363636369 7.5833333333333348 6.3363636363636369 2.5833333333333335 1.2909090909090917 8.1666666666666696 7.8500000000000005 7.0136363636363646 5.8227272727272732 -2.5909090909090908 6.9863636363636372
decision_type=2 8 2 2 10 2 10 2 10 2 2 2 2 2
left_child=1 -1 6 -4 10 -2 7 -3 -6 -10 -5 12 -12 -7
right_child=5 2 3 4 8 13 -8 -9 9 -11 11 -13 -14 -15
leaf_value=-0.16253965625000003 0.22990227416903086 -0.1283303859200422 0.24773831291253195 0.021416879331507432 0.21674096358049028 -0.0068899674720110052 0.0046249881959016474 0.028794614079957804 -0.012449059984323926 0.1968673963068352 0.062420862711180553 -0.077130357460276022 -0.032066609012373438 0.29979667089280104
leaf_weight=1242 76 930 45 1336 31 32 475 67 69 31 31 531 68 45
leaf_count=1242 76 930 45 1336 31 32 475 67 69 31 31 531 68 45
internal_value=-0.000667799 -0.00098435 -0.000240732 0.00069561 0.00046018 0.00937908 -0.00160326 -0.00249248 0.00530534 0.003 0.000137333 -0.00134921 0.00257576 0.00538961
internal_weight=5009 4856 3614 2142 2097 153 1472 997 131 100 1966 630 99 77
internal_count=5009 4856 3614 2142 2097 153 1472 997 131 100 1966 630 99 77
is_linear=0
shrinkage=0.05


Tree=6
num_leaves=15
num_cat=0
split_feature=5 5 2 1 5 5 4 5 2 3 1 4 4 3
split_gain=3.84125 2.52229 1.81241 1.54008 1.30811 1.4694 0.836789 0.920297 1.00108 0.595424 0.558832 0.589796 0.497368 0.454209
threshold=0.83333333333333337 7.5833333333333348 -0.24545454545454556 1.0000000180025095e-35 10.16666666666667 8.5833333333333339 4.8045454545454556 5.166666666666667 2.913636363636364 6.6409090909090915 1.0000000180025095e-35 6.6409090909090915 6.9590909090909099 6.7954545454545459
decision_type=8 10 2 2 10 10 2 10 2 2 2 2 2 2
left_child=-1 2 13 12 5 -5 -4 8 10 -9 11 -8 -3 -2
right_child=1 3 6 4 -6 -7 7 9 -10 -11 -12 -13 -14 -15
leaf_value=-0.15441267343750004 -0.031900090595766754 -0.0065454690984104507 0.25024042529861168 0.18219281467480344 0.25713501221900292 -0.030720468903680732 -0.044432155126650899 0.11804527826110356 0.1735027724262965 0.064451348137940914 0.01314647523876299 0.046892104468030361 0.18579058652301747 -0.084103616364957293
leaf_weight=1246 1482 84 38 43 30 38 575 83 92 135 830 148 30 155
leaf_count=1246 1482 84 38 43 30 38 575 83 92 135 830 148 30 155
internal_value=-0.000707727 8.90235e-05 -0.000237423 0.00522222 0.00941441 0.00611111 0.000812729 0.000662908 0.000258357 0.0037156 -4.18557e-05 -0.00105809 0.00114035 -0.00145693
internal_weight=5009 3763 3538 225 111 81 1901 1863 1645 218 1553 723 114 1637
internal_count=5009 3763 3538 225 111 81 1901 1863 1645 218 1553 723 114 1637
is_linear=0
shrinkage=0.05


Tree=7
num_leaves=15
num_cat=0
split_feature=0 0 5 5 5 0 5 1 2 3 3 2 2 0
split_gain=5.89109 2.46974 1.28062 1.21647 0.803035 1.04566 0.667864 0.636879 0.582642 0.929279 0.685753 0.664935 0.556943 0.483751
threshold=10.450000000000001 5.5500000000000007 0.83333333333333337 2.5833333333333335 7.8333333333333348 7.7500000000000009 9.1666666666666696 1.0000000180025095e-35 -0.24545454545454556 6.9863636363636372 6.0409090909090919 1.2136363636363641 -2.5136363636363641 7.2500000000000009
decision_type=2 2 8 10 8 2 8 2 2 2 2 2 2 2
left_child=1 3 -3 -1 8 -6 -2 -5 10 11 12 13 -4 -10
right_child=6 2 4 7 5 -7 -8 -9 9 -11 -12 -13 -14 -15
leaf_value=-0.14669203976562503 0.18901650071947243 -0.071508639743890462 0.024824645917467469 -0.044011256684105104 0.059920029315275375 0.19031113749006878 0.30001116139013762 0.015413685988679078 0.035066454256294934 -0.0032975757581160964 -0.071678835057473883 0.17173968225272584 -0.0025667928167997242 0.036485717102360364
leaf_weight=1833 112 406 52 249 212 56 41 226 401 538 385 56 283 159
leaf_count=1833 112 406 52 249 212 56 41 226 401 538 385 56 283 159
internal_value=-0.000607907 -0.000912275 0.000160909 -0.00209705 0.000648925 0.00320895 0.00905229 0.000157894 0.000282816 0.000979202 -0.000833335 0.00230519 0.000820894 0.00178571
internal_weight=5009 4856 2548 2308 2142 268 153 475 1874 1154 720 616 335 560
internal_count=5009 4856 2548 2308 2142 268 153 475 1874 1154 720 616 335 560
is_linear=0
shrinkage=0.05


Tree=8
num_leaves=15
num_cat=0
split_feature=0 0 4 5 5 5 5 2 3 3 4 3 2 5
split_gain=5.51102 2.2924 1.66434 1.17017 1.16661 0.865001 0.750205 0.602117 0.601174 1.14977 0.566025 0.603245 0.79206 0.613901
threshold=10.450000000000001 5.5500000000000007 5.4000000000000012 2.5833333333333335 7.8333333333333348 0.83333333333333337 9.1666666666666696 1.281818181818182 5.6227272727272739 5.7772727272727282 6.9227272727272737 5.8227272727272732 -2.5909090909090908 7.5833333333333348
decision_type=2 2 2 10 8 8 8 2 2 2 2 2 2 10
left_child=1 3 4 7 -3 -4 -2 -1 -5 -10 -7 12 -12 -13
right_child=6 2 5 8 -6 10 -8 -9 9 -11 11 13 -14 -15
leaf_value=-0.13935743777734375 0.17956567568349885 0.14851677924686546 -0.078435807690286727 -0.10186782509958164 0.17181047647612199 0.013123147795850538 0.28501060332063072 0.0014914826629684797 0.054225345818860682 0.0052180590164609521 0.055204840394522142 -0.05427034266028094 -0.029287765582144128 0.1698345519126131
leaf_weight=1686 112 156 373 143 37 1286 41 147 43 289 32 553 75 36
leaf_count=1686 112 156 373 143 37 1286 41 147 43 289 32 553 75 36
internal_value=-0.000617889 -0.000912275 0.000121663 -0.00205373 0.00458549 -0.000244163 0.00872549 -0.00262684 0.000157894 0.0013253 0.000171543 -0.000977013 0.00247663 -0.00160442
internal_weight=5009 4856 2548 2308 193 2355 153 1833 475 332 1982 696 107 589
internal_count=5009 4856 2548 2308 193 2355 153 1833 475 332 1982 696 107 589
is_linear=0
shrinkage=0.05


Tree=9
num_leaves=15
num_cat=0
split_feature=0 5 0 4 5 5 1 4 2 4 2 4 5 0
split_gain=5.06429 1.93845 1.09755 1.6245 0.837331 0.781942 0.668131 0.51116 0.563978 0.976935 0.798238 0.541353 0.500312 0.573099
threshold=10.450000000000001 0.83333333333333337 7.2500000000000009 5.4000000000000012 9.1666666666666696 1.1666666666666667 1.0000000180025095e-35 8.8454545454545475 0.54090909090909156 6.9227272727272737 -1.4818181818181826 6.6136363636363642 2.5833333333333335 5.2500000000000009
decision_type=2 8 2 2 8 8 2 2 2 2 2 2 10 2
left_child=1 -1 6 -4 -2 -5 -3 8 9 11 -11 -7 13 -8
right_child=4 2 3 5 -6 7 12 -9 -10 10 -12 -13 -14 -15
leaf_value=-0.13238956588847658 0.17058739189932393 -0.046863167130580398 0.19961002067986641 0.21893965368720722 0.27076007315459916 0.033112779702127497 -0.11878239367266426 -0.069692658672634591 -0.011279068591127234 0.1758821122363706 -0.038189469130131132 0.30419145808464571 0.022083769627205024 0.0028800389916498518
leaf_weight=1242 112 1494 49 45 41 72 283 41 310 36 102 42 597 543
leaf_count=1242 112 1494 49 45 41 72 283 41 310 36 102 42 597 543
internal_value=-0.000557997 -0.000840199 -0.000254567 0.00152798 0.00839869 0.000864196 -0.000680495 0.000389717 0.000782917 0.00253968 -0.000289856 0.00596491 9.48688e-05 -0.00070218
internal_weight=5009 4856 3614 697 153 648 2917 603 562 252 138 114 1423 826
internal_count=5009 4856 3614 697 153 648 2917 603 562 252 138 114 1423 826
is_linear=0
shrinkage=0.05


Tree=10
num_leaves=15
num_cat=0
split_feature=0 0 5 3 2 5 5 1 2 1 2 0 0 5
split_gain=4.73767 1.54082 1.49347 1.18311 1.36239 1.09817 0.976032 0.908531 0.612863 0.548456 0.608865 0.502671 0.957564 0.497549
threshold=7.3500000000000005 10.450000000000001 2.5833333333333335 6.9863636363636372 -0.50909090909090826 10.16666666666667 1.1666666666666667 1.0000000180025095e-35 -0.05909090909090952 1.0000000180025095e-35 0.94090909090909103 7.8500000000000005 8.5500000000000025 3.5833333333333335
decision_type=2 2 10 2 2 8 8 2 2 2 2 2 2 10
left_child=2 3 -1 4 -2 -3 -6 -4 -5 10 -10 -11 -13 -8
right_child=1 5 7 8 6 -7 13 -9 9 11 -12 12 -14 -15
leaf_value=-0.078056935543927064 -0.049540007506972232 0.1609195094012501 -0.032263448216531952 -0.2398668646275553 0.077453904716873939 0.15722212966632335 0.077148497546120298 0.041115000720776868 0.17351716101710313 -0.098975341292004998 -0.098404012322036882 0.24022940159721151 0.15299533592879103 0.14667401401484589
leaf_weight=2874 113 107 647 54 31 31 97 636 30 37 122 42 81 116
leaf_count=2874 113 107 647 54 31 31 97 636 30 37 122 42 81 116
internal_value=-0.000536071 0.00283972 -0.00123527 0.00191563 0.00396358 0.00768116 0.00606557 0.000183163 -8.19684e-05 0.00076923 -0.00138158 0.0028125 0.00434959 0.00485915
internal_weight=5018 861 4157 723 357 138 244 1283 366 312 152 160 123 213
internal_count=5018 861 4157 723 357 138 244 1283 366 312 152 160 123 213
is_linear=0
shrinkage=0.05


Tree=11
num_leaves=15
num_cat=0
split_feature=0 5 0 5 4 1 5 2 4 4 0 2 5 4
split_gain=3.91854 1.72195 1.62497 1.26245 1.0704 0.921603 0.459431 0.85861 0.687434 0.777546 0.628126 0.559783 0.415994 0.485666
threshold=9.7500000000000018 10.16666666666667 6.5500000000000007 0.58333333333333337 6.7500000000000009 1.0000000180025095e-35 2.8333333333333335 1.2636363636363634 5.5227272727272743 5.7363636363636372 7.3500000000000005 1.7181818181818185 6.8333333333333348 6.6590909090909101
decision_type=2 8 2 10 2 2 8 2 2 2 2 2 10 2
left_child=2 -2 3 -1 5 -4 7 10 -8 -10 -7 -11 -5 -14
right_child=1 -3 4 12 -6 6 8 -9 9 11 -12 -13 13 -15
leaf_value=-0.19283642343867141 0.13823732193901642 0.19425638755583718 7.289983858575213e-05 -0.040489958329153537 -0.017607761144666688 0.0062668713230696451 0.17029461032629217 -0.048563923302589698 -0.054702524346917074 0.10846126584548157 0.13018631675358819 0.22032540087218477 0.14131801164941979 -0.010589329257166059
leaf_weight=1127 128 37 382 2343 473 68 49 101 32 106 50 31 50 41
leaf_count=1127 128 37 382 2343 473 68 49 101 32 106 50 31 50 41
internal_value=-0.000456358 0.00712121 -0.000713993 -0.0012651 0.000804952 0.00189866 0.00346682 0.00184931 0.00509174 0.00357988 0.00474576 0.00521898 -0.000624488 0.00269231
internal_weight=5018 165 4853 3561 1292 819 437 219 218 169 118 137 2434 91
internal_count=5018 165 4853 3561 1292 819 437 219 218 169 118 137 2434 91
is_linear=0
shrinkage=0.05


Tree=12
num_leaves=15
num_cat=0
split_feature=0 0 4 3 3 0 1 3 0 0 3 4 3 3
split_gain=3.57193 1.58561 1.29313 1.2383 0.933001 0.757185 0.824691 0.750365 0.745725 0.800159 0.680556 0.488198 1.27227 1.34153
threshold=9.7500000000000018 5.4500000000000011 6.7409090909090912 8.0181818181818194 9.3500000000000014 7.2500000000000009 1.0000000180025095e-35 7.0954545454545466 8.5500000000000025 7.8500000000000005 9.8681818181818191 5.5409090909090919 6.2681818181818194 5.9954545454545469
decision_type=2 2 2 2 2 2 2 2 2 2 2 2 2 2
left_child=1 -1 5 -2 -5 11 7 -7 9 -8 -6 12 13 -3
right_child=3 2 -4 4 10 6 8 -9 -10 -11 -12 -13 -14 -15
leaf_value=-0.09614021875037522 0.17913917171224972 0.043430157098686362 -0.031104219921122112 -0.0070506629429400881 0.30166396632606857 0.041338833917760581 0.064296141644278521 -0.10310416057709415 -0.010746773003833641 0.26509741930109171 0.093517241984974631 -0.012608799098884025 -0.030899947713506199 0.17371150550995768
leaf_weight=2032 38 109 1050 55 36 134 144 97 63 56 36 988 138 42
leaf_count=2032 38 109 1050 55 36 134 144 97 63 56 36 988 138 42
internal_value=-0.000416502 -0.000662478 0.000104572 0.00681818 0.00444882 0.000928853 0.00259109 0.000411254 0.0045057 0.006 0.00819444 0.000285825 0.00209342 0.0052649
internal_weight=5018 4853 2821 165 127 1771 494 231 263 200 72 1277 289 151
internal_count=5018 4853 2821 165 127 1771 494 231 263 200 72 1277 289 151
is_linear=0
shrinkage=0.05


Tree=13
num_leaves=15
num_cat=0
split_feature=0 5 5 4 0 0 5 4 2 2 5 2 4 3
split_gain=3.50339 1.83355 1.69189 0.871213 0.710757 0.559995 0.720798 0.699179 0.793182 0.740232 0.596186 1.0234 0.516272 0.47451
threshold=9.7500000000000018 10.16666666666667 0.83333333333333337 7.0045454545454549 5.4500000000000011 7.2500000000000009 5.416666666666667 5.4000000000000012 0.81363636363636405 2.2818181818181831 5.8333333333333348 0.40454545454545437 8.1954545454545471 6.3545454545454545
decision_type=2 8 10 2 2 2 10 2 2 2 10 2 2 2
left_child=2 -2 4 5 -1 6 -4 -7 13 -10 -8 -12 -5 -9
right_child=1 -3 3 12 -6 7 10 8 9 -11 11 -13 -14 -15
leaf_value=-0.20741840870740408 0.12693665869334692 0.17558660959243289 -0.0023244597521665088 -0.062659113332110036 -0.029364752174246361 0.17512289087399144 0.27742058858443647 0.0062031188652085373 -0.049162262044487773 0.12777730556146513 -0.012627424210050267 0.148996187629517 0.0090768306930931152 0.17720027252644246
leaf_weight=981 128 37 1607 637 625 46 31 68 170 58 88 64 376 102
leaf_count=981 128 37 1607 637 625 46 31 68 170 58 88 64 376 102
internal_value=-0.000346753 0.00681818 -0.000590358 6.62138e-05 -0.00191781 0.000617725 0.000223462 0.00220721 0.00153266 -0.000394738 0.00319672 0.00190789 -0.00115005 0.00411765
internal_weight=5018 165 4853 3247 1606 2234 1790 444 398 228 183 152 1013 170
internal_count=5018 165 4853 3247 1606 2234 1790 444 398 228 183 152 1013 170
is_linear=0
shrinkage=0.05


Tree=14
num_leaves=15
num_cat=0
split_feature=0 5 5 4 0 4 5 0 0 4 2 2 4 4
split_gain=3.44517 1.83355 1.46111 0.823242 0.559995 0.699179 0.594411 0.552758 0.546165 0.529661 0.79073 0.791741 0.482166 0.472684
threshold=9.7500000000000018 10.16666666666667 0.83333333333333337 7.0045454545454549 7.2500000000000009 5.4000000000000012 5.416666666666667 5.4500000000000011 8.5500000000000025 5.6681818181818189 1.900000000000001 1.2363636363636361 8.1954545454545471 9.3500000000000014
decision_type=2 8 10 2 2 2 10 2 2 2 2 2 2 2
left_child=2 -2 7 4 6 -6 -4 -1 9 -7 11 -11 -5 -14
right_child=1 -3 3 12 5 8 -8 -9 -10 10 -12 -13 13 -15
leaf_value=-0.19704748827203386 0.12058982575867955 0.16680727911281124 -0.0022082367645581704 -0.059526157665504544 0.16636674633029186 -0.063884986301732866 0.078311420138040294 -0.027896514565534034 -0.042676052138276632 0.084568897196857118 0.088739150622669183 -0.13673408217100549 0.019349144137427304 -0.063177663253322511
leaf_weight=981 128 37 1607 637 46 59 183 625 103 165 31 40 262 114
leaf_count=981 128 37 1607 637 46 59 183 625 103 165 31 40 262 114
internal_value=-0.000286968 0.00681818 -0.00052854 8.16126e-05 0.000617725 0.00220721 0.000223462 -0.00176214 0.00153266 0.00262712 0.00368644 0.00256097 -0.00110069 0.000319148
internal_weight=5018 165 4853 3247 2234 444 1790 1606 398 295 236 205 1013 376
internal_count=5018 165 4853 3247 2234 444 1790 1606 398 295 236 205 1013 376
is_linear=0
shrinkage=0.05


Tree=15
num_leaves=15
num_cat=0
split_feature=5 3 5 1 5 4 3 4 3 2 5 4 3 3
split_gain=1.89617 1.42805 1.22013 0.909658 0.881055 0.711385 0.577128 1.04479 0.538801 0.459832 0.453615 0.445293 0.425773 0.578394
threshold=1.4166666666666667 8.8772727272727305 9.1666666666666696 1.0000000180025095e-35 7.5833333333333348 6.7227272727272736 5.6500000000000012 5.4136363636363649 5.7500000000000009 2.9863636363636363 10.16666666666667 5.3136363636363644 8.2681818181818212 8.0818181818181838
decision_type=8 2 8 2 10 2 2 2 2 2 8 2 2 2
left_child=9 3 -3 10 6 -6 -5 11 -9 -1 -2 -8 13 -10
right_child=1 2 -4 4 5 -7 7 8 12 -11 -12 -13 -14 -15
leaf_value=-0.081369570646898925 -0.0061041877379026093 0.073554322946219969 0.15094534342884308 -0.027026094216114117 0.14036609406304398 -0.0023953937098726719 0.082933875602839269 0.19358571151064227 0.016641065345475881 0.16411363311589514 -0.13724862350726585 0.18852728230529858 -0.12424664730397726 0.13203262644782601
leaf_weight=2033 1186 159 36 282 60 31 47 44 765 31 216 38 47 49
leaf_count=2033 1186 159 36 282 60 31 47 44 765 31 216 38 47 49
internal_value=-0.000203027 0.000608107 0.00474359 0.000316455 0.00123624 0.00598901 0.000896225 0.00146465 0.00096685 -0.00136628 -0.000577747 0.0067647 0.000691056 0.00095823
internal_weight=5024 2960 195 2765 1363 91 1272 990 905 2064 1402 85 861 814
internal_count=5024 2960 195 2765 1363 91 1272 990 905 2064 1402 85 861 814
is_linear=0
shrinkage=0.05


Tree=16
num_leaves=15
num_cat=0
split_feature=5 1 5 2 2 2 5 4 2 2 1 5 3 3
split_gain=1.73745 1.3976 1.31673 0.912194 0.878177 0.659952 0.905383 0.414733 0.371711 0.315431 0.38802 0.430908 0.490824 0.50346
threshold=7.5833333333333348 1.0000000180025095e-35 0.83333333333333337 -0.45000000000000012 0.98636363636363644 2.913636363636364 2.5833333333333335 4.8045454545454556 -1.0000000180025095e-35 -1.2090909090909092 1.0000000180025095e-35 6.8333333333333348 5.6954545454545462 5.8227272727272732
decision_type=10 2 8 2 2 2 10 2 2 2 2 8 2 2
left_child=2 8 -1 9 -3 7 -7 -5 -2 10 -4 12 -12 -14
right_child=1 4 3 5 -6 6 -8 -9 -10 -11 11 -13 13 -15
leaf_value=-0.083126635326087203 0.17558489537102334 0.092048446227099845 -0.062813370114037939 0.12798994490721052 0.19509112794072636 0.092395053974159175 0.030815107633370833 0.0054097570189850386 -0.018421139548828649 -0.065987461120139881 -0.1091497255244188 0.072105825907180079 0.13834827284610307 0.019213189138767243
leaf_weight=1256 31 62 440 37 54 38 72 1948 78 610 133 30 37 198
leaf_count=1256 31 62 440 37 54 38 72 1948 78 610 133 30 37 198
internal_value=-0.000183122 0.00411111 -0.000384456 0.000108664 0.00793103 0.000775655 0.00454545 0.000566749 4.58704e-05 -0.000856355 -0.000226732 0.000904521 0.000434781 0.00180851
internal_weight=5024 225 4799 3543 116 2095 110 1985 109 1448 838 398 368 235
internal_count=5024 225 4799 3543 116 2095 110 1985 109 1448 838 398 368 235
is_linear=0
shrinkage=0.05


Tree=17
num_leaves=15
num_cat=0
split_feature=5 5 1 2 5 2 1 3 2 2 5 4 5 2
split_gain=1.74124 1.33662 1.3976 0.882561 0.905383 0.878177 0.603043 0.667178 0.371711 0.349701 0.330509 0.32827 0.321345 0.33353
threshold=0.83333333333333337 7.5833333333333348 1.0000000180025095e-35 2.913636363636364 2.5833333333333335 0.98636363636363644 1.0000000180025095e-35 5.4772727272727275 -1.0000000180025095e-35 -0.86363636363636365 4.8333333333333348 8.1954545454545471 3.8333333333333335 -1.2090909090909092
decision_type=8 10 2 2 10 2 2 2 2 2 10 2 10 2
left_child=-1 3 8 6 -5 -4 9 -8 -3 10 12 -11 13 -2
right_child=1 2 5 4 -6 -7 7 -9 -10 11 -12 -13 -14 -15
leaf_value=-0.078970303559782851 -0.058816099649921939 0.16680565060247213 0.087446023915744853 0.087775301275451176 0.029274352251702274 0.18533657154369004 -0.12045932713334997 0.018416822224959196 -0.017500082571387177 -0.013373643757872819 -0.11233056067187552 0.098602773774497998 0.045892055479135697 -0.10418544692402819
leaf_weight=1256 342 31 62 38 72 54 202 1492 78 1138 66 30 54 109
leaf_count=1256 342 31 62 38 72 54 202 1492 78 1138 66 30 54 109
internal_value=-0.000163218 0.000374203 0.00411111 0.000136888 0.00454545 0.00793103 -4.37055e-06 0.000667059 4.58704e-05 -0.000658426 -0.00167251 -0.000162672 -0.00123762 -0.00167406
internal_weight=5024 3768 225 3543 110 116 3433 1694 109 1739 571 1168 505 451
internal_count=5024 3768 225 3543 110 116 3433 1694 109 1739 571 1168 505 451
is_linear=0
shrinkage=0.05


Tree=18
num_leaves=15
num_cat=0
split_feature=5 3 5 4 1 5 4 2 1 5 4 4 3 3
split_gain=1.72803 1.43974 1.22013 0.70226 0.500498 0.710796 0.577626 0.44884 0.424741 0.41549 0.436683 0.512121 0.376947 0.428041
threshold=1.4166666666666667 8.8772727272727305 9.1666666666666696 5.4136363636363649 1.0000000180025095e-35 7.5833333333333348 6.7227272727272736 2.9863636363636363 1.0000000180025095e-35 5.166666666666667 5.3681818181818191 4.8045454545454556 8.2681818181818212 8.0818181818181838
decision_type=8 2 8 2 2 10 2 2 2 10 2 2 2 2
left_child=7 3 8 9 -5 12 -7 -1 -3 10 11 -2 13 -6
right_child=1 2 -4 4 5 6 -8 -9 -10 -11 -12 -13 -14 -15
leaf_value=-0.072026123632707065 0.15824394296412103 -0.0051682916874073491 0.134578430589674 -0.021473923001346259 0.010660146779043025 0.10377400177167871 -0.011250347531521276 0.14689944593805213 0.11110322218742315 0.12487170237280798 0.15135059491178912 -0.015780664206261178 -0.11922564390097559 0.12410163263187844
leaf_weight=2033 30 77 36 1295 1042 52 31 31 82 40 44 135 47 49
leaf_count=2033 30 77 36 1295 1042 52 31 31 82 40 44 135 47 49
internal_value=-0.000183122 0.000591215 0.00474359 0.000298371 4.76936e-05 0.000773955 0.00524096 -0.00129361 0.00286163 0.00283132 0.0019378 0.000757575 0.000448153 0.000637029
internal_weight=5024 2960 195 2765 2516 1221 83 2064 159 249 209 165 1138 1091
internal_count=5024 2960 195 2765 2516 1221 83 2064 159 249 209 165 1138 1091
is_linear=0
shrinkage=0.05


Tree=19
num_leaves=15
num_cat=0
split_feature=0 0 4 5 5 3 4 4 0 4 5 5 0 3
split_gain=3.80995 1.65308 0.994297 0.790326 0.755804 0.617145 0.804789 0.565097 0.509661 0.453186 0.445637 0.43194 0.702393 0.43188
threshold=10.450000000000001 5.5500000000000007 5.4000000000000012 0.83333333333333337 9.1666666666666696 6.2545454545454566 5.3136363636363644 6.9863636363636372 6.0500000000000007 6.077272727272728 2.8333333333333335 7.8333333333333348 8.1500000000000004 5.5409090909090919
decision_type=2 2 2 10 8 2 2 2 2 2 8 8 2 2
left_child=1 3 5 -1 7 8 -7 9 -3 -2 -8 13 -13 -4
right_child=4 2 11 -5 -6 6 10 -9 -10 -11 -12 12 -14 -15
leaf_value=-0.17142048220015838 0.10626621836825836 0.0808409484037384 0.020230683175800894 -0.016819191887325145 0.13827843011875826 -0.044193556607372259 0.021142087381114089 0.20104292289486253 0.16627471065093291 -0.064464071009359344 0.11123624661412097 0.037281079917496573 0.15081446763702711 -0.0064227349565544245
leaf_weight=1077 34 37 98 1260 40 60 31 35 40 30 30 205 32 2015
leaf_count=1077 34 37 98 1260 40 60 31 35 40 30 30 205 32 2015
internal_value=-0.000212979 -0.000445242 0.000435635 -0.00140565 0.00794964 0.00383838 0.00161157 0.00560606 0.00733766 0.0028125 0.00565574 0.000148935 0.00217299 -7.80892e-05
internal_weight=5024 4885 2548 2337 139 198 121 99 77 64 61 2350 237 2113
internal_count=5024 4885 2548 2337 139 198 121 99 77 64 61 2350 237 2113
is_linear=0
shrinkage=0.05


Tree=20
num_leaves=15
num_cat=0
split_feature=0 0 5 2 5 5 4 5 2 1 0 5 4 2
split_gain=4.18156 1.46584 0.778479 1.12629 0.70135 0.676106 0.644394 0.72693 0.627832 0.528625 0.601854 0.828683 0.469444 0.653333
threshold=10.450000000000001 4.9500000000000011 7.8333333333333348 -1.4500000000000004 9.1666666666666696 1.0000000180025095e-35 6.8590909090909102 0.41666666666666669 -0.65454545454545376 1.0000000180025095e-35 6.1500000000000012 10.41666666666667 5.4772727272727275 0.56363636363636405
decision_type=2 2 8 2 8 10 2 10 2 2 2 8 2 2
left_child=1 5 6 -4 -2 -1 7 -3 -5 -10 -11 -12 13 -7
right_child=4 2 3 8 -6 12 -8 -9 9 10 11 -13 -14 -15
leaf_value=-0.19363775002469807 0.11392428433165558 -0.069998663388689639 0.1482128439592183 -0.068889411381409346 0.13568340344990212 0.13715054190984954 -0.032345951565543186 0.014093487982944772 -0.0066587212967490735 0.020395275868859197 -0.014847018917985203 0.20603468086854329 -0.06072211836860647 -0.019264777694478298
leaf_weight=386 109 344 49 50 40 30 1154 1887 127 64 34 50 640 50
leaf_count=386 109 344 49 50 40 30 1154 1887 127 64 34 50 640 50
internal_value=-0.000163543 -0.00041624 5.45346e-05 0.00221925 0.00808725 -0.00201628 -0.000184639 0.000311518 0.00115384 0.00209091 0.00412162 0.00690476 -0.00111111 0.0025
internal_weight=5014 4865 3759 374 149 1106 3385 2231 325 275 148 84 720 80
internal_count=5014 4865 3759 374 149 1106 3385 2231 325 275 148 84 720 80
is_linear=0
shrinkage=0.05


Tree=21
num_leaves=15
num_cat=0
split_feature=0 0 5 5 4 5 4 4 0 2 0 0 0 2
split_gain=3.84834 1.48473 0.786936 0.780658 0.802397 0.676106 0.549878 0.614291 0.490996 0.486398 1.16664 0.391919 0.350422 0.874848
threshold=10.450000000000001 4.9500000000000011 9.1666666666666696 0.83333333333333337 5.245454545454546 1.0000000180025095e-35 6.9863636363636372 6.077272727272728 6.1500000000000012 2.0863636363636364 5.5500000000000007 6.9500000000000011 6.5500000000000007 1.2136363636363641
decision_type=2 2 8 8 2 10 2 2 2 2 2 2 2 2
left_child=1 5 6 12 8 -1 7 -2 -5 -6 -11 -12 -3 -14
right_child=2 3 -4 4 9 -7 -8 -9 -10 10 11 -13 13 -15
leaf_value=-0.18395586252346316 0.10683512255777593 -0.064793273407277849 0.12889923327740704 0.025496205750720136 0.0028540460964407398 -0.024603545245841643 0.18529456253353663 -0.026833741273636393 0.16263047171809897 0.068951672680065898 -0.027994579882241095 0.099486991444793449 0.036296751251703348 -0.12364240422690631
leaf_weight=386 41 612 40 46 2649 720 35 33 43 30 94 118 97 70
leaf_count=386 41 612 40 46 2649 720 35 33 43 30 94 118 97 70
internal_value=-0.000163543 -0.000405962 0.00775168 6.7836e-05 0.00043624 -0.00201628 0.00555046 0.00310811 0.00511236 0.000292285 0.00243802 0.00113207 -0.00134146 0.000688622
internal_weight=5014 4865 149 3759 2980 1106 109 74 89 2891 242 212 779 167
internal_count=5014 4865 149 3759 2980 1106 109 74 89 2891 242 212 779 167
is_linear=0
shrinkage=0.05


Tree=22
num_leaves=15
num_cat=0
split_feature=5 2 5 2 4 4 5 2 3 5 2 3 2 5
split_gain=1.56083 1.11294 0.913479 0.774687 0.619268 0.577378 0.970197 0.533054 0.50949 0.777244 0.778162 0.45868 0.422486 0.421156
threshold=0.58333333333333337 -0.14545454545454503 10.583333333333334 2.913636363636364 5.5045454545454549 5.8954545454545464 3.4166666666666674 -0.09090909090909037 5.6500000000000012 7.5833333333333348 -1.6272727272727272 5.8045454545454556 -0.78181818181818208 1.8333333333333337
decision_type=8 2 10 2 2 2 8 2 2 8 2 2 2 10
left_child=-1 8 3 4 -3 6 -5 -6 -2 11 -11 12 -10 -13
right_child=1 2 -4 5 7 -7 -8 -9 9 10 -12 13 -14 -15
leaf_value=-0.11572140904897198 -0.062432130808335963 0.052775856822435421 0.046574136493118458 0.18901968050399687 0.12276407871594551 0.15977545474367283 -0.10710015730727969 -0.0032599525391245826 0.052644173250678251 0.14500480713650313 0.010845066177779028 -0.06832469038372592 -0.047237748324934582 -0.0028462016047251081
leaf_weight=912 729 458 36 41 36 56 40 1444 123 47 65 373 59 595
leaf_count=912 729 458 36 41 36 56 40 1444 123 47 65 373 59 595
internal_value=-0.000223376 0.000192588 0.000992419 0.00085542 0.000598554 0.00448905 0.00179012 0.00010135 -0.000655451 -4.75448e-05 0.00392857 -0.000434784 0.00186813 -0.00086777
internal_weight=5014 4102 2111 2075 1938 137 81 1480 1991 1262 112 1150 182 968
internal_count=5014 4102 2111 2075 1938 137 81 1480 1991 1262 112 1150 182 968
is_linear=0
shrinkage=0.05


Tree=23
num_leaves=15
num_cat=0
split_feature=0 3 0 0 5 5 3 3 1 5 0 3 3 3
split_gain=3.05149 1.52447 1.34194 0.835059 0.704572 0.576343 0.49637 0.460642 0.44435 0.45748 0.855201 0.431417 0.377573 0.529917
threshold=9.7500000000000018 8.0181818181818194 4.9500000000000011 11.450000000000001 0.83333333333333337 1.0000000180025095e-35 5.2909090909090919 9.9954545454545478 1.0000000180025095e-35 10.41666666666667 6.4500000000000011 5.4954545454545469 8.9590909090909108 8.1954545454545471
decision_type=2 2 2 2 8 10 2 2 2 8 2 2 2 2
left_child=2 -2 5 -3 -4 -1 -6 -5 12 -10 -11 -7 13 -8
right_child=1 3 4 7 6 11 8 -9 9 10 -12 -13 -14 -15
leaf_value=-0.17739686223841178 0.18338779491918078 -0.07866070666829772 -0.050367061806904145 0.22094366227102144 0.10158698241439623 -0.16307889162448716 -0.011246977972786901 0.020725498606994176 0.013302574509044804 0.0015926835965087748 0.18592494860249151 -0.002797104456979449 -0.14305862730603208 0.077496857325351776
leaf_weight=386 37 31 773 72 42 194 1325 33 1353 75 51 526 43 73
leaf_count=386 37 31 773 72 42 194 1325 33 1353 75 51 526 43 73
internal_value=-0.000253292 0.00627168 -0.000486471 0.00382353 -3.34684e-05 -0.00201628 0.000317352 0.00595238 0.000239725 0.000848545 0.00373016 -0.00118056 -0.00038515 -0.000243206
internal_weight=5014 173 4841 136 3735 1106 2962 105 2920 1479 126 720 1441 1398
internal_count=5014 173 4841 136 3735 1106 2962 105 2920 1479 126 720 1441 1398
is_linear=0
shrinkage=0.05


Tree=24
num_leaves=15
num_cat=0
split_feature=0 3 0 0 4 3 2 3 3 3 3 2 4 4
split_gain=2.76047 1.18577 1.18158 0.594943 1.11104 0.566251 0.620824 0.543094 0.698962 0.504034 0.448776 0.587778 0.739231 0.429692
threshold=9.7500000000000018 8.0181818181818194 4.9500000000000011 6.5500000000000007 5.4000000000000012 6.9863636363636372 -0.35909090909090885 9.1818181818181834 9.8681818181818191 7.1818181818181825 7.9409090909090922 1.031818181818182 8.2863636363636388 5.6681818181818189
decision_type=2 2 2 2 2 2 2 2 2 2 2 2 2 2
left_child=2 -2 -1 -4 9 6 -6 -3 -9 -5 -7 12 -12 -8
right_child=1 7 3 4 5 10 13 8 -10 -11 11 -13 -14 -15
leaf_value=-0.093453530870746704 0.17421840517322174 -0.010751073495631482 -0.015302424388784132 0.16904268179761503 -0.0035274703826876242 -0.062531133233389879 -0.0031467850712121794 0.20689190276688812 0.030985684269483352 0.072390148910622745 0.2267369421185344 -0.0085878424056409254 -0.06859017288611674 0.094848001701185319
leaf_weight=1106 37 52 2444 62 281 233 94 45 39 33 39 225 36 288
leaf_count=1106 37 52 2444 62 281 233 94 45 39 33 39 225 36 288
internal_value=-0.000223376 0.00598266 -0.000445157 -2.00815e-05 0.000848179 0.000434781 0.00141026 0.00382353 0.00630952 0.00605263 -0.000778613 0.000499999 0.00433333 0.00272251
internal_weight=5014 173 4841 3735 1291 1196 663 136 84 95 533 300 75 382
internal_count=5014 173 4841 3735 1291 1196 663 136 84 95 533 300 75 382
is_linear=0
shrinkage=0.05


Tree=25
num_leaves=15
num_cat=0
split_feature=0 0 5 4 5 5 4 0 4 3 0 3 3 0
split_gain=2.12706 1.05303 0.967578 0.75617 0.662898 0.567035 0.641188 0.613335 0.47437 0.892313 0.413134 0.678407 0.832858 0.550899
threshold=9.7500000000000018 4.9500000000000011 2.5833333333333335 6.8590909090909102 1.0000000180025095e-35 5.166666666666667 5.4000000000000012 6.1500000000000012 6.3227272727272732 6.6500000000000012 6.5500000000000007 7.0136363636363646 6.8772727272727279 6.9500000000000011
decision_type=2 2 10 2 10 8 2 2 2 2 2 2 2 2
left_child=1 4 -2 5 -1 10 7 -7 -8 -10 -3 12 13 -12
right_child=2 3 -4 -5 -6 6 8 -9 9 -11 11 -13 -14 -15
leaf_value=-0.16315996332614172 0.11437296388178067 -0.014463490812128469 0.090711771061832591 -0.028212646106234668 -0.051517060083762924 0.024936784467485557 0.0014272059429074162 0.14535990372055865 0.22042596603447673 -0.030179385965773287 0.19471460301982693 -0.011217728092974062 0.21185495718654904 0.010033903526440456
leaf_weight=395 30 1380 142 1241 712 42 306 34 51 40 58 299 33 258
leaf_count=395 30 1380 142 1241 712 42 306 34 51 40 58 299 33 258
internal_value=-0.000289784 -0.000483606 0.00517442 -8.28446e-05 -0.0018383 0.000417832 0.00197674 0.00618421 0.00117128 0.00434066 5.42394e-05 0.00109568 0.00259312 0.0018038
internal_weight=5021 4849 172 3742 1107 2501 473 76 397 91 2028 648 349 316
internal_count=5021 4849 172 3742 1107 2501 473 76 397 91 2028 648 349 316
is_linear=0
shrinkage=0.05


Tree=26
num_leaves=15
num_cat=0
split_feature=0 0 4 5 5 3 4 5 3 0 0 5 1 0
split_gain=1.91411 1.06629 1.0831 1.03776 0.69927 0.598999 0.740379 0.799095 0.338562 0.321623 0.412583 0.407102 0.387269 0.362825
threshold=9.7500000000000018 5.5500000000000007 4.8045454545454556 2.5833333333333335 1.0000000180025095e-35 5.5409090909090919 5.5409090909090919 5.166666666666667 7.7954545454545459 6.5500000000000007 6.7500000000000009 1.1666666666666667 1.0000000180025095e-35 8.9500000000000011
decision_type=2 2 2 10 10 2 2 10 2 2 2 10 2 2
left_child=1 4 -3 -2 -1 -4 7 8 -7 -8 12 -12 -11 -13
right_child=3 2 5 -5 -6 6 9 -9 -10 10 11 13 -14 -15
leaf_value=-0.13731626852841017 0.10865431568769163 0.17831521327566316 0.047538053305066191 0.086176182508740984 -0.017855938611100557 0.024170441008385495 -0.04354632341886161 0.13313025248351856 -0.097389537987132416 -0.0037173170103426399 0.029401414257555183 -0.0036142007615433606 0.17318633282566864 -0.1954151254483466
leaf_weight=611 30 31 116 142 1713 228 968 45 56 38 238 724 36 45
leaf_count=611 30 31 116 142 1713 228 968 45 56 38 238 724 36 45
internal_value=-0.000299742 -0.000483606 0.000227722 0.00488372 -0.00125646 0.000112268 -5.88742e-05 0.00214286 0.00116197 -0.000412397 0.000180387 -8.44103e-05 0.00378378 -0.000643694
internal_weight=5021 4849 2525 172 2324 2494 2378 329 284 2049 1081 1007 74 769
internal_count=5021 4849 2525 172 2324 2494 2378 329 284 2049 1081 1007 74 769
is_linear=0
shrinkage=0.05


Tree=27
num_leaves=15
num_cat=0
split_feature=0 0 5 5 4 4 3 3 3 0 4 5 5 0
split_gain=1.91411 1.05303 1.03776 0.662898 0.640217 0.644956 0.439219 1.10966 0.729021 0.596027 0.767148 0.705713 0.538883 0.699194
threshold=9.7500000000000018 4.9500000000000011 2.5833333333333335 1.0000000180025095e-35 6.8590909090909102 6.8227272727272732 8.5727272727272759 8.9454545454545471 7.8409090909090917 6.5500000000000007 5.4000000000000012 5.416666666666667 0.83333333333333337 7.2500000000000009
decision_type=2 2 10 10 2 2 2 2 2 2 2 10 8 2
left_child=1 3 -2 -1 5 6 8 -8 9 11 -11 -3 13 -12
right_child=2 4 -4 -5 -6 -7 7 -9 -10 10 12 -13 -14 -15
leaf_value=-0.1481361517334141 0.10322159990330704 -0.011981861008143175 0.081867373383303965 -0.048048410149019713 -0.025460129123519078 0.15836589968055809 0.17913720409097394 -0.0077636818363446686 -0.064253051455607377 0.16675911239302027 -0.013318445057133777 0.1038367598445912 0.0075998621335828815 0.08176229483600031
leaf_weight=395 30 1348 142 712 1241 38 35 72 312 79 30 93 462 32
leaf_count=395 30 1348 142 712 1241 38 35 72 312 79 30 93 462 32
internal_value=-0.000299742 -0.000483606 0.00488372 -0.0018383 -8.28446e-05 0.000377848 0.000278115 0.00341121 0.000135822 0.000479451 0.00179934 -7.28673e-05 0.00110687 0.00548387
internal_weight=5021 4849 172 1107 3742 2501 2463 107 2356 2044 603 1441 524 62
internal_count=5021 4849 172 1107 3742 2501 2463 107 2356 2044 603 1441 524 62
is_linear=0
shrinkage=0.05


Tree=28
num_leaves=15
num_cat=0
split_feature=5 3 1 5 2 4 2 3 3 4 3 2 2 3
split_gain=1.14676 0.869925 0.875787 1.34228 1.14461 0.582558 0.751736 0.488785 0.4836 0.429506 0.360833 0.354139 0.538782 0.326591
threshold=1.0000000180025095e-35 5.6409090909090915 1.0000000180025095e-35 6.8333333333333348 2.3727272727272726 5.5227272727272743 2.9863636363636363 6.0318181818181831 7.8409090909090917 5.6409090909090915 5.5409090909090919 0.72727272727272807 0.50909090909090848 5.7500000000000009
decision_type=8 2 2 8 2 2 2 2 2 2 2 2 2 2
left_child=-1 10 -3 5 7 8 9 -5 11 -7 -2 12 -4 -11
right_child=1 2 3 4 -6 6 -8 -9 -10 13 -12 -13 -14 -15
leaf_value=-0.13885223547068493 -0.042211260453722754 -0.013664414908609288 0.23624529095105948 0.097346181492828351 0.15140390207096588 -0.10573439484658698 0.1894397867495714 0.044296379072148728 -0.054883409121511732 0.060707050280191389 -0.071701414838654956 0.15761387158390835 -0.047630484776579114 -0.0013922391389132966
leaf_weight=507 715 1785 30 53 37 61 49 170 37 79 202 106 48 1142
leaf_count=507 715 1785 30 53 37 61 49 170 37 79 202 106 48 1142
internal_value=-0.000279826 -2.65852e-05 0.00032388 0.00109823 0.00442308 0.000541236 0.000146505 0.00307175 0.00291855 -8.58046e-05 -0.00140131 0.00396739 0.00141026 0.000118754
internal_weight=5021 4514 3597 1812 260 1552 1331 223 221 1282 917 184 78 1221
internal_count=5021 4514 3597 1812 260 1552 1331 223 221 1282 917 184 78 1221
is_linear=0
shrinkage=0.05


Tree=29
num_leaves=15
num_cat=0
split_feature=0 0 5 4 2 5 0 0 0 4 4 2 0 2
split_gain=1.8848 1.06138 1.03776 0.842331 0.588259 0.587918 0.513061 0.377291 0.341807 0.254546 0.542933 0.734212 0.37921 0.348573
threshold=9.7500000000000018 5.5500000000000007 2.5833333333333335 5.4954545454545469 2.5000000000000004 1.0000000180025095e-35 7.5500000000000007 9.0500000000000025 5.8500000000000005 6.7409090909090912 6.6772727272727286 0.20909090909090858 8.6500000000000004 0.75454545454545541
decision_type=2 2 10 2 2 10 2 2 2 2 2 2 2 2
left_child=1 5 -2 4 6 -1 8 9 -3 10 -5 -12 13 -11
right_child=2 3 -4 7 -6 -7 -8 -9 -10 12 11 -13 -14 -15
leaf_value=-0.1212141385632485 0.098682380198981304 0.071273933698093789 0.077904979612702818 0.0028830857766587352 -0.078910383246444893 -0.018670908133850476 0.15326333659139224 -0.22496530434671846 0.065923311534035842 -0.02021497172610669 0.14089527008516334 -0.13671954172246373 0.1927932930668487 -0.090510781788843364
leaf_weight=611 30 59 142 1208 51 1713 39 38 139 790 49 30 53 69
leaf_count=611 30 59 142 1208 51 1713 39 38 139 790 49 30 53 69
internal_value=-0.00025991 -0.00044236 0.00488372 0.000267326 0.0028125 -0.00121343 0.00386076 -6.03499e-05 0.00282828 2.50102e-05 0.000477854 0.00449367 -0.000614036 -0.000867289
internal_weight=5021 4849 172 2525 288 2324 237 2237 198 2199 1287 79 912 859
internal_count=5021 4849 172 2525 288 2324 237 2237 198 2199 1287 79 912 859
is_linear=0
shrinkage=0.05


Tree=30
num_leaves=15
num_cat=0
split_feature=0 5 2 5 2 2 3 5 2 0 3 2 3 3
split_gain=1.45304 0.874606 0.688203 0.728188 0.514883 0.635051 0.458211 0.435454 0.539371 0.667255 0.403197 0.634132 0.432306 1.12093
threshold=5.3500000000000005 1.0000000180025095e-35 3.2227272727272731 13.750000000000002 -1.2090909090909092 1.1318181818181821 9.6909090909090931 0.83333333333333337 1.8863636363636369 7.3500000000000005 5.5227272727272743 -0.31363636363636432 6.7954545454545459 6.7227272727272736
decision_type=2 10 2 8 2 2 2 10 2 2 2 2 2 2
left_child=1 -1 3 7 -5 -6 -4 8 9 -2 -9 -12 13 -13
right_child=2 -3 6 4 5 -7 -8 10 -10 -11 11 12 -14 -15
leaf_value=-0.12584895623421938 -0.034655437576859294 -0.010093953908396965 0.20111158125429635 0.07466972030484631 -0.003325406140296762 0.069059242542941143 0.0043257184252154671 0.073054228775245311 -0.10992328950427908 0.062465266927828757 -0.024818241500653787 0.037881913994906723 0.00037581110857142766 0.18640414479134534
leaf_weight=521 412 1258 35 32 125 56 57 173 76 50 792 598 751 40
leaf_count=521 412 1258 35 32 125 56 57 173 76 50 792 598 751 40
internal_value=-0.000116561 -0.00126195 0.0005208 0.000394524 0.00321596 0.00218232 0.00478261 0.000186721 -0.00109666 -0.000454547 0.000480033 0.000295735 0.000939524 0.00189655
internal_weight=4976 1779 3197 3105 213 181 92 2892 538 462 2354 2181 1389 638
internal_count=4976 1779 3197 3105 213 181 92 2892 538 462 2354 2181 1389 638
is_linear=0
shrinkage=0.05


Tree=31
num_leaves=15
num_cat=0
split_feature=0 0 5 4 0 0 4 5 0 5 5 5 0 3
split_gain=1.50166 1.00069 0.911272 0.81028 0.76455 0.621723 0.612519 0.812962 0.445906 0.441936 0.345905 0.409916 1.07903 0.507519
threshold=6.5500000000000007 6.6500000000000012 1.0000000180025095e-35 5.4000000000000012 7.5500000000000007 9.7500000000000018 6.1590909090909101 6.5833333333333348 4.1500000000000012 6.5833333333333348 1.1666666666666667 0.83333333333333337 7.0500000000000007 7.7954545454545459
decision_type=2 2 8 2 2 2 2 10 2 10 10 10 2 2
left_child=2 -2 -1 4 -3 10 7 -7 -4 -8 11 13 -13 -5
right_child=1 3 8 5 -6 6 9 -9 -10 -11 -12 12 -14 -15
leaf_value=-0.13291480166202987 0.21623616361278022 0.022776591023080897 -0.16001239767511399 0.03210173808453589 0.13705225779270008 0.21318070546105644 -0.022192068519333391 0.00099686658660242452 -0.0057181953703516926 0.16137850330185766 -0.0033207708318004009 -0.092721676452064195 0.19998275892639039 -0.089096089428211636
leaf_weight=440 39 54 52 120 42 34 52 31 3041 47 872 34 48 70
leaf_count=440 39 54 52 120 42 34 52 31 3041 47 872 34 48 70
internal_value=-0.000156754 0.00120236 -0.000711861 0.000982905 0.00541667 0.000657491 0.00353658 0.00730769 -0.000408989 0.0010606 0.000244754 0.00180147 0.0047561 0.000526315
internal_weight=4976 1443 3533 1404 96 1308 164 65 3093 99 1144 272 82 190
internal_count=4976 1443 3533 1404 96 1308 164 65 3093 99 1144 272 82 190
is_linear=0
shrinkage=0.05


Tree=32
num_leaves=15
num_cat=0
split_feature=5 1 2 4 4 2 5 2 2 5 2 3 5 2
split_gain=0.792554 0.932301 0.567792 0.495307 0.489547 0.585064 1.39893 0.441046 0.475687 0.399351 0.362794 0.317162 0.436273 0.407051
threshold=1.8333333333333337 1.0000000180025095e-35 0.40454545454545437 5.4000000000000012 5.4136363636363649 2.5954545454545461 4.416666666666667 -0.14545454545454503 -0.52727272727272678 1.0000000180025095e-35 0.53181818181818186 6.6045454545454554 2.4166666666666674 -0.040909090909090999
decision_type=8 2 2 2 2 2 8 2 2 10 2 2 8 2
left_child=7 -2 3 -3 -4 10 -7 8 -1 -9 -6 12 -5 -14
right_child=1 2 4 11 5 6 -8 9 -10 -11 -12 -13 13 -15
leaf_value=-0.026186971079567956 -0.0071581760134454518 -0.094312521299518129 0.10786677468854361 -0.042953439609564825 0.051237164991665841 -0.0050845897533128561 0.17065358665091279 -0.11291072887417584 -0.090730046000161602 0.0068635910741661234 0.0095582023717080498 -0.030700614030336016 0.053927985603027785 -0.044039953096385177
leaf_weight=897 1350 39 97 113 31 35 32 246 275 902 337 158 367 97
leaf_count=897 1350 39 97 113 31 35 32 246 275 902 337 158 367 97
internal_value=-0.000186898 0.00040286 0.00135528 0.000490955 0.00261278 0.00189655 0.00619403 -0.00086207 -0.00154437 -0.000165506 0.00111413 0.000782312 0.00132582 0.00200431
internal_weight=4976 2656 1306 774 532 435 67 2320 1172 1148 368 735 577 464
internal_count=4976 2656 1306 774 532 435 67 2320 1172 1148 368 735 577 464
is_linear=0
shrinkage=0.05


Tree=33
num_leaves=15
num_cat=0
split_feature=0 5 5 0 2 2 2 1 3 2 3 0 3 0
split_gain=1.214 0.903377 0.610218 0.665165 0.399544 0.543083 0.380401 0.376723 0.369896 0.429872 0.5473 0.604802 0.482309 0.363335
threshold=5.3500000000000005 1.0000000180025095e-35 13.750000000000002 11.450000000000001 1.1318181818181821 -1.2090909090909092 -1.4500000000000004 1.0000000180025095e-35 5.5227272727272743 -0.23181818181818145 5.7681818181818185 6.4500000000000011 7.0954545454545466 7.8500000000000005
decision_type=2 10 8 2 2 2 2 2 2 2 2 2 2 2
left_child=1 6 3 7 5 -4 -1 -2 -9 -10 -11 -12 -13 -14
right_child=2 -3 4 -5 -6 -7 -8 8 9 10 11 12 13 -15
leaf_value=-0.012122644740880695 -0.012262105256709567 -0.010071734008981516 0.068831177843484345 0.075264886881624873 0.057484101143538184 -0.0038175349479218149 -0.12062352513521957 0.069909055354766991 -0.017084907467522645 0.084152129280438914 -0.034500766846626223 0.059154986247274388 -0.021696214209958348 0.14950997341691949
leaf_weight=107 1436 1258 32 111 56 125 414 99 475 32 343 225 135 128
leaf_count=107 1436 1258 32 111 56 125 414 99 475 32 343 225 135 128
internal_value=-0.000186898 -0.00123384 0.000395682 0.000211125 0.00298122 0.0016879 -0.00298465 6.43914e-05 0.000636742 0.000418534 0.00108343 0.000836341 0.00196721 0.000513307
internal_weight=4976 1779 3197 2984 213 157 521 2873 1437 1338 863 831 488 263
internal_count=4976 1779 3197 2984 213 157 521 2873 1437 1338 863 831 488 263
is_linear=0
shrinkage=0.05


Tree=34
num_leaves=15
num_cat=0
split_feature=0 1 2 0 3 3 4 0 0 4 2 2 0 3
split_gain=0.979674 0.568336 0.530236 0.404667 0.403226 0.337471 0.466253 0.46085 0.840672 0.609948 0.441986 0.32993 0.411667 0.337153
threshold=5.3500000000000005 1.0000000180025095e-35 2.913636363636364 4.1500000000000012 9.6909090909090931 5.5227272727272743 6.4681818181818187 6.5500000000000007 6.7500000000000009 5.4000000000000012 -0.31363636363636432 0.095454545454544362 9.7500000000000018 7.0590909090909095
decision_type=2 2 2 2 2 2 2 2 2 2 2 2 2 2
left_child=3 -2 5 -1 -4 6 -3 -7 -9 -10 -11 -12 13 -13
right_child=1 2 4 -5 -6 7 -8 8 9 10 11 12 -14 -15
leaf_value=-0.14961526883128742 -0.0053633287585159537 -0.0039158559002117309 0.1934676317640559 -0.041837035736530831 0.0033695318688246332 -0.012256786912073431 0.085125406618131824 0.14574751428343449 0.09906114013920389 -0.022920174128228554 0.17993722837968026 0.018676543550055092 0.077516136149990075 -0.01588609092034849
leaf_weight=90 1592 56 31 1689 31 762 50 46 48 142 55 152 56 176
leaf_count=90 1592 56 31 1689 31 762 50 46 48 142 55 152 56 176
internal_value=-0.000237139 0.000286205 0.000950155 -0.00117763 0.00548387 0.000767983 0.00349056 0.000567153 0.00151852 0.00104133 0.000593803 0.00137813 0.000859374 0.000182926
internal_weight=4976 3197 1605 1779 62 1543 106 1437 675 629 581 439 384 328
internal_count=4976 3197 1605 1779 62 1543 106 1437 675 629 581 439 384 328
is_linear=0
shrinkage=0.05


Tree=35
num_leaves=15
num_cat=0
split_feature=5 4 2 2 4 1 5 2 2 2 4 4 4 2
split_gain=0.799302 0.491954 0.457492 0.479339 0.387229 0.326672 0.362507 0.324408 0.572462 0.805643 0.441014 0.895826 0.652118 0.541128
threshold=1.0000000180025095e-35 5.4136363636363649 2.5681818181818179 0.72727272727272807 8.2454545454545478 1.0000000180025095e-35 2.1666666666666674 -1.7499999999999993 -0.040909090909090999 -0.22272727272727308 6.2318181818181824 7.0045454545454549 6.786363636363637 -1.4818181818181826
decision_type=8 2 2 2 2 2 10 2 2 2 2 2 2 2
left_child=4 2 3 -2 -1 -3 -7 -8 9 10 -9 12 -12 -13
right_child=1 5 -4 -5 -6 6 7 8 -10 -11 11 13 -14 -15
leaf_value=-0.10872832098996024 -0.00089200763545858983 -0.017546123188000137 -0.072677365968828525 0.07411092427506645 0.056036517363658916 -0.01007483732777794 -0.048890499652039579 -0.06189348283853794 0.0035149928352645799 0.17228839942173893 0.036258003498695124 0.13116091831959967 0.25545856520843196 -0.025437506366166759
leaf_weight=484 148 2090 37 192 30 1129 135 43 441 46 70 35 32 79
leaf_count=484 148 2090 37 192 30 1129 135 43 441 46 70 35 32 79
internal_value=-0.000311562 -9.71645e-05 0.0016313 0.00220588 -0.00217899 -0.000256099 0.000199004 0.000959136 0.00136729 0.00303279 0.00194981 0.00287037 0.00627451 -0.00017544
internal_weight=4991 4477 377 340 514 4100 2010 881 746 305 259 216 102 114
internal_count=4991 4477 377 340 514 4100 2010 881 746 305 259 216 102 114
is_linear=0
shrinkage=0.05


Tree=36
num_leaves=15
num_cat=0
split_feature=0 0 0 5 0 2 1 3 0 2 3 5 1 3
split_gain=0.824784 0.451205 0.459554 0.404669 0.967795 1.35 0.296847 0.212277 0.734014 0.387682 0.533412 0.261927 0.296388 0.463644
threshold=4.4500000000000011 11.65 14.350000000000003 1.0000000180025095e-35 6.5500000000000007 1.1863636363636363 1.0000000180025095e-35 6.7954545454545459 8.4500000000000011 -0.099999999999998743 7.9954545454545469 1.1666666666666667 1.0000000180025095e-35 7.9227272727272737
decision_type=2 2 2 8 2 2 2 2 2 2 2 10 2 2
left_child=-1 3 6 4 -2 -6 -3 8 -5 10 -9 -11 -13 -14
right_child=1 2 -4 7 5 -7 -8 9 -10 11 -12 12 13 -15
leaf_value=-0.10817311518583478 -0.10706408104213405 0.017306908059478664 -0.022967142657669193 0.00088917010239411554 0.073579499086468325 -0.18307773047215845 0.17679087766472684 -0.079963660312665608 0.17462278138282239 0.014730145520474833 0.021356322549373859 -0.036503900898340838 0.019256365502859134 -0.014690048457519634
leaf_weight=343 349 34 31 2807 30 30 32 155 55 336 51 356 204 178
leaf_count=343 349 34 31 2807 30 30 32 155 55 336 51 356 204 178
internal_value=-0.000301544 -0.000126938 0.00324742 -0.000198859 -0.00169927 0.00416667 0.00560606 -5.07013e-05 0.000188678 -0.000585939 -0.00257282 -0.000204843 -0.000731709 0.000235601
internal_weight=4991 4648 97 4551 409 60 66 4142 2862 1280 206 1074 738 382
internal_count=4991 4648 97 4551 409 60 66 4142 2862 1280 206 1074 738 382
is_linear=0
shrinkage=0.05


Tree=37
num_leaves=15
num_cat=0
split_feature=0 5 0 2 4 0 3 4 0 0 3 3 3 0
split_gain=0.831783 0.45537 0.689376 1.09291 0.657912 0.842212 0.551084 0.407428 0.375884 0.417955 0.314107 1.01333 0.218651 0.204046
threshold=4.4500000000000011 1.0000000180025095e-35 6.5500000000000007 1.1863636363636363 5.4000000000000012 6.4500000000000011 7.1818181818181825 8.1045454545454572 11.65 14.350000000000003 6.3136363636363653 6.0136363636363646 9.7454545454545478 7.3500000000000005
decision_type=2 8 2 2 2 2 2 2 2 2 2 2 2 2
left_child=-1 2 7 -4 5 10 13 -2 12 -10 11 -3 -6 -7
right_child=1 4 3 -5 8 6 -8 -9 9 -11 -12 -13 -14 -15
leaf_value=-0.10276445942654303 -0.10171087699002734 -0.016260434926765665 0.069900524132144898 -0.17403465938639573 -0.0027776918338296786 0.15361500468535064 -0.021429082507678988 0.027397158824850734 0.13523902114443681 -0.021818785524785687 -0.047544288884632468 0.071414317809575842 -0.10137690432749535 0.11980330054820075
leaf_weight=343 317 126 30 31 3767 37 35 32 63 31 62 41 42 34
leaf_count=343 317 126 30 31 3767 37 35 32 63 31 62 41 42 34
internal_value=-0.000291526 -0.00011618 -0.00170732 0.00319672 3.77525e-05 0.00216418 0.00584906 -0.00256447 -0.000144762 0.00297872 0.000458514 0.00158683 -0.000221844 0.00838028
internal_weight=4991 4648 410 61 4238 335 106 349 3903 94 229 167 3809 71
internal_count=4991 4648 410 61 4238 335 106 349 3903 94 229 167 3809 71
is_linear=0
shrinkage=0.05


Tree=38
num_leaves=15
num_cat=0
split_feature=0 5 0 2 0 0 1 3 2 0 5 5 3 3
split_gain=0.817814 0.514673 0.724088 1.09291 0.429783 0.47775 0.332813 0.200839 0.247372 0.343705 0.855968 0.342332 0.328888 0.342877
threshold=4.4500000000000011 1.0000000180025095e-35 6.5500000000000007 1.1863636363636363 11.65 14.350000000000003 1.0000000180025095e-35 8.9590909090909108 -0.42727272727272719 4.8500000000000005 2.4166666666666674 3.1666666666666674 6.5681818181818192 7.9818181818181833
decision_type=2 8 2 2 2 2 2 2 2 2 8 10 2 2
left_child=-1 2 -2 -4 7 6 -6 8 12 10 -10 -12 -3 -14
right_child=1 4 3 -5 5 -7 -8 -9 9 -11 11 -13 13 -15
leaf_value=-0.09762623645521587 -0.096625333140525974 -0.0017141900654578102 0.066405497925537627 -0.16533292641707592 0.012029639317241429 -0.020727846248546376 0.16308061652204472 -0.01164303124023049 0.10107980394239875 0.001390579317379099 -0.15653490636867406 0.010596559123121005 -0.071564618850776682 0.040349903197504457
leaf_weight=343 349 1390 30 31 34 31 31 132 87 2191 35 36 239 32
leaf_count=343 349 1390 30 31 34 31 31 132 87 2191 35 36 239 32
internal_value=-0.000311562 -0.000137695 -0.00182927 0.00319672 2.59544e-05 0.00333333 0.00576923 -5.07013e-05 1.24676e-05 0.000342698 0.00259494 -0.00147887 -0.000454547 -0.00204797
internal_weight=4991 4648 410 61 4238 96 65 4142 4010 2349 158 71 1661 271
internal_count=4991 4648 410 61 4238 96 65 4142 4010 2349 158 71 1661 271
is_linear=0
shrinkage=0.05


Tree=39
num_leaves=15
num_cat=0
split_feature=5 4 4 2 5 3 2 2 3 5 1 2 3 5
split_gain=0.619572 0.681876 0.612127 0.45535 0.470136 0.340614 0.420424 0.714411 0.358137 0.303955 0.245383 0.467259 0.564359 0.447385
threshold=1.0000000180025095e-35 8.4954545454545478 5.4954545454545469 2.5954545454545461 5.166666666666667 7.5409090909090919 0.47272727272727316 0.72727272727272807 6.1772727272727286 3.4166666666666674 1.0000000180025095e-35 2.5681818181818179 6.6045454545454554 3.8333333333333335
decision_type=10 2 2 2 10 2 2 2 2 10 2 2 2 10
left_child=1 -1 3 4 5 6 -2 -8 -9 -4 -11 12 13 -12
right_child=2 -3 9 -5 -6 -7 7 8 -10 10 11 -13 -14 -15
leaf_value=-0.051027720430179363 0.075615233266334042 0.085051016543858854 -0.014500881055778767 -0.030838215419493567 0.07748281325102907 0.090397428769311727 -0.15239469210049253 0.16830818587628926 0.0093919058266041106 -0.0040393339889339607 0.18218556375849629 0.14224485648850804 -0.015952477378256186 0.025291859569853598
leaf_weight=868 74 33 2560 57 45 35 66 35 115 549 36 45 228 245
leaf_count=868 74 33 2560 57 45 35 66 35 115 549 36 45 228 245
internal_value=-0.000261472 -0.00144839 -1.19209e-09 0.00179157 0.00243243 0.00176923 0.0012069 9.25914e-05 0.002 -0.000208846 0.00048504 0.00122744 0.000795677 0.00229537
internal_weight=4991 901 4090 427 370 325 290 216 150 3663 1103 554 509 281
internal_count=4991 901 4090 427 370 325 290 216 150 3663 1103 554 509 281
is_linear=0
shrinkage=0.05


Tree=40
num_leaves=15
num_cat=0
split_feature=0 0 5 4 4 0 4 4 5 4 4 3 5 0
split_gain=1.06149 0.665872 0.556494 0.645378 0.410748 0.881761 0.37616 0.37361 0.385282 0.382556 0.790029 0.769526 0.43414 0.556183
threshold=4.5500000000000007 9.7500000000000018 1.1666666666666667 7.0045454545454549 5.4000000000000012 6.4500000000000011 5.4409090909090922 5.4954545454545469 2.8333333333333335 8.3318181818181838 9.3500000000000014 6.6681818181818189 3.8333333333333335 5.4500000000000011
decision_type=2 2 10 2 2 2 2 2 10 2 2 2 8 2
left_child=2 4 -1 -4 5 -2 -6 8 -8 -9 11 12 13 -11
right_child=1 -3 3 -5 6 -7 7 9 -10 10 -12 -13 -14 -15
leaf_value=-0.089242680461990714 -0.0083582593471736143 0.057206328872103508 0.11788266823902407 -0.16397921883377437 -0.089282655042731862 0.10988706543483749 0.06549708323639751 -0.010815109111462837 -0.044240399363404175 0.1272006732293324 -0.042896868477688747 -0.065180134841008472 0.23516903617369278 -0.014049306868220349
leaf_weight=424 265 176 70 32 62 101 65 3500 31 37 144 64 36 54
leaf_count=424 265 176 70 32 62 101 65 3500 31 37 144 64 36 54
internal_value=-0.000307253 -6.06407e-05 -0.00243346 0.000882352 -0.000182382 0.00142076 -0.000329328 -0.000268381 0.0028125 -0.000345503 0.00126866 0.00337696 0.00562992 0.00379121
internal_weight=5061 4535 526 102 4359 366 3993 3931 96 3835 335 191 127 91
internal_count=5061 4535 526 102 4359 366 3993 3931 96 3835 335 191 127 91
is_linear=0
shrinkage=0.05


Tree=41
num_leaves=15
num_cat=0
split_feature=0 0 3 3 2 3 3 4 0 2 0 2 0 4
split_gain=0.9593 0.446503 0.567029 0.505777 0.49868 0.376662 0.603401 0.339546 0.540627 0.500632 0.350283 0.336739 0.334205 0.324504
threshold=4.5500000000000007 9.7500000000000018 9.7045454545454568 8.9681818181818205 1.900000000000001 6.0136363636363646 5.7136363636363638 5.4954545454545469 5.5500000000000007 1.4136363636363634 9.0500000000000025 -0.33181818181818196 4.7500000000000009 5.245454545454546
decision_type=2 2 2 2 2 2 2 2 2 2 2 2 2 2
left_child=5 7 3 4 -3 6 -1 8 12 13 -9 -8 -2 -10
right_child=1 2 -4 -5 -6 -7 11 10 9 -11 -12 -13 -14 -15
leaf_value=-0.088958558333876253 0.056937346285406823 0.18224945918572369 -0.003126463699006233 0.12099115735859943 -0.026240509480215592 -0.085069979396615106 -0.069934812921515807 -0.0052660275819567618 0.10842987449223114 -0.0011686469794820048 -0.1936070141917163 0.16774273843413309 -0.076397690707509638 0.023240917054323025
leaf_weight=309 34 52 59 30 35 134 39 3795 42 127 40 44 202 119
leaf_count=309 34 52 59 30 35 134 39 3795 42 127 40 44 202 119
internal_value=-0.000317132 -8.26914e-05 0.00238636 0.00440171 0.00247126 -0.0023384 -0.00155612 -0.000182382 0.00101145 0.00246528 -0.000345503 0.00222891 -0.000762713 0.00431677
internal_weight=5061 4535 176 117 87 526 392 4359 524 288 3835 83 236 161
internal_count=5061 4535 176 117 87 526 392 4359 524 288 3835 83 236 161
is_linear=0
shrinkage=0.05


Tree=42
num_leaves=15
num_cat=0
split_feature=0 5 4 4 0 3 5 0 0 3 3 3 0 3
split_gain=1.04185 0.556494 0.645378 0.361346 0.477288 0.449679 0.426925 0.379293 0.371453 0.636522 0.533111 0.357043 0.350283 0.279467
threshold=4.5500000000000007 1.1666666666666667 7.0045454545454549 5.4954545454545469 5.5500000000000007 5.9409090909090922 1.0000000180025095e-35 8.0500000000000025 9.7500000000000018 9.7045454545454568 8.8136363636363644 7.8954545454545464 9.0500000000000025 7.7681818181818194
decision_type=2 10 2 2 2 2 10 2 2 2 2 2 2 2
left_child=1 -1 -3 4 6 -6 -2 13 12 10 11 -10 -5 -7
right_child=3 2 -4 8 5 7 -8 -9 9 -11 -12 -13 -14 -15
leaf_value=-0.08228211833541603 -0.085004882959256553 0.11643646274376668 -0.15133232997539184 -0.0050027262028589153 0.11826866315559022 0.01216495547216594 0.0053883350568221158 0.17010132155371901 0.079447802456085237 -0.011417687437460251 0.11494159949066947 -0.01183223856030562 -0.18392666348213049 -0.071068114110133612
leaf_weight=424 75 70 32 3795 68 157 161 42 31 55 30 46 40 35
leaf_count=424 75 70 32 3795 68 157 161 42 31 55 30 46 40 35
internal_value=-0.000327012 -0.00243346 0.000882352 -8.26914e-05 0.00113383 0.00245033 -0.000550849 0.00141026 -0.000246436 0.00209876 0.00434579 0.00214286 -0.000345503 0.000468749
internal_weight=5061 526 102 4535 538 302 236 234 3997 162 107 77 3835 192
internal_count=5061 526 102 4535 538 302 236 234 3997 162 107 77 3835 192
is_linear=0
shrinkage=0.05


Tree=43
num_leaves=15
num_cat=0
split_feature=0 0 3 3 3 3 3 3 4 0 4 0 3 3
split_gain=1.0321 0.353202 0.489281 0.585942 0.481091 0.346021 0.461497 0.485642 0.287437 0.39644 0.395289 0.375805 0.221469 0.519654
threshold=4.5500000000000007 9.7500000000000018 9.7045454545454568 8.9681818181818205 7.8954545454545464 6.0136363636363646 5.7136363636363638 5.8772727272727279 5.4954545454545469 6.4500000000000011 5.4500000000000002 4.8500000000000005 5.6409090909090915 5.7772727272727282
decision_type=2 2 2 2 2 2 2 2 2 2 2 2 2 2
left_child=5 8 3 4 -3 6 -1 -8 9 10 11 -2 -10 -14
right_child=1 2 -4 -5 -6 -7 7 -9 12 -11 -12 -13 13 -15
leaf_value=-0.08039652450041164 0.026347172726698884 0.13793487627319401 -0.006625656518064113 0.10919451951613604 -0.015727729259524613 -0.076702374510013535 0.18551307240622361 -0.068766031149964976 -0.031492754406972683 0.083285350036935768 0.028079922689813165 -0.040868638733769211 0.027071495822756381 -0.0060485075610393303
leaf_weight=309 39 35 59 30 52 134 44 39 676 148 56 281 198 2961
leaf_count=309 39 35 59 30 52 134 44 39 676 148 56 281 198 2961
internal_value=-0.000336891 -9.37167e-05 0.00210227 0.00397436 0.00189655 -0.00243346 -0.00168367 0.0016265 -0.000182382 0.000916029 5.31903e-05 -0.000625001 -0.000332465 -0.000156696
internal_weight=5061 4535 176 117 87 526 392 83 4359 524 376 320 3835 3159
internal_count=5061 4535 176 117 87 526 392 83 4359 524 376 320 3835 3159
is_linear=0
shrinkage=0.05


Tree=44
num_leaves=15
num_cat=0
split_feature=0 5 2 0 0 5 2 3 5 0 3 2 0 5
split_gain=0.949945 0.525044 0.988235 0.275456 0.866689 0.305933 0.386165 0.284625 0.681608 0.43577 0.643376 0.416667 0.300686 0.497431
threshold=4.5500000000000007 1.1666666666666667 -1.2590909090909086 6.5500000000000007 6.6500000000000012 1.0000000180025095e-35 -1.4090909090909085 7.2227272727272736 1.0000000180025095e-35 11.450000000000001 9.7045454545454568 2.1409090909090907 8.4500000000000011 7.166666666666667
decision_type=2 10 2 2 2 8 2 2 10 2 2 2 2 10
left_child=1 -1 -3 5 -5 6 -2 8 -6 -9 11 -11 13 -10
right_child=3 2 -4 4 7 -7 -8 9 12 10 -12 -13 -14 -15
leaf_value=-0.074729710861146978 0.0040396721483865836 -0.14365872911449767 0.11780031818914449 0.18879795619938991 0.065535537824123066 -0.0035936794256061669 -0.087886061939124807 -0.014020382541329535 0.0037528492800508115 0.051569824788510625 -0.0057762917131390611 0.10373479354032927 0.15779676338638987 -0.062970163941034232
leaf_weight=424 60 42 60 39 71 2762 231 509 583 30 58 30 85 77
leaf_count=424 60 42 60 39 71 2762 231 509 583 30 58 30 85 77
internal_value=-0.000327012 -0.0023384 0.000882352 -9.37167e-05 0.000465586 -0.000365216 -0.00190722 0.000266804 0.000882352 -0.000534291 0.00220339 0.00583333 0.00043624 7.57564e-05
internal_weight=5061 526 102 4535 1482 3053 291 1443 816 627 118 60 745 660
internal_count=5061 526 102 4535 1482 3053 291 1443 816 627 118 60 745 660
is_linear=0
shrinkage=0.05


Tree=45
num_leaves=15
num_cat=0
split_feature=0 0 0 5 2 3 0 1 3 2 5 2 3 2
split_gain=0.783427 0.411462 0.550719 0.528094 0.364347 0.46202 0.652663 0.449228 0.329495 0.634804 0.272389 0.700251 0.272281 0.413219
threshold=4.4500000000000011 6.5500000000000007 6.6500000000000012 1.0000000180025095e-35 -0.10909090909090845 5.4681818181818196 5.2500000000000009 1.0000000180025095e-35 9.6909090909090931 3.0727272727272723 5.166666666666667 -0.91363636363636347 6.3136363636363653 0.39090909090909115
decision_type=2 2 2 8 2 2 2 2 2 2 10 2 2 2
left_child=-1 3 -3 4 5 -2 7 -7 9 -4 -5 -12 13 -13
right_child=1 2 8 10 -6 6 -8 -9 -10 -11 11 12 -14 -15
leaf_value=-0.069697713328649047 -0.088394253893049168 0.15748927405659519 0.0053301017989420725 -0.0052778982001806026 -0.070004222458227613 -0.0032399839626973004 -0.12499087844782966 0.15853232164044948 -0.017173493610156187 0.11132562915625177 -0.029667574005235078 0.079117450969693984 -0.009044440984936869 0.11680092445696864
leaf_weight=340 45 39 1322 2644 170 49 47 41 82 37 86 69 53 30
leaf_count=340 45 39 1322 2644 170 49 47 41 82 37 86 69 53 30
internal_value=-0.000182035 -1.48506e-05 0.000675674 -0.000330861 -0.00215909 -0.000604397 0.000839415 0.00333333 0.000517001 0.000702721 -0.000107565 0.0015126 0.00355263 0.00510101
internal_weight=5054 4714 1480 3234 352 182 137 90 1441 1359 2882 238 152 99
internal_count=5054 4714 1480 3234 352 182 137 90 1441 1359 2882 238 152 99
is_linear=0
shrinkage=0.05


Tree=46
num_leaves=15
num_cat=0
split_feature=0 0 0 3 2 4 4 0 3 2 3 2 0 2
split_gain=0.699758 0.398919 0.550719 0.329495 0.634804 0.27363 0.281528 0.26955 0.292907 0.891505 0.37411 0.422105 0.287745 0.805667
threshold=4.4500000000000011 6.5500000000000007 6.6500000000000012 9.6909090909090931 3.0727272727272723 5.4000000000000012 5.3272727272727289 7.5500000000000007 8.0818181818181838 0.75454545454545541 7.7681818181818194 1.031818181818182 7.4500000000000011 0.27272727272727298
decision_type=2 2 2 2 2 2 2 2 2 2 2 2 2 2
left_child=-1 -2 -3 4 5 6 -4 12 10 -10 11 -9 -7 -14
right_child=1 2 3 -5 -6 7 -8 8 9 -11 -12 -13 13 -15
leaf_value=-0.066212827662216589 -0.0078129302548979995 0.14961481035376542 0.0037961557983464535 -0.016314818929648346 0.1057593476984392 0.0034160265457901986 0.085727749470692088 -0.01603406461524157 0.20194719260821006 -0.0053340242696672353 -0.050503735984681199 0.11532444303240562 0.19203562648943701 -0.081050305596445563
leaf_weight=340 3234 39 58 82 37 561 34 268 33 153 77 52 34 52
leaf_count=340 3234 39 58 82 37 561 34 268 33 153 77 52 34 52
internal_value=-0.000162249 -4.24387e-06 0.000675674 0.000517001 0.000702721 0.000521935 0.00315217 0.000325202 -0.000454547 0.00118279 -0.00122166 -0.000468751 0.00102782 0.00372093
internal_weight=5054 4714 1480 1441 1359 1322 92 1230 583 186 397 320 647 86
internal_count=5054 4714 1480 1441 1359 1322 92 1230 583 186 397 320 647 86
is_linear=0
shrinkage=0.05


Tree=47
num_leaves=15
num_cat=0
split_feature=0 5 0 2 1 5 3 0 5 2 2 2 2 5
split_gain=0.712455 0.363458 0.566513 1.11468 0.314981 0.499088 0.397919 0.669303 0.417993 0.396267 0.374573 0.326573 0.487025 0.457788
threshold=4.4500000000000011 1.0000000180025095e-35 6.4500000000000011 0.95909090909090911 1.0000000180025095e-35 6.8333333333333348 5.4863636363636372 4.9500000000000011 3.5833333333333335 -0.45000000000000012 -0.054545454545454224 -1.4500000000000004 0.95909090909090911 8.1666666666666696
decision_type=2 8 2 2 2 8 2 2 10 2 2 2 2 8
left_child=-1 2 -2 -4 6 -6 7 -3 -9 -8 -11 -7 13 -13
right_child=1 4 3 -5 5 11 9 8 -10 10 -12 12 -14 -15
leaf_value=-0.062902186279105751 -0.065338116870569646 -0.098166243129748559 0.036692419562822855 -0.14421634822533641 0.0020932428383343537 0.06452834949821519 -0.038956887580401112 0.047482666443913524 -0.071885171173354828 0.058705706168803655 -0.0042652154776947502 0.072953380592399628 0.05784266702395361 -0.028416893061294871
leaf_weight=340 344 82 30 42 1833 33 705 113 37 174 1037 34 118 132
leaf_count=340 344 82 30 42 1833 33 705 113 37 174 1037 34 118 132
internal_value=-0.000142463 1.69695e-05 -0.00139423 0.00263889 0.000153559 0.000581394 -0.000274675 0.00168103 0.00366667 -0.000511483 3.71582e-05 0.00241325 0.0018662 0.000120481
internal_weight=5054 4714 416 72 4298 2150 2148 232 150 1916 1211 317 284 166
internal_count=5054 4714 416 72 4298 2150 2148 232 150 1916 1211 317 284 166
is_linear=0
shrinkage=0.05


Tree=48
num_leaves=15
num_cat=0
split_feature=0 0 0 5 4 3 5 5 0 4 2 2 0 3
split_gain=0.674705 0.369964 0.563486 0.44102 0.543397 0.328003 0.438252 0.407708 0.363766 0.267955 0.257028 0.342653 0.255566 0.229551
threshold=4.4500000000000011 6.5500000000000007 6.6500000000000012 1.0000000180025095e-35 8.1045454545454572 7.3500000000000005 1.0000000180025095e-35 0.58333333333333337 7.6500000000000012 5.4000000000000012 0.64090909090909121 -1.5272727272727267 7.3500000000000005 9.6909090909090931
decision_type=2 2 2 8 2 2 10 10 2 2 2 2 2 2
left_child=-1 3 -3 4 -2 6 12 -7 9 -8 11 -10 -4 -9
right_child=1 2 5 -5 -6 7 8 13 10 -11 -12 -13 -14 -15
leaf_value=-0.059757076965150473 -0.067159140298464259 0.14202940769416039 0.0030466035704440342 -0.0018032380487561898 0.016501970929749133 -0.16861964369161664 0.08840015326103795 0.0092690955889526937 0.14373888439284235 0.0082407204512386836 0.038965142216850213 -0.04032215909002991 0.097314619471870908 -0.017816572168827916
leaf_weight=340 319 39 31 2882 33 80 32 464 34 475 87 120 40 78
leaf_count=340 319 39 31 2882 33 80 32 464 34 475 87 120 40 78
internal_value=-0.000201822 -4.66707e-05 0.000608107 -0.000346322 -0.00201705 0.000447605 0.001105 -0.000418008 0.000748662 0.00150887 -0.000850624 -0.00207792 0.00485915 7.37995e-05
internal_weight=5054 4714 1480 3234 352 1441 819 622 748 507 241 154 71 542
internal_count=5054 4714 1480 3234 352 1441 819 622 748 507 241 154 71 542
is_linear=0
shrinkage=0.05


Tree=49
num_leaves=15
num_cat=0
split_feature=1 5 5 3 2 3 3 3 5 5 4 4 5 4
split_gain=0.376826 0.442731 0.341372 0.310459 0.439036 0.354326 0.293312 0.468097 0.622641 0.574566 0.399483 0.719162 0.366276 0.356655
threshold=1.0000000180025095e-35 2.1666666666666674 1.0000000180025095e-35 5.4863636363636372 -1.5272727272727267 5.4590909090909099 5.6227272727272739 6.2954545454545459 6.8333333333333348 2.4166666666666674 6.6863636363636365 6.4590909090909099 5.8333333333333348 5.7363636363636372
decision_type=2 8 10 2 2 2 2 2 10 8 2 2 8 2
left_child=2 -2 -1 5 -5 -4 -3 8 -8 -9 11 12 -11 -14
right_child=1 6 3 4 -6 -7 7 9 -10 10 -12 -13 13 -15
leaf_value=-0.055976490121913025 -0.0084592904797908871 -0.01030350058327203 0.0049341734300038164 -0.08107846633071554 -0.0032908275955919513 0.038285299253592149 0.043867271455900379 0.15198832185326777 0.062380376001882148 -0.012228748841496322 -0.024433425255951977 0.12660837440727535 -0.036784344604678811 0.055484356150076013
leaf_weight=463 1365 192 209 314 1523 37 324 34 31 164 220 46 51 81
leaf_count=463 1365 192 209 314 1523 37 324 34 31 164 220 46 51 81
internal_value=-0.000211715 0.000223284 -0.000640221 -0.00036726 -0.000590638 0.00130081 0.000949255 0.00130915 0.00274648 0.000453019 7.11732e-05 0.00114035 0.000236485 0.00219697
internal_weight=5054 2508 2546 2083 1837 246 1143 951 355 596 562 342 296 132
internal_count=5054 2508 2546 2083 1837 246 1143 951 355 596 562 342 296 132
is_linear=0
shrinkage=0.05


Tree=50
num_leaves=15
num_cat=0
split_feature=0 5 4 0 5 2 4 0 4 2 5 2 4 4
split_gain=0.663646 0.527197 0.591992 0.378361 0.290682 0.324828 0.277349 0.29088 0.256157 0.54752 1.04249 0.398287 0.395072 1.00689
threshold=4.1500000000000012 1.0000000180025095e-35 8.1681818181818198 7.3500000000000005 3.4166666666666674 0.71363636363636307 6.6590909090909101 4.8500000000000005 7.0363636363636379 -0.7545454545454543 4.8333333333333348 -0.67272727272727229 6.5318181818181831 6.7500000000000009
decision_type=2 8 2 2 8 2 2 2 2 2 8 2 2 2
left_child=-1 2 3 -2 5 -3 7 -7 9 10 -6 -11 -12 -14
right_child=1 4 -4 -5 8 6 -8 -9 -10 11 12 -13 13 -15
leaf_value=-0.086769828312940556 -0.056912898014481961 -0.020191696068497855 0.007083775274482962 0.023516884120717819 0.1984402737693487 0.095615913574619071 -0.080174166193736449 0.0087468041862704092 -0.0037376012578168583 -0.09216600620618623 -0.072787726552690932 0.0082252647216396 0.062239200849275159 -0.099635263993701234
leaf_weight=93 407 2053 30 31 47 46 120 601 446 32 34 997 31 30
leaf_count=93 407 2053 30 31 47 46 120 601 446 32 34 997 31 30
internal_value=-0.000278112 -0.000198778 -0.00179487 -0.00226028 -3.04272e-05 -0.000336881 0.000541068 0.00095054 0.000504019 0.000892398 0.00380282 0.000490767 0.000789472 0.00319672
internal_weight=4998 4905 468 438 4437 2820 767 647 1617 1171 142 1029 95 61
internal_count=4998 4905 468 438 4437 2820 767 647 1617 1171 142 1029 95 61
is_linear=0
shrinkage=0.05


Tree=51
num_leaves=15
num_cat=0
split_feature=3 5 2 1 4 4 2 2 5 2 2 3 3 3
split_gain=0.72266 0.433417 0.910877 0.351948 0.474206 0.262997 0.273762 0.327801 0.366395 0.674898 0.244379 0.396285 0.236704 0.388819
threshold=5.6227272727272739 1.0000000180025095e-35 -1.8863636363636365 1.0000000180025095e-35 5.245454545454546 5.0863636363636369 -0.65454545454545376 -0.20909090909090941 1.8333333333333337 -0.45000000000000012 2.9863636363636363 9.6909090909090931 5.7500000000000009 5.7136363636363638
decision_type=2 8 2 2 2 2 2 2 8 2 2 2 2 2
left_child=-1 2 -2 5 -5 -3 -7 8 -8 -10 12 -12 13 -6
right_child=1 3 -4 4 10 6 7 -9 9 -11 11 -13 -14 -15
leaf_value=-0.054025950555080318 0.0067295865107588337 -0.14156391745623542 -0.052681147382803856 0.061230794218213272 0.0038375395180339821 -0.03019169651844349 -0.054603879972948889 -0.0013399609367280088 -0.010067402842006613 0.07625176344084994 0.13014120922816572 -0.0079238483456475634 0.0023544339480593931 0.19492930176629072
leaf_weight=1019 30 30 331 60 87 519 61 1072 57 49 38 34 1578 33
leaf_count=1019 30 30 331 60 87 519 61 1072 57 49 38 34 1578 33
internal_value=-0.000328132 -2.38765e-05 -0.0016759 0.000140961 0.000628414 -0.000357943 -0.000278727 0.0001251 0.00218563 0.00396226 0.000480225 0.00333333 0.000359245 0.0025
internal_weight=4998 3979 361 3618 1830 1788 1758 1239 167 106 1770 72 1698 120
internal_count=4998 3979 361 3618 1830 1788 1758 1239 167 106 1770 72 1698 120
is_linear=0
shrinkage=0.05


Tree=52
num_leaves=15
num_cat=0
split_feature=0 3 0 3 5 2 0 3 4 4 0 4 4 0
split_gain=0.663646 0.445109 0.372053 0.597572 0.355202 0.567949 0.435298 1.3387 0.426258 0.625075 0.370687 0.340168 0.331449 0.2835
threshold=4.1500000000000012 5.6227272727272739 6.1500000000000012 5.5136363636363646 0.41666666666666669 -2.0499999999999994 4.6500000000000012 6.0500000000000007 5.577272727272728 5.7772727272727282 7.3500000000000005 6.077272727272728 5.4000000000000012 6.4500000000000011
decision_type=2 2 2 2 8 2 2 2 2 2 2 2 2 2
left_child=-1 2 -2 -4 5 -3 7 11 -7 -10 -11 -6 13 -8
right_child=1 4 3 -5 6 8 12 -9 9 10 -12 -13 -14 -15
leaf_value=-0.080231209826372288 -0.053029107251069553 0.003448193928575516 0.12399794951119925 -0.072842077471235375 0.066213578942913714 -0.077277129716638526 0.003349468008783817 -0.0910002246965263 0.068125998727890422 -0.048664094401268482 0.047879861899784174 0.10327250557222661 -0.00022478998575646672 0.086493724124579438
leaf_weight=93 878 42 54 32 31 119 145 71 39 356 44 51 2949 94
leaf_count=93 878 42 54 32 31 119 145 71 39 356 44 51 2949 94
internal_value=-0.000278112 -0.000198778 -0.00116183 0.00197674 3.67915e-05 -0.00108333 0.000237952 0.00284314 -0.00150538 -0.000785878 -0.001375 0.00719512 0.000112922 0.00190376
internal_weight=4998 4905 964 86 3941 600 3341 153 558 439 400 82 3188 239
internal_count=4998 4905 964 86 3941 600 3341 153 558 439 400 82 3188 239
is_linear=0
shrinkage=0.05


Tree=53
num_leaves=15
num_cat=0
split_feature=0 3 5 4 4 0 3 0 3 5 5 4 3 0
split_gain=0.65416 0.417289 0.384494 0.531895 0.548204 0.341744 1.17027 0.339431 0.333086 0.383335 0.376463 0.344396 0.290101 0.424533
threshold=4.1500000000000012 5.6227272727272739 0.41666666666666669 5.577272727272728 5.7772727272727282 4.6500000000000012 6.0500000000000007 5.2500000000000009 5.5500000000000016 1.5833333333333337 1.8333333333333337 7.1954545454545462 10.06818181818182 11.450000000000001
decision_type=2 2 8 2 2 2 2 2 2 8 10 2 2 2
left_child=-1 7 3 -3 -5 6 -4 -2 9 -9 -11 -12 13 -7
right_child=1 2 5 4 -6 12 -8 8 -10 10 11 -13 -14 -15
leaf_value=-0.07621964933505368 -0.054284784480378816 -0.073413273230806597 0.068562352037919772 0.064719698791495889 -0.028174448539290204 0.0014198653935130797 -0.086450213461699968 -0.087086543336394942 -0.058310124431182414 0.093535138323920339 0.028766369401320626 -0.088127540546517863 -0.087446676352316122 0.051317359662884116
leaf_weight=93 534 119 82 39 442 3063 71 120 91 46 126 47 45 80
leaf_count=93 534 119 82 39 442 3063 71 120 91 46 126 47 45 80
internal_value=-0.000308124 -0.000229359 -1.26991e-06 -0.00116667 -0.000426197 0.00020802 0.00251634 -0.00116183 -0.00011628 0.000604719 0.00184931 0.000780346 9.72385e-05 0.00015431
internal_weight=4998 4905 3941 600 481 3341 153 964 430 339 219 173 3188 3143
internal_count=4998 4905 3941 600 481 3341 153 964 430 339 219 173 3188 3143
is_linear=0
shrinkage=0.05


Tree=54
num_leaves=15
num_cat=0
split_feature=0 0 0 5 5 0 2 2 0 2 5 4 0 5
split_gain=0.670008 0.49826 0.655124 0.417458 0.349032 0.371733 0.435068 0.311137 0.253027 0.297169 0.759524 0.30867 0.77698 0.250733
threshold=4.1500000000000012 6.5500000000000007 6.6500000000000012 7.166666666666667 1.0000000180025095e-35 4.3500000000000005 -2.2999999999999998 -0.34545454545454518 11.450000000000001 0.095454545454544362 0.58333333333333337 5.4772727272727275 7.9500000000000011 7.8333333333333348
decision_type=2 2 2 10 8 2 2 2 2 2 10 2 2 10
left_child=-1 3 -3 4 5 -2 -7 -5 9 10 -4 12 -11 -12
right_child=1 2 8 7 -6 6 -8 -9 -10 11 13 -13 -14 -15
leaf_value=-0.072408666868300983 0.022431621750262722 0.16266509702001275 0.12905930246548508 -0.0030895176598220294 -0.0064470369838501218 0.002912019079700511 -0.051930875980835546 0.058778968566257112 0.025219665878122594 -0.0037902301097692778 0.0032635097919842312 -0.0080265053315987014 0.13313578965403569 0.15372968859539243
leaf_weight=93 39 37 44 31 2964 30 341 34 110 100 390 716 39 30
leaf_count=93 39 37 44 31 2964 30 341 34 110 100 390 716 39 30
internal_value=-0.000258104 -0.000178391 0.00059345 -0.000507416 -0.000583878 -0.00195122 -0.00243935 0.00346154 0.000423372 0.000231235 0.00125 -0.000321639 0.00183453 0.000595237
internal_weight=4998 4905 1466 3439 3374 410 371 65 1429 1319 464 855 139 420
internal_count=4998 4905 1466 3439 3374 410 371 65 1429 1319 464 855 139 420
is_linear=0
shrinkage=0.05


Tree=55
num_leaves=15
num_cat=0
split_feature=5 3 3 2 4 3 4 5 4 3 2 3 2 2
split_gain=0.463173 0.495918 0.425933 0.606549 0.865534 0.292778 0.321857 0.279035 0.277951 0.420762 0.421783 0.275643 0.268935 0.252093
threshold=1.4166666666666667 4.9454545454545462 7.0954545454545466 -0.45000000000000012 6.7954545454545459 8.2227272727272744 5.4681818181818196 9.1666666666666696 8.4954545454545478 5.8590909090909102 -2.0499999999999994 10.06818181818182 -1.0954545454545455 -1.3136363636363637
decision_type=10 2 2 2 2 2 2 10 2 2 2 2 2 2
left_child=1 -1 3 12 -5 6 -4 11 -3 -10 -11 -7 13 -2
right_child=2 8 5 4 -6 7 -8 -9 9 10 -12 -13 -14 -15
leaf_value=-0.051854446116976274 -0.00018870721183661781 -0.018030869104496375 0.047554001989857014 0.034925201376433831 0.16259968403832323 0.014133989500070748 -0.047368070201599756 0.023024579636729436 0.17774459892564792 -0.027631945742848937 0.056749124913601928 -0.033126065991432231 -0.0079178971314778739 0.057402058185768323
leaf_weight=84 514 2264 30 880 30 242 357 30 35 69 30 42 348 88
leaf_count=84 514 2264 30 880 30 242 357 30 35 69 30 42 348 88
internal_value=-0.000141782 -0.000628527 0.000329948 0.000725805 0.00164835 -0.000720401 -0.00164083 0.000414012 -0.000496248 0.00171642 5.05039e-05 -7.04237e-05 -0.000157896 0.000481726
internal_weight=5043 2482 2561 1860 910 701 387 314 2398 134 99 284 950 602
internal_count=5043 2482 2561 1860 910 701 387 314 2398 134 99 284 950 602
is_linear=0
shrinkage=0.05


Tree=56
num_leaves=15
num_cat=0
split_feature=0 1 0 2 2 5 4 4 5 4 4 0 2 2
split_gain=0.820093 0.498483 0.542454 0.443682 0.337468 0.306044 0.657898 0.36367 0.39548 0.296343 0.757095 0.481945 0.39603 0.436232
threshold=4.4500000000000011 1.0000000180025095e-35 11.65 -1.2090909090909092 -0.23181818181818145 3.4166666666666674 7.5681818181818192 8.0590909090909104 5.5833333333333348 6.6227272727272739 6.1681818181818189 5.5500000000000007 0.095454545454544362 -0.040909090909090999
decision_type=2 2 2 2 2 8 2 2 10 2 2 2 2 2
left_child=-1 -2 3 5 -5 -3 -7 -8 -9 10 -6 -12 13 -11
right_child=1 2 -4 4 9 6 7 8 -10 12 11 -13 -14 -15
leaf_value=-0.045214701120079769 -0.0077399027391422681 0.0042164841474706515 0.078607171132991149 -0.033042216036786143 0.0062864936671931191 0.076146958776770787 -0.028917631276159872 0.11469527577685748 -0.059754834973583963 -0.0047957044339673495 0.096104800227966192 0.062741582538266172 -0.064317751261650319 0.15945471372622305
leaf_weight=343 2357 348 52 453 997 34 37 53 34 33 30 91 150 31
leaf_count=343 2357 348 52 453 997 34 37 53 34 33 30 91 150 31
internal_value=-0.000161611 1.06371e-05 0.000527101 0.000412482 4.20156e-05 0.00171937 0.0035443 0.00185484 0.00362069 0.000442942 0.00076923 0.00450413 -0.00126168 0.00203125
internal_weight=5043 4700 2343 2291 1785 506 158 124 87 1332 1118 121 214 64
internal_count=5043 4700 2343 2291 1785 506 158 124 87 1332 1118 121 214 64
is_linear=0
shrinkage=0.05


Tree=57
num_leaves=15
num_cat=0
split_feature=0 5 0 0 2 4 4 0 0 3 0 0 5 4
split_gain=0.813218 0.313068 0.427426 0.718298 1.38782 0.299238 0.47014 0.386014 0.398006 0.431979 0.46629 0.397178 0.388792 0.342657
threshold=4.4500000000000011 0.83333333333333337 5.0500000000000007 4.9500000000000011 -0.30454545454545462 5.5045454545454549 5.6136363636363642 7.9500000000000011 4.8500000000000005 7.8409090909090917 5.0500000000000007 7.4500000000000011 5.5833333333333348 5.4772727272727275
decision_type=2 8 2 2 2 2 2 2 2 2 2 2 10 2
left_child=-1 2 3 -2 -5 7 -7 8 -3 10 -10 12 13 -12
right_child=1 5 -4 4 -6 6 -8 -9 9 -11 11 -13 -14 -15
leaf_value=-0.042953966064075776 -0.0078936774707211547 0.036750132565530939 -0.047135584728535768 0.22902735833990442 -0.05327100985021186 -0.029192566733913572 0.0016572872187043633 0.10617191549259362 -0.12998033309244056 -0.066687835711976673 0.017976586336680932 -0.022997909796811152 0.040316070198075947 0.050348791327889324
leaf_weight=343 294 37 730 30 38 164 2958 59 57 34 198 33 32 36
leaf_count=343 294 37 730 30 38 164 2958 59 57 34 198 33 32 36
internal_value=-0.000171526 -1.19209e-09 -0.000741759 0.000662982 0.00529412 0.0002245 4.48419e-05 0.0013786 0.0008548 0.000384614 0.000898875 0.00168896 0.00233083 0.00162393
internal_weight=5043 4700 1092 362 68 3608 3122 486 427 390 356 299 266 234
internal_count=5043 4700 1092 362 68 3608 3122 486 427 390 356 299 266 234
is_linear=0
shrinkage=0.05


Tree=58
num_leaves=15
num_cat=0
split_feature=0 1 3 3 2 3 3 3 3 3 4 4 0 0
split_gain=0.702659 0.419273 0.369181 0.359707 0.35197 0.307614 0.545689 0.288296 0.449552 0.411022 0.342092 0.485226 0.550613 0.420469
threshold=4.4500000000000011 1.0000000180025095e-35 5.4863636363636372 5.5409090909090919 -0.65454545454545376 5.4863636363636372 5.4590909090909099 8.8772727272727305 9.6500000000000021 7.1045454545454554 6.6590909090909101 6.0409090909090919 8.0500000000000025 6.6500000000000012
decision_type=2 2 2 2 2 2 2 2 2 2 2 2 2 2
left_child=-1 5 -3 4 -4 6 -2 9 -9 -5 11 12 -11 -13
right_child=1 2 3 7 -6 -7 -8 8 -10 10 -12 13 -14 -15
leaf_value=-0.040806267760871984 2.8523045201307501e-05 -0.056704985809516509 0.10805345958057254 0.010409403302701244 -0.00021376887198644269 -0.012663771344370295 0.085585695628851613 0.11871987923874153 -0.0012112925461644543 -0.041621826317167709 -0.061226134096674503 0.060582302641438449 0.077397605807900172 -0.01688835006727479
leaf_weight=343 242 216 47 1434 31 2076 39 59 69 150 199 36 55 47
leaf_count=343 242 216 47 1434 31 2076 39 59 69 150 199 36 55 47
internal_value=-0.000191356 -3.19161e-05 0.00044174 0.000641748 0.00397436 -0.000502759 0.00104982 0.000514884 0.0028125 0.00036179 -0.000893225 0.000208332 -0.00109756 0.00343373
internal_weight=5043 4700 2343 2127 78 2357 281 2049 128 1921 487 288 205 83
internal_count=5043 4700 2343 2127 78 2357 281 2049 128 1921 487 288 205 83
is_linear=0
shrinkage=0.05


Tree=59
num_leaves=15
num_cat=0
split_feature=0 1 5 2 0 5 4 4 4 2 5 5 5 0
split_gain=0.709051 0.330192 0.372026 0.241933 0.480458 0.424561 0.273303 0.592565 0.285215 0.28592 0.345248 0.272101 0.252007 0.550587
threshold=4.4500000000000011 1.0000000180025095e-35 6.166666666666667 1.8863636363636369 8.2500000000000018 3.4166666666666674 6.6590909090909101 6.6227272727272739 8.1954545454545471 -3.4590909090909085 4.8333333333333348 0.83333333333333337 1.0000000180025095e-35 5.3500000000000005
decision_type=2 2 8 2 2 8 2 2 2 2 8 10 10 2
left_child=-1 3 -3 4 6 -6 7 12 -8 -10 11 -11 13 -2
right_child=1 2 -4 -5 5 -7 8 -9 9 10 -12 -13 -14 -15
leaf_value=-0.038765954372828378 -0.049620612275882804 0.00093234018003204269 0.035728631431950701 -0.038173918332915613 -0.0035053797451905012 0.18400413977310659 -0.046069202900503647 0.062176141871264481 -0.17014130058257998 -0.022756152788916937 -0.083299345033662583 0.061538414962210825 0.00062792312705709484 0.010729537045376339
leaf_weight=343 111 1979 364 257 60 54 630 41 62 38 42 101 872 89
leaf_count=343 111 1979 364 257 60 54 630 41 62 38 42 101 872 89
internal_value=-0.000181441 -2.12778e-05 0.00039906 -0.000439119 -0.000261906 0.00289474 -0.000443103 7.6369e-05 -0.00110538 0.000349793 0.00135359 0.00255396 -0.000149255 -0.00175
internal_weight=5043 4700 2343 2357 2100 114 1986 1113 873 243 181 139 1072 200
internal_count=5043 4700 2343 2357 2100 114 1986 1113 873 243 181 139 1072 200
is_linear=0
shrinkage=0.05


Tree=60
num_leaves=15
num_cat=0
split_feature=0 0 0 5 5 4 2 2 0 5 5 0 5 4
split_gain=0.640876 0.317675 0.669849 0.339508 0.356972 0.75 0.300484 0.347162 0.714681 0.373225 0.603193 0.341251 0.326461 0.255392
threshold=4.4500000000000011 6.5500000000000007 6.6500000000000012 9.8333333333333339 7.8333333333333348 6.6136363636363642 -0.51363636363636356 0.47272727272727316 7.2500000000000009 1.8333333333333337 3.4166666666666674 7.0500000000000007 1.1666666666666667 8.3318181818181838
decision_type=2 2 2 10 10 2 2 2 2 10 10 2 10 2
left_child=-1 13 -3 4 6 -6 11 8 9 -8 -11 -4 -10 -2
right_child=1 2 3 -5 5 -7 7 -9 12 10 -12 -13 -14 -15
leaf_value=-0.0365385081023629 -0.010261893235385559 0.14994380236097191 0.025828205507213362 -0.021690957180365851 -0.0090218059277491491 0.18430363522057308 -0.08634037400495749 0.0019915620360552006 0.15324146245506742 0.25623708054555511 -0.095578319150579349 -0.040310465680980762 0.084447471853608916 0.0085036525917306389
leaf_weight=339 2975 37 84 60 50 30 37 711 42 38 35 200 125 233
leaf_count=339 2975 37 84 60 50 30 37 711 42 38 35 200 125 233
internal_value=-0.000246198 -9.3409e-05 0.000521048 0.000347024 0.000510354 0.00375 0.000306603 0.000718622 0.00222022 -0.000909092 0.00116438 -0.00112676 0.00428144 -0.000370949
internal_weight=4996 4657 1449 1412 1352 80 1272 988 277 110 73 284 167 3208
internal_count=4996 4657 1449 1412 1352 80 1272 988 277 110 73 284 167 3208
is_linear=0
shrinkage=0.05


Tree=61
num_leaves=15
num_cat=0
split_feature=0 0 0 0 5 5 4 3 2 2 0 5 0 2
split_gain=0.647002 0.211484 0.182474 0.697982 0.313878 0.390317 0.75 0.325878 0.431139 0.419864 0.40048 0.442423 0.346176 0.327547
threshold=4.4500000000000011 4.1500000000000012 6.5500000000000007 6.6500000000000012 9.8333333333333339 7.8333333333333348 6.6136363636363642 10.06818181818182 2.9863636363636363 2.4000000000000004 9.7500000000000018 1.0000000180025095e-35 9.0500000000000025 -0.51363636363636356
decision_type=2 2 2 2 10 10 2 2 2 2 2 8 2 2
left_child=1 -1 -2 -4 5 7 -7 8 9 10 11 -5 13 -13
right_child=2 -3 3 4 -6 6 -8 -9 -10 -11 -12 12 -14 -15
leaf_value=-0.067809462887845534 -0.0060239114933290589 -0.033573548886632679 0.14244661224292327 0.058125582669542777 -0.020606409321347524 -0.0085707156313617368 0.17508845345954444 -0.087185641662841429 0.10207603180358765 -0.081904759783759745 0.07002210847093783 -0.029266160609370734 -0.19008789949896818 0.010152350294999999
leaf_weight=89 3208 250 37 52 60 50 30 30 58 87 52 266 35 692
leaf_count=89 3208 250 37 52 60 50 30 30 58 87 52 266 35 692
internal_value=-0.00023619 -0.00234513 -8.26724e-05 0.000383022 0.000205381 0.000362425 0.00375 0.00014937 0.000273751 6.75664e-05 0.000332724 0.000119616 -0.000115812 6.26293e-05
internal_weight=4996 339 4657 1449 1412 1352 80 1272 1242 1184 1097 1045 993 958
internal_count=4996 339 4657 1449 1412 1352 80 1272 1242 1184 1097 1045 993 958
is_linear=0
shrinkage=0.05


Tree=62
num_leaves=15
num_cat=0
split_feature=0 0 0 0 3 3 0 4 1 3 4 2 3 3
split_gain=0.659342 0.211484 0.20199 0.295351 0.144 0.457143 0.225 0.154452 0.14326 0.510722 0.414908 0.393216 0.352851 0.31318
threshold=4.4500000000000011 4.1500000000000012 11.450000000000001 14.350000000000003 5.7772727272727282 6.1772727272727286 4.2500000000000009 6.1318181818181836 1.0000000180025095e-35 5.4863636363636372 5.4318181818181825 0.98636363636363644 5.5409090909090919 7.0045454545454549
decision_type=2 2 2 2 2 2 2 2 2 2 2 2 2 2
left_child=1 -1 8 -4 6 -6 7 -3 10 -10 11 -2 -11 -13
right_child=2 4 3 -5 5 -7 -8 -9 9 12 -12 13 -14 -15
leaf_value=-0.064418989743453253 0.044046643551402642 0.040949599491495216 0.031221266205795847 -0.016636667023679892 0.020103333620828903 -0.038052143461763992 -0.038740087415373763 -0.042128569248112979 -0.066581221029057752 0.07236185973484667 -0.01389531852881635 -0.051056658576207614 0.0024728052394427233 0.032350416928995838
leaf_weight=89 100 49 81 33 48 42 80 31 212 81 2079 52 1981 38
leaf_count=89 100 49 81 33 48 42 80 31 212 81 2079 52 1981 38
internal_value=-0.000216174 -0.00234513 -6.11994e-05 0.00201754 -0.0016 -1.19209e-09 -0.0025 -0.000625001 -0.000113362 0.000167105 -0.000394448 0.0018421 0.00040737 -0.000555557
internal_weight=4996 339 4657 114 250 90 160 80 4543 2274 2269 190 2062 90
internal_count=4996 339 4657 114 250 90 160 80 4543 2274 2269 190 2062 90
is_linear=0
shrinkage=0.05


Tree=63
num_leaves=15
num_cat=0
split_feature=5 4 4 4 4 5 4 2 2 2 3 2 5 2
split_gain=0.286124 0.455325 0.250936 0.350394 0.554959 0.325961 0.375049 0.305397 0.398185 0.39813 0.290659 0.70226 0.289429 0.283652
threshold=1.0000000180025095e-35 8.0500000000000025 5.4318181818181825 5.7136363636363638 5.7500000000000009 7.166666666666667 7.9409090909090922 0.79090909090909156 -1.0000000180025095e-35 1.8863636363636369 10.06818181818182 3.0727272727272723 5.8333333333333348 -0.14545454545454503
decision_type=8 2 2 2 2 10 2 2 2 2 2 2 10 2
left_child=1 -1 -2 13 -5 10 7 8 -7 -9 11 12 -6 -4
right_child=2 -3 3 4 5 6 -8 9 -10 -11 -12 -13 -14 -15
leaf_value=-0.03213008514843109 0.012326202734233963 0.025957569317194198 -0.075795589139906083 0.079886067201909911 -0.0020829031189293508 0.040848200484137932 0.11127201691973757 0.098796294354083825 -0.059095166905143805 -0.0036223270191375178 -0.093222593255453276 0.11007356462126879 -0.04612050531178085 -0.014101650082776069
leaf_weight=466 390 48 70 55 3020 43 46 33 39 34 31 33 164 524
leaf_count=466 390 48 70 55 3020 43 46 33 39 34 31 33 164 524
internal_value=-0.00018615 -0.0013035 -5.8011e-05 -0.00017351 1.71515e-05 -6.24467e-05 0.00192308 0.000704697 -0.00134146 0.00320895 -0.000181651 -0.00013522 -0.000210428 -0.0012963
internal_weight=4996 514 4482 4092 3498 3443 195 149 82 67 3248 3217 3184 594
internal_count=4996 514 4482 4092 3498 3443 195 149 82 67 3248 3217 3184 594
is_linear=0
shrinkage=0.05


Tree=64
num_leaves=15
num_cat=0
split_feature=0 0 0 5 5 3 3 3 3 3 3 0 3 5
split_gain=0.49464 0.231001 0.683844 0.326567 0.280221 0.60599 0.584777 0.277885 0.421725 0.419286 0.278608 0.697348 0.249558 0.386109
threshold=4.4500000000000011 6.5500000000000007 6.6500000000000012 9.8333333333333339 1.0000000180025095e-35 5.8590909090909102 5.4681818181818196 6.0318181818181831 5.8318181818181829 6.2000000000000002 9.6500000000000021 11.65 7.3500000000000005 7.8333333333333348
decision_type=2 2 2 10 8 2 2 2 2 2 2 2 2 8
left_child=-1 4 -3 7 5 6 -2 8 -4 -9 11 12 13 -11
right_child=1 2 3 -5 -6 -7 -8 9 -10 10 -12 -13 -14 -15
leaf_value=-0.03075025923517169 -0.052115144828450234 0.13226744945223359 -0.024883676086396193 -0.019518612766295414 -0.0021400805775263318 -0.04352008086081114 0.095623285274478456 -0.057726650084384205 0.053046147968305951 0.0051158859956606404 -0.0078792486159116378 0.069145275216673061 -0.0096176864269020088 0.13671179922054308
leaf_weight=339 53 37 65 60 2864 210 81 84 74 478 78 36 470 67
leaf_count=339 53 37 65 60 2864 210 81 84 74 478 78 36 470 67
internal_value=-0.000206166 -7.19359e-05 0.000452035 0.000276203 -0.000308605 -0.00165698 0.000970148 0.000436389 0.00255396 0.000193733 0.000447297 0.000661274 0.000418718 0.00114679
internal_weight=4996 4657 1449 1412 3208 344 134 1352 139 1213 1129 1051 1015 545
internal_count=4996 4657 1449 1412 3208 344 134 1352 139 1213 1129 1051 1015 545
is_linear=0
shrinkage=0.05


Tree=65
num_leaves=15
num_cat=0
split_feature=0 2 2 2 1 2 0 2 3 2 3 3 4 4
split_gain=0.322868 0.240912 0.260653 0.20394 0.197145 0.382166 0.666334 0.268294 0.75625 0.290459 0.278328 0.257788 0.231404 0.561077
threshold=4.4500000000000011 -0.53636363636363649 -0.80000000000000016 -1.4818181818181826 1.0000000180025095e-35 2.2545454545454549 10.100000000000001 2.9863636363636363 9.6909090909090931 2.5954545454545461 8.7318181818181841 8.2863636363636388 5.4318181818181825 5.3681818181818191
decision_type=2 2 2 2 2 2 2 2 2 2 2 2 2 2
left_child=1 2 3 -1 5 6 12 9 -9 10 11 -6 13 -2
right_child=4 -3 -4 -5 7 -7 -8 8 -10 -11 -12 -13 -14 -15
leaf_value=0.0027727098580765611 -0.016808797627316609 -0.042682027450598459 0.022564911789667148 -0.03377141359335576 0.0025674952295650475 -0.022824486604473802 0.15854648112356437 0.10829012735532845 -0.028004967976029867 -0.043905901971415542 0.061732446458026759 -0.08529513654420634 -0.0062565359419572922 0.10341127490901098
leaf_weight=70 119 169 35 76 2122 168 40 32 40 43 50 40 1971 32
leaf_count=70 119 169 35 76 2122 168 40 32 40 43 50 40 1971 32
internal_value=-0.000106852 -0.00157143 -0.000303869 -0.00123288 3.21977e-06 -0.00032189 -0.000143387 0.000328748 0.00333333 0.000232815 0.000311934 0.000226641 -0.000263903 0.00162252
internal_weight=5007 350 181 146 4657 2330 2162 2327 72 2255 2212 2162 2122 151
internal_count=5007 350 181 146 4657 2330 2162 2327 72 2255 2212 2162 2122 151
is_linear=0
shrinkage=0.05


Tree=66
num_leaves=15
num_cat=0
split_feature=0 2 2 5 2 5 0 2 4 0 4 0 0 2
split_gain=0.331733 0.240912 0.260653 0.223407 0.243226 0.183785 0.593693 0.977778 0.387144 0.206135 0.204085 0.246235 0.329406 0.199237
threshold=4.4500000000000011 -0.53636363636363649 -0.80000000000000016 1.1666666666666667 -1.4818181818181826 1.0000000180025095e-35 6.4500000000000011 1.1318181818181821 8.0500000000000025 4.7500000000000009 5.4000000000000012 4.8500000000000005 5.5500000000000007 1.6863636363636372
decision_type=2 2 2 10 2 8 2 2 2 2 2 2 2 2
left_child=1 2 3 4 -1 6 8 -8 9 -2 11 -7 -13 -14
right_child=5 -3 -4 -5 -6 10 7 -9 -10 -11 -12 12 13 -15
leaf_value=0.057808519916705728 -0.029883458710834584 -0.040547926078068536 0.021436666200183786 -0.10774901775089601 -0.029358822029739551 0.061366314131303029 0.061337177682421862 -0.12070904333163171 0.0086010754336092576 -0.054759486102405767 7.4617711814658208e-05 -0.070936572204227805 0.037898271584588993 -0.017795334638455028
leaf_weight=56 72 169 35 31 59 40 30 36 38 224 3933 100 129 55
leaf_count=56 72 169 35 31 59 40 30 36 38 224 3933 100 129 55
internal_value=-8.68796e-05 -0.00157143 -0.000303869 -0.00123288 -0.000217392 2.46928e-05 -0.001 0.00333333 -0.00185629 -0.00246622 0.000120976 0.00132716 0.000809858 0.00206522
internal_weight=5007 350 181 146 115 4657 400 66 334 296 4257 324 284 184
internal_count=5007 350 181 146 115 4657 400 66 334 296 4257 324 284 184
is_linear=0
shrinkage=0.05


Tree=67
num_leaves=15
num_cat=0
split_feature=0 1 2 0 3 5 5 3 2 5 2 2 2 0
split_gain=0.525331 0.189881 0.305767 0.279837 0.490417 0.387831 0.334107 0.422882 0.269936 0.692133 0.541422 0.427763 0.639968 0.53251
threshold=4.1500000000000012 1.0000000180025095e-35 2.1818181818181825 6.2500000000000009 5.7136363636363638 1.0000000180025095e-35 1.0000000180025095e-35 8.1772727272727295 0.23636363636363592 5.166666666666667 0.34545454545454529 -0.036363636363636591 -0.17272727272727237 5.8500000000000005
decision_type=2 2 2 2 2 10 10 2 2 8 2 2 2 2
left_child=-1 2 3 5 -5 -2 -6 -8 11 10 -10 12 13 -7
right_child=1 -3 -4 4 6 8 7 -9 9 -11 -12 -13 -14 -15
leaf_value=-0.050256351630662555 -0.034324810300827742 0.0018001654980402408 -0.030366552458529119 0.062414326475372851 0.02169376974057043 -0.0016455910568478537 -0.018722259206799617 0.061123427268314823 0.061665627316621965 0.040693141679256042 -0.012702494202771265 -0.10038328658140015 0.11076052519406475 -0.19553459745898061
leaf_weight=91 342 2440 200 54 56 666 535 78 30 30 242 106 55 82
leaf_count=91 342 2440 200 54 56 666 535 78 30 30 242 106 55 82
